{"learner":{"attributes":{"best_iteration":"499","best_score":"0.03018526812865914","scikit_learn":"{\"_estimator_type\": \"regressor\"}"},"feature_names":[],"feature_types":[],"gradient_booster":{"model":{"gbtree_model_param":{"num_parallel_tree":"1","num_trees":"500"},"iteration_indptr":[0,1,2,3,4,5,6,7,8,9,10,11,12,13,14,15,16,17,18,19,20,21,22,23,24,25,26,27,28,29,30,31,32,33,34,35,36,37,38,39,40,41,42,43,44,45,46,47,48,49,50,51,52,53,54,55,56,57,58,59,60,61,62,63,64,65,66,67,68,69,70,71,72,73,74,75,76,77,78,79,80,81,82,83,84,85,86,87,88,89,90,91,92,93,94,95,96,97,98,99,100,101,102,103,104,105,106,107,108,109,110,111,112,113,114,115,116,117,118,119,120,121,122,123,124,125,126,127,128,129,130,131,132,133,134,135,136,137,138,139,140,141,142,143,144,145,146,147,148,149,150,151,152,153,154,155,156,157,158,159,160,161,162,163,164,165,166,167,168,169,170,171,172,173,174,175,176,177,178,179,180,181,182,183,184,185,186,187,188,189,190,191,192,193,194,195,196,197,198,199,200,201,202,203,204,205,206,207,208,209,210,211,212,213,214,215,216,217,218,219,220,221,222,223,224,225,226,227,228,229,230,231,232,233,234,235,236,237,238,239,240,241,242,243,244,245,246,247,248,249,250,251,252,253,254,255,256,257,258,259,260,261,262,263,264,265,266,267,268,269,270,271,272,273,274,275,276,277,278,279,280,281,282,283,284,285,286,287,288,289,290,291,292,293,294,295,296,297,298,299,300,301,302,303,304,305,306,307,308,309,310,311,312,313,314,315,316,317,318,319,320,321,322,323,324,325,326,327,328,329,330,331,332,333,334,335,336,337,338,339,340,341,342,343,344,345,346,347,348,349,350,351,352,353,354,355,356,357,358,359,360,361,362,363,364,365,366,367,368,369,370,371,372,373,374,375,376,377,378,379,380,381,382,383,384,385,386,387,388,389,390,391,392,393,394,395,396,397,398,399,400,401,402,403,404,405,406,407,408,409,410,411,412,413,414,415,416,417,418,419,420,421,422,423,424,425,426,427,428,429,430,431,432,433,434,435,436,437,438,439,440,441,442,443,444,445,446,447,448,449,450,451,452,453,454,455,456,457,458,459,460,461,462,463,464,465,466,467,468,469,470,471,472,473,474,475,476,477,478,479,480,481,482,483,484,485,486,487,488,489,490,491,492,493,494,495,496,497,498,499,500],"tree_info":[0,0,0,0,0,0,0,0,0,0,0,0,0,0,0,0,0,0,0,0,0,0,0,0,0,0,0,0,0,0,0,0,0,0,0,0,0,0,0,0,0,0,0,0,0,0,0,0,0,0,0,0,0,0,0,0,0,0,0,0,0,0,0,0,0,0,0,0,0,0,0,0,0,0,0,0,0,0,0,0,0,0,0,0,0,0,0,0,0,0,0,0,0,0,0,0,0,0,0,0,0,0,0,0,0,0,0,0,0,0,0,0,0,0,0,0,0,0,0,0,0,0,0,0,0,0,0,0,0,0,0,0,0,0,0,0,0,0,0,0,0,0,0,0,0,0,0,0,0,0,0,0,0,0,0,0,0,0,0,0,0,0,0,0,0,0,0,0,0,0,0,0,0,0,0,0,0,0,0,0,0,0,0,0,0,0,0,0,0,0,0,0,0,0,0,0,0,0,0,0,0,0,0,0,0,0,0,0,0,0,0,0,0,0,0,0,0,0,0,0,0,0,0,0,0,0,0,0,0,0,0,0,0,0,0,0,0,0,0,0,0,0,0,0,0,0,0,0,0,0,0,0,0,0,0,0,0,0,0,0,0,0,0,0,0,0,0,0,0,0,0,0,0,0,0,0,0,0,0,0,0,0,0,0,0,0,0,0,0,0,0,0,0,0,0,0,0,0,0,0,0,0,0,0,0,0,0,0,0,0,0,0,0,0,0,0,0,0,0,0,0,0,0,0,0,0,0,0,0,0,0,0,0,0,0,0,0,0,0,0,0,0,0,0,0,0,0,0,0,0,0,0,0,0,0,0,0,0,0,0,0,0,0,0,0,0,0,0,0,0,0,0,0,0,0,0,0,0,0,0,0,0,0,0,0,0,0,0,0,0,0,0,0,0,0,0,0,0,0,0,0,0,0,0,0,0,0,0,0,0,0,0,0,0,0,0,0,0,0,0,0,0,0,0,0,0,0,0,0,0,0,0,0,0,0,0,0,0,0,0,0,0,0,0,0,0,0,0,0,0,0,0,0,0,0,0,0,0,0,0,0,0,0,0,0,0,0,0,0,0,0,0,0,0,0,0,0,0,0,0,0,0,0,0,0,0,0,0,0,0,0,0,0,0,0,0,0,0,0,0],"trees":[{"base_weights":[-4.7385897E-6,-4.9478314E-3,1.6303878E-2,-7.369618E-4,-3.9899107E-2,5.672923E-3,3.0486278E-2,-9.766019E-3,1.3138083E-2,-2.5212998E-2,-4.709704E-2,1.9797243E-2,-9.651059E-4,2.2921424E-2,5.2787036E-2,3.5916228E-2,-1.542322E-2,1.719584E-2,-6.77615E-4,-3.3587996E-2,-1.1844542E-2,-3.6546577E-2,-5.3531494E-2,-4.0328675E-3,2.5201568E-2,9.319806E-3,-1.4405222E-2,2.6275497E-2,-2.9291451E-2,5.8109775E-2,2.9449703E-2,2.5173021E-2,4.398054E-2,2.662897E-3,-1.9138528E-2,6.919232E-3,2.4142884E-2,1.1237593E-2,-2.3523448E-2,-2.4244953E-2,-3.981028E-2,8.216092E-3,-3.3872627E-2,-4.6369888E-2,-3.5270635E-2,1.7135966E-3,-5.3900767E-2,4.3748356E-2,-1.06556015E-2,1.5779184E-2,5.4449E-2,3.4629155E-2,2.839098E-3,-3.7903283E-2,6.323912E-3,3.2368086E-2,1.42950555E-2,-2.9799858E-2,3.2912683E-2,3.3423826E-2,5.8324862E-2,5.9604883E-2,9.794679E-3,-1.7452904E-3,1.3156249E-3,2.3888547E-3,7.24676E-4,1.481163E-5,4.802454E-4,-1.2061899E-3,-5.4218323E-4,9.827664E-4,-1.7519818E-5,2.4599188E-3,7.916912E-4,8.5150305E-4,9.656851E-5,-1.4383032E-3,-6.9303636E-4,-2.2229708E-3,-9.268244E-4,-2.4946798E-3,-1.6270707E-3,2.2316212E-3,-5.4384716E-4,-1.7049796E-3,-1.0752246E-3,-1.6166981E-3,-2.5985374E-3,-1.7367242E-3,-1.9279866E-3,-2.7503285E-3,-1.4161933E-3,9.9920195E-5,2.9104785E-3,-1.7355807E-3,-4.420899E-4,1.1459943E-3,-2.5209037E-3,2.1525475E-3,2.9986263E-3,1.8641293E-3,5.1134964E-4,1.6228639E-3,-1.2990418E-4,-1.1521586E-3,-2.6647167E-3,8.879046E-4,-1.3758778E-3,5.692296E-4,2.1787127E-3,2.2055455E-3,3.15877E-4,-1.4666526E-3,-1.6615617E-3,-3.1035393E-5,2.0349452E-3,-1.166249E-3,1.800239E-3,2.7698395E-3,2.9850986E-3,2.9974284E-3,-3.1371057E-4,-1.7435699E-3,1.4354299E-3],"categories":[],"categories_nodes":[],"categories_segments":[],"categories_sizes":[],"default_left":[0,0,0,0,0,0,0,0,0,0,0,0,0,0,0,0,0,0,0,0,0,0,0,0,0,0,0,0,0,0,0,0,0,0,0,0,0,0,0,0,0,0,0,0,0,0,0,0,0,0,0,0,0,0,0,0,0,0,0,0,0,0,0,0,0,0,0,0,0,0,0,0,0,0,0,0,0,0,0,0,0,0,0,0,0,0,0,0,0,0,0,0,0,0,0,0,0,0,0,0,0,0,0,0,0,0,0,0,0,0,0,0,0,0,0,0,0,0,0,0,0,0,0,0,0],"id":0,"left_children":[1,3,5,7,9,11,13,15,17,19,21,23,25,27,29,31,33,35,37,39,41,43,45,47,49,51,53,55,57,59,61,63,65,67,69,71,73,75,77,79,81,83,85,87,89,-1,91,93,95,97,99,101,103,105,107,109,111,113,115,117,119,121,123,-1,-1,-1,-1,-1,-1,-1,-1,-1,-1,-1,-1,-1,-1,-1,-1,-1,-1,-1,-1,-1,-1,-1,-1,-1,-1,-1,-1,-1,-1,-1,-1,-1,-1,-1,-1,-1,-1,-1,-1,-1,-1,-1,-1,-1,-1,-1,-1,-1,-1,-1,-1,-1,-1,-1,-1,-1,-1,-1,-1,-1,-1],"loss_changes":[3.4360535E1,4.813953E1,1.4947407E1,3.657157E1,3.7166252E0,5.312891E0,7.164402E0,4.570273E1,6.4514275E0,1.2949891E0,1.6002312E0,2.3333116E0,5.328916E0,5.5554066E0,1.334631E0,1.6871796E0,1.0573727E1,6.3503704E0,7.11237E0,4.1254997E-1,1.9702566E0,1.1046791E-1,4.7711182E-1,1.0605481E0,4.0689144E0,3.5819898E0,8.140562E0,2.1749878E0,6.154287E-2,4.4555664E-2,1.1848179E0,5.7309437E-1,1.2453003E0,4.405846E-1,5.397888E0,3.3220174E0,1.1048574E1,9.2564106E-1,4.532938E-1,3.2758594E-1,3.111968E-1,1.6233118E0,5.2318573E-3,7.889819E-2,1.2627602E-2,0E0,4.112854E-1,2.4621564E-1,1.2810463E-1,5.2816296E0,2.239399E-1,2.8788328E-1,2.800238E0,1.7902784E0,3.4365997E0,4.6450195E0,2.3899407E0,2.0686388E-3,4.2028353E-3,1.2264147E-2,3.1700134E-2,1.8240452E-2,1.0249114E0,0E0,0E0,0E0,0E0,0E0,0E0,0E0,0E0,0E0,0E0,0E0,0E0,0E0,0E0,0E0,0E0,0E0,0E0,0E0,0E0,0E0,0E0,0E0,0E0,0E0,0E0,0E0,0E0,0E0,0E0,0E0,0E0,0E0,0E0,0E0,0E0,0E0,0E0,0E0,0E0,0E0,0E0,0E0,0E0,0E0,0E0,0E0,0E0,0E0,0E0,0E0,0E0,0E0,0E0,0E0,0E0,0E0,0E0,0E0,0E0,0E0,0E0],"parents":[2147483647,0,0,1,1,2,2,3,3,4,4,5,5,6,6,7,7,8,8,9,9,10,10,11,11,12,12,13,13,14,14,15,15,16,16,17,17,18,18,19,19,20,20,21,21,22,22,23,23,24,24,25,25,26,26,27,27,28,28,29,29,30,30,31,31,32,32,33,33,34,34,35,35,36,36,37,37,38,38,39,39,40,40,41,41,42,42,43,43,44,44,46,46,47,47,48,48,49,49,50,50,51,51,52,52,53,53,54,54,55,55,56,56,57,57,58,58,59,59,60,60,61,61,62,62],"right_children":[2,4,6,8,10,12,14,16,18,20,22,24,26,28,30,32,34,36,38,40,42,44,46,48,50,52,54,56,58,60,62,64,66,68,70,72,74,76,78,80,82,84,86,88,90,-1,92,94,96,98,100,102,104,106,108,110,112,114,116,118,120,122,124,-1,-1,-1,-1,-1,-1,-1,-1,-1,-1,-1,-1,-1,-1,-1,-1,-1,-1,-1,-1,-1,-1,-1,-1,-1,-1,-1,-1,-1,-1,-1,-1,-1,-1,-1,-1,-1,-1,-1,-1,-1,-1,-1,-1,-1,-1,-1,-1,-1,-1,-1,-1,-1,-1,-1,-1,-1,-1,-1,-1,-1,-1],"split_conditions":[5.937657E-1,3.45033E-1,3.3086288E-1,-1.855951E-1,1.091957E0,-1.1456908E0,1.7876831E0,-1.1197262E0,3.339793E-1,3.5015693E-1,3.671442E-1,-1.7080944E0,1.389712E0,1.5831707E0,2.052999E0,3.5015693E-1,-1.069978E0,1.4052054E-1,3.3086288E-1,-1.230138E0,8.769219E-1,-1.8428673E-1,-3.2751844E0,1.4007657E0,2.8213062E0,-1.0545496E0,1.6771352E0,1.017729E0,6.7429596E-1,3.5015693E-1,-1.564502E0,-2.1080794E0,-1.1418352E0,-1.075506E0,5.0257945E-1,5.20817E-2,2.0684816E-1,3.3950725E-1,3.3950725E-1,-1.9324912E0,-5.2778465E-1,3.6161625E-1,5.6060296E-1,3.560883E-1,3.6161625E-1,1.7135966E-3,5.108548E-1,1.1796699E0,1.5886965E0,1.5831707E0,-1.0428694E0,1.2116174E0,6.1034894E-1,1.5831707E0,2.052999E0,6.214026E-1,6.1034894E-1,1.2295663E0,-1.582451E0,-9.003872E-1,1.5885473E0,6.7429596E-1,6.7429596E-1,-1.7452904E-3,1.3156249E-3,2.3888547E-3,7.24676E-4,1.481163E-5,4.802454E-4,-1.2061899E-3,-5.4218323E-4,9.827664E-4,-1.7519818E-5,2.4599188E-3,7.916912E-4,8.5150305E-4,9.656851E-5,-1.4383032E-3,-6.9303636E-4,-2.2229708E-3,-9.268244E-4,-2.4946798E-3,-1.6270707E-3,2.2316212E-3,-5.4384716E-4,-1.7049796E-3,-1.0752246E-3,-1.6166981E-3,-2.5985374E-3,-1.7367242E-3,-1.9279866E-3,-2.7503285E-3,-1.4161933E-3,9.9920195E-5,2.9104785E-3,-1.7355807E-3,-4.420899E-4,1.1459943E-3,-2.5209037E-3,2.1525475E-3,2.9986263E-3,1.8641293E-3,5.1134964E-4,1.6228639E-3,-1.2990418E-4,-1.1521586E-3,-2.6647167E-3,8.879046E-4,-1.3758778E-3,5.692296E-4,2.1787127E-3,2.2055455E-3,3.15877E-4,-1.4666526E-3,-1.6615617E-3,-3.1035393E-5,2.0349452E-3,-1.166249E-3,1.800239E-3,2.7698395E-3,2.9850986E-3,2.9974284E-3,-3.1371057E-4,-1.7435699E-3,1.4354299E-3],"split_indices":[1,1,2,1,0,0,1,1,1,3,1,0,1,1,1,3,1,1,2,3,3,2,2,1,1,3,1,2,2,3,0,3,1,1,2,1,1,1,1,3,3,1,1,1,1,0,1,1,1,1,2,0,1,1,1,1,1,0,0,0,0,2,2,0,0,0,0,0,0,0,0,0,0,0,0,0,0,0,0,0,0,0,0,0,0,0,0,0,0,0,0,0,0,0,0,0,0,0,0,0,0,0,0,0,0,0,0,0,0,0,0,0,0,0,0,0,0,0,0,0,0,0,0,0,0],"split_type":[0,0,0,0,0,0,0,0,0,0,0,0,0,0,0,0,0,0,0,0,0,0,0,0,0,0,0,0,0,0,0,0,0,0,0,0,0,0,0,0,0,0,0,0,0,0,0,0,0,0,0,0,0,0,0,0,0,0,0,0,0,0,0,0,0,0,0,0,0,0,0,0,0,0,0,0,0,0,0,0,0,0,0,0,0,0,0,0,0,0,0,0,0,0,0,0,0,0,0,0,0,0,0,0,0,0,0,0,0,0,0,0,0,0,0,0,0,0,0,0,0,0,0,0,0],"sum_hessian":[4.26228E5,3.27089E5,9.9139E4,2.9192E5,3.5169E4,5.6665E4,4.2474E4,1.76842E5,1.15078E5,1.1569E4,2.36E4,1.8116E4,3.8549E4,3.1717E4,1.0757E4,1.9486E4,1.57356E5,8.8952E4,2.6126E4,7.112E3,4.457E3,8.943E3,1.4657E4,3.349E3,1.4767E4,2.1838E4,1.6711E4,2.9803E4,1.914E3,8.758E3,1.999E3,8.357E3,1.1129E4,2.6816E4,1.3054E5,3.5879E4,5.3073E4,1.7171E4,8.955E3,2.845E3,4.267E3,2.333E3,2.124E3,1.024E3,7.919E3,6.1E1,1.4596E4,4.07E2,2.942E3,1.117E4,3.597E3,4.451E3,1.7387E4,7.832E3,8.879E3,1.9755E4,1.0048E4,1.899E3,1.5E1,7.7E1,8.681E3,7.88E2,1.211E3,1.55E2,8.202E3,9.859E3,1.27E3,1.9999E4,6.817E3,8.1535E4,4.9005E4,1.3037E4,2.2842E4,1.3216E4,3.9857E4,1.0583E4,6.588E3,5.804E3,3.151E3,6.25E2,2.22E3,1.785E3,2.482E3,8.02E2,1.531E3,2.084E3,4E1,2.94E2,7.3E2,6.819E3,1.1E3,1.399E4,6.06E2,1.05E2,3.02E2,2.05E2,2.737E3,1.0083E4,1.087E3,1.177E3,2.42E3,4.014E3,4.37E2,2.696E3,1.4691E4,3.986E3,3.846E3,6.637E3,2.242E3,6.878E3,1.2877E4,2.12E3,7.928E3,1.68E3,2.19E2,3E0,1.2E1,3E0,7.4E1,2.79E3,5.891E3,7.84E2,4E0,3.6E2,8.51E2],"tree_param":{"num_deleted":"0","num_feature":"5","num_nodes":"125","size_leaf_vector":"1"}},{"base_weights":[5.314225E-6,-4.718421E-3,1.5591869E-2,-6.996183E-4,-3.7954584E-2,5.566752E-3,2.9022656E-2,-9.215217E-3,1.2406248E-2,-2.4038592E-2,-4.4796303E-2,1.8862266E-2,-8.0291135E-4,2.1748051E-2,5.035777E-2,3.4270633E-2,-1.4586526E-2,1.6211677E-2,-5.673866E-4,-3.2134935E-2,-1.1101849E-2,-3.4717433E-2,-5.1030997E-2,-3.664328E-3,2.3908058E-2,8.97875E-3,-1.3478548E-2,2.4980275E-2,-2.783565E-2,5.5165675E-2,2.9359726E-2,2.4076885E-2,4.1736096E-2,2.6257518E-3,-1.812388E-2,6.32084E-3,2.2904249E-2,1.1028105E-2,-2.2519516E-2,-2.3198629E-2,-3.8210116E-2,8.050631E-3,-3.2302126E-2,-4.405079E-2,-3.3490423E-2,1.6283548E-3,-5.1372014E-2,4.119341E-2,-1.00713335E-2,1.5013159E-2,5.1752444E-2,3.2992773E-2,2.8453618E-3,-3.5942115E-2,6.249533E-3,5.1869977E-2,2.2247558E-2,-2.8309146E-2,2.7250994E-2,5.3610874E-4,5.5265483E-2,5.6479994E-2,1.1044342E-2,-1.5928618E-3,1.2556271E-3,2.2633434E-3,7.272637E-4,1.31987545E-5,4.7978325E-4,-1.1405657E-3,-5.1748095E-4,9.2191965E-4,-3.1079282E-5,2.3298904E-3,7.5212604E-4,8.156444E-4,1.2104155E-4,-1.3736591E-3,-6.5809506E-4,-2.109669E-3,-8.9637155E-4,-2.36773E-3,-1.5815666E-3,2.1125E-3,-4.9195264E-4,-1.7035094E-3,-1.5688488E-3,-1.5094015E-3,-2.469533E-3,-1.6479569E-3,-1.8396535E-3,-2.6147652E-3,-1.4077417E-3,-9.7407465E-4,2.5277906E-3,-1.6781479E-3,-4.2155533E-4,1.2613247E-3,-1.4137401E-3,2.043899E-3,2.8487958E-3,1.7745553E-3,4.203105E-4,1.5671299E-3,-1.1967629E-4,-1.0741231E-3,-2.537782E-3,8.7265094E-4,-1.3556763E-3,2.8469053E-3,2.2273145E-3,1.2522637E-3,-1.3748527E-3,1.4933959E-3,-1.4177526E-3,2.4160817E-4,2.123048E-3,1.0101316E-3,-1.5222507E-3,2.583414E-3,2.8281661E-3,1.7173652E-3,2.8484103E-3,-1.6437302E-3,1.4035867E-3],"categories":[],"categories_nodes":[],"categories_segments":[],"categories_sizes":[],"default_left":[0,0,0,0,0,0,0,0,0,0,0,0,0,0,0,0,0,0,0,0,0,0,0,0,0,0,0,0,0,0,0,0,0,0,0,0,0,0,0,0,0,0,0,0,0,0,0,0,0,0,0,0,0,0,0,0,0,0,0,0,0,0,0,0,0,0,0,0,0,0,0,0,0,0,0,0,0,0,0,0,0,0,0,0,0,0,0,0,0,0,0,0,0,0,0,0,0,0,0,0,0,0,0,0,0,0,0,0,0,0,0,0,0,0,0,0,0,0,0,0,0,0,0,0,0],"id":1,"left_children":[1,3,5,7,9,11,13,15,17,19,21,23,25,27,29,31,33,35,37,39,41,43,45,47,49,51,53,55,57,59,61,63,65,67,69,71,73,75,77,79,81,83,85,87,89,-1,91,93,95,97,99,101,103,105,107,109,111,113,115,117,119,121,123,-1,-1,-1,-1,-1,-1,-1,-1,-1,-1,-1,-1,-1,-1,-1,-1,-1,-1,-1,-1,-1,-1,-1,-1,-1,-1,-1,-1,-1,-1,-1,-1,-1,-1,-1,-1,-1,-1,-1,-1,-1,-1,-1,-1,-1,-1,-1,-1,-1,-1,-1,-1,-1,-1,-1,-1,-1,-1,-1,-1,-1,-1],"loss_changes":[3.139526E1,4.3708885E1,1.3353146E1,3.2581646E1,3.3598099E0,4.8092747E0,6.5775566E0,4.1333862E1,5.6765995E0,1.2185054E0,1.4852448E0,2.0908341E0,4.76067E0,5.0668516E0,1.0863895E0,1.4795399E0,9.589882E0,5.884804E0,6.638292E0,3.8766527E-1,1.819716E0,1.0213375E-1,4.1840744E-1,9.6810335E-1,3.7212524E0,3.1919172E0,7.411683E0,2.1795692E0,5.124259E-2,4.7777176E-2,9.977795E-1,4.7737932E-1,1.0773754E0,4.4201842E-1,4.7609673E0,3.0184245E0,9.876204E0,7.76206E-1,4.1747808E-1,2.8950632E-1,2.5472212E-1,1.4412419E0,2.4104118E-3,7.608771E-2,1.28240585E-2,0E0,3.1061554E-1,2.4013937E-1,1.132696E-1,5.0368385E0,2.04319E-1,2.7052593E-1,2.5774834E0,1.6739416E0,3.329007E0,9.905434E-2,3.7500992E0,5.9719086E-3,5.591645E-3,1.0973016E-2,3.7937164E-2,6.7956448E-3,8.990607E-1,0E0,0E0,0E0,0E0,0E0,0E0,0E0,0E0,0E0,0E0,0E0,0E0,0E0,0E0,0E0,0E0,0E0,0E0,0E0,0E0,0E0,0E0,0E0,0E0,0E0,0E0,0E0,0E0,0E0,0E0,0E0,0E0,0E0,0E0,0E0,0E0,0E0,0E0,0E0,0E0,0E0,0E0,0E0,0E0,0E0,0E0,0E0,0E0,0E0,0E0,0E0,0E0,0E0,0E0,0E0,0E0,0E0,0E0,0E0,0E0,0E0,0E0],"parents":[2147483647,0,0,1,1,2,2,3,3,4,4,5,5,6,6,7,7,8,8,9,9,10,10,11,11,12,12,13,13,14,14,15,15,16,16,17,17,18,18,19,19,20,20,21,21,22,22,23,23,24,24,25,25,26,26,27,27,28,28,29,29,30,30,31,31,32,32,33,33,34,34,35,35,36,36,37,37,38,38,39,39,40,40,41,41,42,42,43,43,44,44,46,46,47,47,48,48,49,49,50,50,51,51,52,52,53,53,54,54,55,55,56,56,57,57,58,58,59,59,60,60,61,61,62,62],"right_children":[2,4,6,8,10,12,14,16,18,20,22,24,26,28,30,32,34,36,38,40,42,44,46,48,50,52,54,56,58,60,62,64,66,68,70,72,74,76,78,80,82,84,86,88,90,-1,92,94,96,98,100,102,104,106,108,110,112,114,116,118,120,122,124,-1,-1,-1,-1,-1,-1,-1,-1,-1,-1,-1,-1,-1,-1,-1,-1,-1,-1,-1,-1,-1,-1,-1,-1,-1,-1,-1,-1,-1,-1,-1,-1,-1,-1,-1,-1,-1,-1,-1,-1,-1,-1,-1,-1,-1,-1,-1,-1,-1,-1,-1,-1,-1,-1,-1,-1,-1,-1,-1,-1,-1,-1],"split_conditions":[5.937657E-1,3.45033E-1,3.3086288E-1,-1.855951E-1,1.1099061E0,-1.1337248E0,1.7876831E0,-1.1197262E0,3.339793E-1,3.5015693E-1,3.671442E-1,-1.7080944E0,1.389712E0,1.5831707E0,2.052999E0,3.5015693E-1,-1.069978E0,1.4052054E-1,3.3086288E-1,-1.230138E0,8.769219E-1,-1.8428673E-1,-3.2751844E0,1.4007657E0,2.8213062E0,-1.0545496E0,1.6771352E0,6.04821E-1,6.7429596E-1,-9.003872E-1,-1.4328756E0,-2.1080794E0,-1.1418352E0,-1.075506E0,5.0257945E-1,5.20817E-2,2.0684816E-1,3.3950725E-1,3.3950725E-1,-1.9324912E0,-5.2778465E-1,3.6161625E-1,3.5056093E-1,3.560883E-1,3.6161625E-1,1.6283548E-3,5.108548E-1,6.214026E-1,1.5886965E0,1.5721148E0,-8.711529E-1,1.2295663E0,6.1034894E-1,1.5831707E0,2.052999E0,5.992936E-1,1.4036868E0,-1.7619414E0,-1.3431304E0,-1.4807397E0,1.5765812E0,2.8213062E0,6.7429596E-1,-1.5928618E-3,1.2556271E-3,2.2633434E-3,7.272637E-4,1.31987545E-5,4.7978325E-4,-1.1405657E-3,-5.1748095E-4,9.2191965E-4,-3.1079282E-5,2.3298904E-3,7.5212604E-4,8.156444E-4,1.2104155E-4,-1.3736591E-3,-6.5809506E-4,-2.109669E-3,-8.9637155E-4,-2.36773E-3,-1.5815666E-3,2.1125E-3,-4.9195264E-4,-1.7035094E-3,-1.5688488E-3,-1.5094015E-3,-2.469533E-3,-1.6479569E-3,-1.8396535E-3,-2.6147652E-3,-1.4077417E-3,-9.7407465E-4,2.5277906E-3,-1.6781479E-3,-4.2155533E-4,1.2613247E-3,-1.4137401E-3,2.043899E-3,2.8487958E-3,1.7745553E-3,4.203105E-4,1.5671299E-3,-1.1967629E-4,-1.0741231E-3,-2.537782E-3,8.7265094E-4,-1.3556763E-3,2.8469053E-3,2.2273145E-3,1.2522637E-3,-1.3748527E-3,1.4933959E-3,-1.4177526E-3,2.4160817E-4,2.123048E-3,1.0101316E-3,-1.5222507E-3,2.583414E-3,2.8281661E-3,1.7173652E-3,2.8484103E-3,-1.6437302E-3,1.4035867E-3],"split_indices":[1,1,2,1,0,0,1,1,1,3,1,0,1,1,1,3,1,1,2,3,3,2,2,1,1,3,1,1,2,0,0,3,1,1,2,1,1,1,1,3,3,1,1,1,1,0,1,1,1,1,2,0,1,1,1,1,3,0,0,0,0,1,2,0,0,0,0,0,0,0,0,0,0,0,0,0,0,0,0,0,0,0,0,0,0,0,0,0,0,0,0,0,0,0,0,0,0,0,0,0,0,0,0,0,0,0,0,0,0,0,0,0,0,0,0,0,0,0,0,0,0,0,0,0,0],"split_type":[0,0,0,0,0,0,0,0,0,0,0,0,0,0,0,0,0,0,0,0,0,0,0,0,0,0,0,0,0,0,0,0,0,0,0,0,0,0,0,0,0,0,0,0,0,0,0,0,0,0,0,0,0,0,0,0,0,0,0,0,0,0,0,0,0,0,0,0,0,0,0,0,0,0,0,0,0,0,0,0,0,0,0,0,0,0,0,0,0,0,0,0,0,0,0,0,0,0,0,0,0,0,0,0,0,0,0,0,0,0,0,0,0,0,0,0,0,0,0,0,0,0,0,0,0],"sum_hessian":[4.26409E5,3.27236E5,9.9173E4,2.91937E5,3.5299E4,5.6787E4,4.2386E4,1.76958E5,1.14979E5,1.1636E4,2.3663E4,1.8393E4,3.8394E4,3.161E4,1.0776E4,1.9454E4,1.57504E5,8.8902E4,2.6077E4,7.156E3,4.48E3,9.046E3,1.4617E4,3.366E3,1.5027E4,2.1671E4,1.6723E4,2.9676E4,1.934E3,8.767E3,2.009E3,8.226E3,1.1228E4,2.6851E4,1.30653E5,3.5879E4,5.3023E4,1.7064E4,9.013E3,2.898E3,4.258E3,2.354E3,2.126E3,1.047E3,7.999E3,5.9E1,1.4558E4,4.2E2,2.946E3,1.139E4,3.637E3,4.408E3,1.7263E4,7.819E3,8.904E3,2.736E3,2.694E4,1.918E3,1.6E1,1.6E1,8.751E3,8.09E2,1.2E3,1.49E2,8.077E3,9.937E3,1.291E3,2.0056E4,6.795E3,8.1507E4,4.9146E4,1.3068E4,2.2811E4,1.3209E4,3.9814E4,1.0572E4,6.492E3,5.892E3,3.121E3,6.28E2,2.27E3,1.779E3,2.479E3,8.08E2,1.546E3,7.18E2,1.408E3,2.93E2,7.54E2,6.9E3,1.099E3,1.4E4,5.58E2,5.6E1,3.64E2,1.91E2,2.755E3,9.216E3,2.174E3,1.183E3,2.454E3,4.001E3,4.07E2,2.68E3,1.4583E4,3.958E3,3.861E3,6.666E3,2.238E3,1.613E3,1.123E3,2.5506E4,1.434E3,1E0,1.917E3,7E0,9E0,1E1,6E0,2.331E3,6.42E3,1.9E1,7.9E2,3.35E2,8.65E2],"tree_param":{"num_deleted":"0","num_feature":"5","num_nodes":"125","size_leaf_vector":"1"}},{"base_weights":[-1.6547707E-5,-4.4856006E-3,1.4729413E-2,-6.6338776E-4,-3.605623E-2,5.4854853E-3,2.7825445E-2,-8.816666E-3,1.1858973E-2,-2.2971248E-2,-4.2458307E-2,1.8789334E-2,-1.6075162E-3,2.0879794E-2,4.755122E-2,3.2459445E-2,-1.3919867E-2,1.54380845E-2,-3.396198E-4,-3.0643653E-2,-1.0880789E-2,-3.2942142E-2,-4.8359565E-2,1.2870928E-2,4.4243805E-2,7.198797E-3,-1.15384655E-2,2.3783935E-2,-2.6266977E-2,5.2555706E-2,2.4989735E-2,2.2734495E-2,3.9680008E-2,-1.9756667E-3,-1.8496405E-2,5.9816716E-3,2.1790994E-2,1.0919815E-2,-1.6924402E-2,-2.2465391E-2,-3.61607E-2,7.416403E-3,-3.0608363E-2,-3.9486356E-2,-3.1669438E-2,1.558604E-3,-4.8705857E-2,-8.037491E-3,1.8437646E-2,4.834097E-2,2.512088E-2,3.130963E-2,1.2888034E-3,-2.90414E-2,6.009091E-3,4.8897535E-2,2.125297E-2,-2.6669398E-2,2.5796797E-2,4.7853384E-2,2.7106965E-3,5.354664E-2,8.704095E-3,-1.3921721E-3,1.1854629E-3,2.1582048E-3,6.4194907E-4,-5.9511524E-4,6.630399E-5,-1.1183299E-3,-5.909361E-4,8.869947E-4,-3.520767E-5,2.2156874E-3,7.1496196E-4,3.8653845E-4,1.034215E-3,-2.4657208E-4,-1.1114753E-3,-2.007869E-3,-8.810501E-4,-2.2527385E-3,-1.4876708E-3,2.0327212E-3,-5.25472E-4,-1.5409128E-3,-1.0350222E-3,-1.5307422E-3,-2.2689714E-3,-1.5588469E-3,-1.7449966E-3,-2.4831905E-3,-1.3070139E-3,1.6747825E-3,-5.961659E-4,4.1952627E-4,2.435209E-3,-8.529199E-5,2.5296821E-3,2.6717945E-4,2.0775804E-3,1.8558986E-3,1.0756582E-3,1.4871615E-3,-2.1140584E-4,-7.552463E-4,-2.37739E-3,8.118685E-4,-1.2659467E-3,2.7146323E-3,2.0707871E-3,1.2041007E-3,-1.3165363E-3,6.1380805E-4,-1.3382937E-3,1.6195401E-4,2.3945894E-3,2.101653E-3,2.533772E-3,4.6961987E-4,2.6956366E-3,-1.0083625E-3,2.1072703E-3],"categories":[],"categories_nodes":[],"categories_segments":[],"categories_sizes":[],"default_left":[0,0,0,0,0,0,0,0,0,0,0,0,0,0,0,0,0,0,0,0,0,0,0,0,0,0,0,0,0,0,0,0,0,0,0,0,0,0,0,0,0,0,0,0,0,0,0,0,0,0,0,0,0,0,0,0,0,0,0,0,0,0,0,0,0,0,0,0,0,0,0,0,0,0,0,0,0,0,0,0,0,0,0,0,0,0,0,0,0,0,0,0,0,0,0,0,0,0,0,0,0,0,0,0,0,0,0,0,0,0,0,0,0,0,0,0,0,0,0,0,0,0,0],"id":2,"left_children":[1,3,5,7,9,11,13,15,17,19,21,23,25,27,29,31,33,35,37,39,41,43,45,47,49,51,53,55,57,59,61,63,65,67,69,71,73,75,77,79,81,83,85,87,89,-1,91,93,95,97,99,101,103,105,107,109,111,113,115,117,-1,119,121,-1,-1,-1,-1,-1,-1,-1,-1,-1,-1,-1,-1,-1,-1,-1,-1,-1,-1,-1,-1,-1,-1,-1,-1,-1,-1,-1,-1,-1,-1,-1,-1,-1,-1,-1,-1,-1,-1,-1,-1,-1,-1,-1,-1,-1,-1,-1,-1,-1,-1,-1,-1,-1,-1,-1,-1,-1,-1,-1,-1],"loss_changes":[2.8058975E1,3.942879E1,1.1988056E1,2.9758076E1,2.9550514E0,5.4781566E0,5.613062E0,3.718436E1,5.0181694E0,1.075252E0,1.3289452E0,3.040751E0,3.3116558E0,4.150284E0,1.2034225E0,1.3630447E0,8.587807E0,5.338442E0,4.8691206E0,3.1922245E-1,1.6256264E0,7.430935E-2,4.042282E-1,1.9067535E0,2.9714108E-1,2.8598313E0,5.4662333E0,1.8135834E0,3.7541747E-2,6.549454E-2,9.0129995E-1,4.0882778E-1,1.0417805E0,1.4264598E0,2.935192E0,2.8073761E0,8.968304E0,4.8346603E-1,6.7074084E-1,2.4441421E-1,2.399416E-1,1.3928574E0,3.8685799E-3,7.5619936E-2,1.1003971E-2,0E0,3.1341934E-1,5.563899E-1,3.9336233E0,3.5352325E-1,2.1879783E-1,2.2401857E-1,2.5306563E0,2.2972941E0,2.848409E0,1.0322571E-1,3.492177E0,6.888747E-3,6.8226513E-3,3.5401344E-2,0E0,1.0873556E-2,1.1942025E0,0E0,0E0,0E0,0E0,0E0,0E0,0E0,0E0,0E0,0E0,0E0,0E0,0E0,0E0,0E0,0E0,0E0,0E0,0E0,0E0,0E0,0E0,0E0,0E0,0E0,0E0,0E0,0E0,0E0,0E0,0E0,0E0,0E0,0E0,0E0,0E0,0E0,0E0,0E0,0E0,0E0,0E0,0E0,0E0,0E0,0E0,0E0,0E0,0E0,0E0,0E0,0E0,0E0,0E0,0E0,0E0,0E0,0E0,0E0,0E0],"parents":[2147483647,0,0,1,1,2,2,3,3,4,4,5,5,6,6,7,7,8,8,9,9,10,10,11,11,12,12,13,13,14,14,15,15,16,16,17,17,18,18,19,19,20,20,21,21,22,22,23,23,24,24,25,25,26,26,27,27,28,28,29,29,30,30,31,31,32,32,33,33,34,34,35,35,36,36,37,37,38,38,39,39,40,40,41,41,42,42,43,43,44,44,46,46,47,47,48,48,49,49,50,50,51,51,52,52,53,53,54,54,55,55,56,56,57,57,58,58,59,59,61,61,62,62],"right_children":[2,4,6,8,10,12,14,16,18,20,22,24,26,28,30,32,34,36,38,40,42,44,46,48,50,52,54,56,58,60,62,64,66,68,70,72,74,76,78,80,82,84,86,88,90,-1,92,94,96,98,100,102,104,106,108,110,112,114,116,118,-1,120,122,-1,-1,-1,-1,-1,-1,-1,-1,-1,-1,-1,-1,-1,-1,-1,-1,-1,-1,-1,-1,-1,-1,-1,-1,-1,-1,-1,-1,-1,-1,-1,-1,-1,-1,-1,-1,-1,-1,-1,-1,-1,-1,-1,-1,-1,-1,-1,-1,-1,-1,-1,-1,-1,-1,-1,-1,-1,-1,-1,-1],"split_conditions":[5.937657E-1,3.45033E-1,3.5015693E-1,-1.855951E-1,1.091957E0,-8.04728E-1,1.7876831E0,-1.1197262E0,3.339793E-1,3.5015693E-1,3.671442E-1,-1.0196978E-3,1.389712E0,1.5831707E0,2.052999E0,3.5015693E-1,-1.0589243E0,1.4052054E-1,1.7456862E-1,-1.230138E0,8.769219E-1,-1.0196978E-3,-2.986021E0,-1.9825792E0,-1.0010365E0,-1.0545496E0,1.6771352E0,6.04821E-1,8.769219E-1,1.5152819E0,-1.5286038E0,-2.1080794E0,-1.1418352E0,-5.2778465E-1,5.257453E-1,5.20817E-2,2.0684816E-1,-3.5219634E-1,5.257453E-1,-1.9324912E0,-5.2778465E-1,3.6161625E-1,5.6060296E-1,3.560883E-1,3.6161625E-1,1.558604E-3,5.108548E-1,-7.0337296E-1,2.8213062E0,6.158769E-1,1.7456862E-1,-1.4057262E0,6.1034894E-1,1.5831707E0,2.052999E0,5.992936E-1,1.4036868E0,-1.4807397E0,-9.482513E-1,7.013336E-1,2.7106965E-3,-2.0361178E0,1.5152819E0,-1.3921721E-3,1.1854629E-3,2.1582048E-3,6.4194907E-4,-5.9511524E-4,6.630399E-5,-1.1183299E-3,-5.909361E-4,8.869947E-4,-3.520767E-5,2.2156874E-3,7.1496196E-4,3.8653845E-4,1.034215E-3,-2.4657208E-4,-1.1114753E-3,-2.007869E-3,-8.810501E-4,-2.2527385E-3,-1.4876708E-3,2.0327212E-3,-5.25472E-4,-1.5409128E-3,-1.0350222E-3,-1.5307422E-3,-2.2689714E-3,-1.5588469E-3,-1.7449966E-3,-2.4831905E-3,-1.3070139E-3,1.6747825E-3,-5.961659E-4,4.1952627E-4,2.435209E-3,-8.529199E-5,2.5296821E-3,2.6717945E-4,2.0775804E-3,1.8558986E-3,1.0756582E-3,1.4871615E-3,-2.1140584E-4,-7.552463E-4,-2.37739E-3,8.118685E-4,-1.2659467E-3,2.7146323E-3,2.0707871E-3,1.2041007E-3,-1.3165363E-3,6.1380805E-4,-1.3382937E-3,1.6195401E-4,2.3945894E-3,2.101653E-3,2.533772E-3,4.6961987E-4,2.6956366E-3,-1.0083625E-3,2.1072703E-3],"split_indices":[1,1,3,1,0,4,1,1,1,3,1,3,1,1,1,3,1,1,3,3,3,3,3,4,4,3,1,1,3,4,0,3,1,3,3,1,1,3,3,3,3,1,1,1,1,0,1,3,1,1,3,3,1,1,1,1,3,0,0,3,0,4,4,0,0,0,0,0,0,0,0,0,0,0,0,0,0,0,0,0,0,0,0,0,0,0,0,0,0,0,0,0,0,0,0,0,0,0,0,0,0,0,0,0,0,0,0,0,0,0,0,0,0,0,0,0,0,0,0,0,0,0,0],"split_type":[0,0,0,0,0,0,0,0,0,0,0,0,0,0,0,0,0,0,0,0,0,0,0,0,0,0,0,0,0,0,0,0,0,0,0,0,0,0,0,0,0,0,0,0,0,0,0,0,0,0,0,0,0,0,0,0,0,0,0,0,0,0,0,0,0,0,0,0,0,0,0,0,0,0,0,0,0,0,0,0,0,0,0,0,0,0,0,0,0,0,0,0,0,0,0,0,0,0,0,0,0,0,0,0,0,0,0,0,0,0,0,0,0,0,0,0,0,0,0,0,0,0,0],"sum_hessian":[4.25776E5,3.26749E5,9.9027E4,2.91463E5,3.5286E4,5.8052E4,4.0975E4,1.76527E5,1.14936E5,1.1594E4,2.3692E4,2.0187E4,3.7865E4,3.0306E4,1.0669E4,1.9423E4,1.57104E5,8.8863E4,2.6073E4,7.092E3,4.502E3,9.071E3,1.4621E4,1.638E4,3.807E3,2.0069E4,1.7796E4,2.8548E4,1.758E3,8.731E3,1.938E3,8.278E3,1.1145E4,4.3521E4,1.13583E5,3.571E4,5.3153E4,1.553E4,1.0543E4,2.859E3,4.233E3,2.336E3,2.166E3,1.472E3,7.599E3,6.3E1,1.4558E4,3.444E3,1.2936E4,3.134E3,6.73E2,3.95E3,1.6119E4,8.909E3,8.887E3,2.612E3,2.5936E4,1.745E3,1.3E1,2.284E3,6.447E3,7.03E2,1.235E3,1.56E2,8.122E3,9.864E3,1.281E3,1.0862E4,3.2659E4,7.1906E4,4.1677E4,1.2944E4,2.2766E4,1.3266E4,3.9887E4,1.1708E4,3.822E3,3.234E3,7.309E3,6.13E2,2.246E3,1.77E3,2.463E3,8.18E2,1.518E3,2.119E3,4.7E1,5.9E2,8.82E2,6.603E3,9.96E2,1.3964E4,5.94E2,2.94E2,3.15E3,9.713E3,3.223E3,1.35E2,2.999E3,3.06E2,3.67E2,2.478E3,1.472E3,2.617E3,1.3502E4,5.083E3,3.826E3,6.7E3,2.187E3,1.514E3,1.098E3,2.4481E4,1.455E3,4E0,1.741E3,7E0,6E0,7.51E2,1.533E3,6E0,6.97E2,6.63E2,5.72E2],"tree_param":{"num_deleted":"0","num_feature":"5","num_nodes":"123","size_leaf_vector":"1"}},{"base_weights":[1.9031056E-6,-8.863551E-4,4.792348E-2,9.602664E-3,-2.641626E-3,-2.559143E-2,4.9964894E-2,3.844572E-3,1.3619305E-2,-7.2089126E-3,2.9247068E-3,-5.2230343E-2,2.8177153E-3,2.5666522E-2,5.0822373E-2,6.5968586E-3,-7.533151E-3,4.75413E-2,8.7910555E-3,-4.005815E-3,-1.0147466E-2,-7.920591E-4,4.417986E-3,-6.4845285E-3,-2.830123E-3,5.194748E-2,5.9158322E-3,-2.795041E-2,5.095626E-2,9.386253E-4,1.39938E-2,-5.5262893E-3,-2.2924826E-2,5.1624294E-2,3.625857E-2,5.915378E-3,1.8453585E-2,-1.4321341E-2,-3.6011732E-3,3.6530722E-2,-1.0435346E-2,5.0556236E-3,-6.7713773E-3,9.324277E-3,9.822281E-4,-1.8535982E-3,1.0729203E-3,-1.2872712E-3,5.4344E-2,3.0967027E-2,6.15454E-4,-1.6960502E-2,-1.7473701E-3,3.135454E-3,5.0725065E-2,1.7479215E-4,-4.6865596E-4,1.0437922E-3,4.873102E-4,-7.537477E-4,-5.171938E-5,-5.6306354E-4,-1.9214358E-3,1.656826E-3,2.5841498E-3,1.824824E-3,-4.2751903E-4,6.5922405E-4,-5.7331403E-5,5.39378E-4,1.2557897E-3,-1.8896858E-4,-9.048634E-4,3.862483E-4,-2.1924291E-4,1.6500002E-3,2.0051661E-3,-5.797096E-4,4.8965367E-6,5.738593E-4,1.524436E-4,-6.381168E-4,-3.0033526E-4,4.0762575E-4,1.211382E-3,3.7942187E-5,2.6458618E-3,-1.5190467E-3,3.1129096E-4,2.7701554E-3,-5.9623522E-5,-1.5226305E-3,1.732096E-3,-9.806249E-4,2.8331438E-4,-1.3298668E-3,-1.541771E-4,2.577434E-3,2.3992262E-3],"categories":[],"categories_nodes":[],"categories_segments":[],"categories_sizes":[],"default_left":[0,0,0,0,0,0,0,0,0,0,0,0,0,0,0,0,0,0,0,0,0,0,0,0,0,0,0,0,0,0,0,0,0,0,0,0,0,0,0,0,0,0,0,0,0,0,0,0,0,0,0,0,0,0,0,0,0,0,0,0,0,0,0,0,0,0,0,0,0,0,0,0,0,0,0,0,0,0,0,0,0,0,0,0,0,0,0,0,0,0,0,0,0,0,0,0,0,0,0],"id":3,"left_children":[1,3,5,7,9,11,13,15,17,19,21,23,-1,25,27,29,31,33,35,37,39,41,43,45,-1,47,49,51,53,55,57,59,61,63,65,67,69,71,73,75,77,79,81,83,85,-1,87,-1,89,91,93,95,-1,-1,97,-1,-1,-1,-1,-1,-1,-1,-1,-1,-1,-1,-1,-1,-1,-1,-1,-1,-1,-1,-1,-1,-1,-1,-1,-1,-1,-1,-1,-1,-1,-1,-1,-1,-1,-1,-1,-1,-1,-1,-1,-1,-1,-1,-1],"loss_changes":[1.8122915E1,7.6959443E0,1.1640549E0,1.3858576E0,9.103579E0,4.6136194E-1,1.5577316E-1,7.711756E-1,5.780988E0,1.851327E0,8.957511E-1,3.143394E-2,0E0,1.3413107E-1,7.8214645E-2,8.299024E-1,1.4804769E-1,2.0073223E-1,8.585434E-1,3.9278054E-1,1.3788443E0,1.6174524E0,1.9407849E0,3.50722E-3,0E0,2.2066474E-2,1.976528E-2,4.0692743E-4,1.6571045E-2,2.9631907E-1,2.5101757E-1,1.820595E-1,9.956652E-2,1.789093E-3,1.2806296E-2,1.2225964E0,3.616805E-1,1.4132148E-1,8.0386484E-1,6.610751E-3,1.2444973E0,3.0134118E-1,1.0470259E-1,8.2788944E-1,7.8556466E-1,0E0,2.2961674E-3,0E0,6.418526E-3,6.9234036E-3,1.2779964E-2,8.540957E-4,0E0,0E0,1.3629913E-2,0E0,0E0,0E0,0E0,0E0,0E0,0E0,0E0,0E0,0E0,0E0,0E0,0E0,0E0,0E0,0E0,0E0,0E0,0E0,0E0,0E0,0E0,0E0,0E0,0E0,0E0,0E0,0E0,0E0,0E0,0E0,0E0,0E0,0E0,0E0,0E0,0E0,0E0,0E0,0E0,0E0,0E0,0E0,0E0],"parents":[2147483647,0,0,1,1,2,2,3,3,4,4,5,5,6,6,7,7,8,8,9,9,10,10,11,11,13,13,14,14,15,15,16,16,17,17,18,18,19,19,20,20,21,21,22,22,23,23,25,25,26,26,27,27,28,28,29,29,30,30,31,31,32,32,33,33,34,34,35,35,36,36,37,37,38,38,39,39,40,40,41,41,42,42,43,43,44,44,46,46,48,48,49,49,50,50,51,51,54,54],"right_children":[2,4,6,8,10,12,14,16,18,20,22,24,-1,26,28,30,32,34,36,38,40,42,44,46,-1,48,50,52,54,56,58,60,62,64,66,68,70,72,74,76,78,80,82,84,86,-1,88,-1,90,92,94,96,-1,-1,98,-1,-1,-1,-1,-1,-1,-1,-1,-1,-1,-1,-1,-1,-1,-1,-1,-1,-1,-1,-1,-1,-1,-1,-1,-1,-1,-1,-1,-1,-1,-1,-1,-1,-1,-1,-1,-1,-1,-1,-1,-1,-1,-1,-1],"split_conditions":[1.5152819E0,-1.217487E0,-1.7660801E-1,-1.661347E0,3.5015693E-1,-1.8428673E-1,1.5914634E-1,-1.4089435E0,-1.5106548E0,6.287831E-2,6.7429596E-1,-5.2778465E-1,2.8177153E-3,-1.0196978E-3,1.5466661E0,-1.9825792E0,-1.3311644E0,-1.5899621E0,-1.2687299E0,-1.2151912E0,-2.5883183E0,2.6031783E-1,1.017729E0,-1.3863025E0,-2.830123E-3,1.5765812E0,1.6064963E0,6.7429596E-1,1.7456862E-1,3.5015693E-1,-1.4807397E0,-1.8041168E0,-1.0545496E0,-1.0428694E0,-1.5364234E0,-1.3191983E0,-1.0196978E-3,-1.3863025E0,-1.1456908E0,-3.103468E0,1.5406832E0,-9.362853E-1,3.3086288E-1,1.0525101E0,2.632805E0,-1.8535982E-3,1.5466661E0,-1.2872712E-3,-1.2570195E-2,1.5406832E0,1.5509744E0,5.0257945E-1,-1.7473701E-3,3.135454E-3,1.5328786E0,1.7479215E-4,-4.6865596E-4,1.0437922E-3,4.873102E-4,-7.537477E-4,-5.171938E-5,-5.6306354E-4,-1.9214358E-3,1.656826E-3,2.5841498E-3,1.824824E-3,-4.2751903E-4,6.5922405E-4,-5.7331403E-5,5.39378E-4,1.2557897E-3,-1.8896858E-4,-9.048634E-4,3.862483E-4,-2.1924291E-4,1.6500002E-3,2.0051661E-3,-5.797096E-4,4.8965367E-6,5.738593E-4,1.524436E-4,-6.381168E-4,-3.0033526E-4,4.0762575E-4,1.211382E-3,3.7942187E-5,2.6458618E-3,-1.5190467E-3,3.1129096E-4,2.7701554E-3,-5.9623522E-5,-1.5226305E-3,1.732096E-3,-9.806249E-4,2.8331438E-4,-1.3298668E-3,-1.541771E-4,2.577434E-3,2.3992262E-3],"split_indices":[4,0,3,4,3,2,2,0,0,0,2,3,0,3,0,4,0,4,4,4,2,0,2,2,0,0,0,2,3,3,0,4,3,2,4,0,3,2,0,2,0,0,2,3,3,0,0,0,2,0,4,2,0,0,2,0,0,0,0,0,0,0,0,0,0,0,0,0,0,0,0,0,0,0,0,0,0,0,0,0,0,0,0,0,0,0,0,0,0,0,0,0,0,0,0,0,0,0,0],"split_type":[0,0,0,0,0,0,0,0,0,0,0,0,0,0,0,0,0,0,0,0,0,0,0,0,0,0,0,0,0,0,0,0,0,0,0,0,0,0,0,0,0,0,0,0,0,0,0,0,0,0,0,0,0,0,0,0,0,0,0,0,0,0,0,0,0,0,0,0,0,0,0,0,0,0,0,0,0,0,0,0,0,0,0,0,0,0,0,0,0,0,0,0,0,0,0,0,0,0,0],"sum_hessian":[4.25751E5,4.18004E5,7.747E3,5.9922E4,3.58082E5,2.09E2,7.538E3,2.4624E4,3.5298E4,1.96692E5,1.6139E5,1.58E2,5.1E1,2.58E2,7.28E3,1.9828E4,4.796E3,4.397E3,3.0901E4,9.4111E4,1.02581E5,4.6257E4,1.15133E5,1.4E1,1.44E2,1.1E2,1.48E2,1.2E1,7.268E3,1.1235E4,8.593E3,4.244E3,5.52E2,3.226E3,1.171E3,2.3815E4,7.086E3,3.551E3,9.056E4,6.28E2,1.01953E5,2.3386E4,2.2871E4,4.7418E4,6.7715E4,2E0,1.2E1,3E0,1.07E2,2.5E1,1.23E2,6E0,6E0,1.35E2,7.133E3,9.003E3,2.232E3,3.278E3,5.315E3,1.357E3,2.887E3,3.16E2,2.36E2,1.2E1,3.214E3,1.165E3,6E0,1.1735E4,1.208E4,3.296E3,3.79E3,9.37E2,2.614E3,5.86E3,8.47E4,3.21E2,3.07E2,9.1848E4,1.0105E4,5.567E3,1.7819E4,2.587E3,2.0284E4,4.3963E4,3.455E3,6.7426E4,2.89E2,1E0,1.1E1,1.05E2,2E0,1E0,2.4E1,2.4E1,9.9E1,3E0,3E0,5.471E3,1.662E3],"tree_param":{"num_deleted":"0","num_feature":"5","num_nodes":"99","size_leaf_vector":"1"}},{"base_weights":[-4.1399537E-5,-4.1556936E-3,1.3560298E-2,-5.321539E-4,-3.411699E-2,4.7244E-3,2.538986E-2,-8.280309E-3,1.13448175E-2,-2.1655267E-2,-4.0234383E-2,1.2070613E-2,-5.1428E-3,1.9221945E-2,4.3472033E-2,3.096592E-2,-1.3132933E-2,1.4764775E-2,-3.3789672E-4,-2.8813843E-2,-1.0386134E-2,-3.1257197E-2,-4.5714997E-2,3.2438394E-2,6.2170005E-3,-3.458419E-2,1.1749571E-2,2.2091389E-2,-2.533582E-2,4.7854584E-2,2.378533E-2,2.2255309E-2,3.7469506E-2,2.4351971E-3,-1.6330142E-2,5.9687435E-3,2.0719627E-2,1.0203748E-2,-2.054405E-2,-2.1091996E-2,-3.4015536E-2,7.077265E-3,-2.9209087E-2,-3.911072E-2,-3.0247675E-2,1.3908523E-3,-4.601805E-2,3.55202E-2,2.646845E-2,3.22464E-2,2.0649696E-3,-4.025479E-2,1.9277064E-2,-5.1229373E-3,1.7064424E-2,4.651599E-2,1.9613381E-2,-2.5775684E-2,2.8371323E-2,2.7639411E-2,4.8032034E-2,4.8580423E-2,7.2561237E-3,-1.367382E-3,1.1584791E-3,2.0367024E-3,6.216692E-4,3.6055336E-4,-7.760264E-5,-1.0203018E-3,-4.772971E-4,8.451072E-4,-1.5546082E-5,2.114111E-3,6.7694805E-4,7.640137E-4,9.7369855E-5,-1.2509818E-3,-6.08363E-4,-1.8848287E-3,-8.222134E-4,-2.12593E-3,-1.3981225E-3,1.9334808E-3,-4.694461E-4,-1.470538E-3,-9.384363E-4,-1.3309596E-3,-2.2078382E-3,-1.4898987E-3,-1.6513768E-3,-2.3406781E-3,-1.257245E-3,1.523127E-3,1.8673172E-3,1.4757656E-3,-1.3479105E-3,1.8090422E-3,2.867643E-4,3.346488E-4,-5.4182444E-4,-1.4754278E-3,-2.3682532E-3,2.3527637E-3,-1.711217E-3,1.9524059E-3,-1.6123162E-3,-3.8053826E-4,1.232829E-3,2.5660666E-3,1.9844463E-3,-5.4559193E-4,1.2066003E-3,1.4524326E-3,-1.2909973E-3,-1.2427941E-4,1.7841675E-3,-1.2254857E-3,1.5010213E-3,2.3006708E-3,2.4458354E-3,1.7296098E-3,2.4441115E-3,-1.5303622E-3,1.1606931E-3],"categories":[],"categories_nodes":[],"categories_segments":[],"categories_sizes":[],"default_left":[0,0,0,0,0,0,0,0,0,0,0,0,0,0,0,0,0,0,0,0,0,0,0,0,0,0,0,0,0,0,0,0,0,0,0,0,0,0,0,0,0,0,0,0,0,0,0,0,0,0,0,0,0,0,0,0,0,0,0,0,0,0,0,0,0,0,0,0,0,0,0,0,0,0,0,0,0,0,0,0,0,0,0,0,0,0,0,0,0,0,0,0,0,0,0,0,0,0,0,0,0,0,0,0,0,0,0,0,0,0,0,0,0,0,0,0,0,0,0,0,0,0,0,0,0],"id":4,"left_children":[1,3,5,7,9,11,13,15,17,19,21,23,25,27,29,31,33,35,37,39,41,43,45,47,49,51,53,55,57,59,61,63,65,67,69,71,73,75,77,79,81,83,85,87,89,-1,91,93,95,97,99,101,103,105,107,109,111,113,115,117,119,121,123,-1,-1,-1,-1,-1,-1,-1,-1,-1,-1,-1,-1,-1,-1,-1,-1,-1,-1,-1,-1,-1,-1,-1,-1,-1,-1,-1,-1,-1,-1,-1,-1,-1,-1,-1,-1,-1,-1,-1,-1,-1,-1,-1,-1,-1,-1,-1,-1,-1,-1,-1,-1,-1,-1,-1,-1,-1,-1,-1,-1,-1,-1],"loss_changes":[2.3865908E1,3.5547626E1,1.0352228E1,2.6880762E1,2.6922188E0,4.10976E0,4.7220936E0,3.3667465E1,4.6077433E0,9.382262E-1,1.1643295E0,3.8746133E0,1.2034419E1,4.0379972E0,9.280758E-1,1.1011829E0,7.830929E0,4.672613E0,5.563077E0,2.8502846E-1,1.4863169E0,7.00531E-2,3.290825E-1,1.3253927E-1,2.7283916E0,2.695242E0,1.3789287E0,1.7947235E0,4.5876384E-2,3.0267715E-2,8.041698E-1,3.7786055E-1,9.0965366E-1,5.104668E-1,3.6089592E0,2.4727263E0,8.235966E0,7.1933305E-1,3.3539057E-1,2.205596E-1,2.1750641E-1,1.2207652E0,4.029751E-3,6.311798E-2,8.974075E-3,0E0,2.420845E-1,4.302883E-2,4.0352225E-1,3.620491E-1,1.3001552E0,6.084957E-1,1.251482E0,4.4149446E0,2.1907294E0,8.758974E-2,3.7157364E0,5.350709E-3,3.6987178E-3,1.0545049E-2,1.3339996E-2,1.6231537E-3,7.130785E-1,0E0,0E0,0E0,0E0,0E0,0E0,0E0,0E0,0E0,0E0,0E0,0E0,0E0,0E0,0E0,0E0,0E0,0E0,0E0,0E0,0E0,0E0,0E0,0E0,0E0,0E0,0E0,0E0,0E0,0E0,0E0,0E0,0E0,0E0,0E0,0E0,0E0,0E0,0E0,0E0,0E0,0E0,0E0,0E0,0E0,0E0,0E0,0E0,0E0,0E0,0E0,0E0,0E0,0E0,0E0,0E0,0E0,0E0,0E0,0E0,0E0,0E0],"parents":[2147483647,0,0,1,1,2,2,3,3,4,4,5,5,6,6,7,7,8,8,9,9,10,10,11,11,12,12,13,13,14,14,15,15,16,16,17,17,18,18,19,19,20,20,21,21,22,22,23,23,24,24,25,25,26,26,27,27,28,28,29,29,30,30,31,31,32,32,33,33,34,34,35,35,36,36,37,37,38,38,39,39,40,40,41,41,42,42,43,43,44,44,46,46,47,47,48,48,49,49,50,50,51,51,52,52,53,53,54,54,55,55,56,56,57,57,58,58,59,59,60,60,61,61,62,62],"right_children":[2,4,6,8,10,12,14,16,18,20,22,24,26,28,30,32,34,36,38,40,42,44,46,48,50,52,54,56,58,60,62,64,66,68,70,72,74,76,78,80,82,84,86,88,90,-1,92,94,96,98,100,102,104,106,108,110,112,114,116,118,120,122,124,-1,-1,-1,-1,-1,-1,-1,-1,-1,-1,-1,-1,-1,-1,-1,-1,-1,-1,-1,-1,-1,-1,-1,-1,-1,-1,-1,-1,-1,-1,-1,-1,-1,-1,-1,-1,-1,-1,-1,-1,-1,-1,-1,-1,-1,-1,-1,-1,-1,-1,-1,-1,-1,-1,-1,-1,-1,-1,-1,-1,-1,-1],"split_conditions":[5.937657E-1,3.45033E-1,3.3086288E-1,-1.855951E-1,1.1099061E0,1.5721148E0,1.7876831E0,-1.1197262E0,3.339793E-1,3.5015693E-1,3.671442E-1,-1.214586E0,1.6771352E0,1.5831707E0,2.052999E0,3.5015693E-1,-1.069978E0,1.4052054E-1,3.3086288E-1,-1.230138E0,8.769219E-1,-1.8428673E-1,-3.2751844E0,-1.558019E0,6.1034894E-1,1.5914634E-1,1.9921973E0,6.04821E-1,6.7429596E-1,3.5015693E-1,-1.4268926E0,-2.1080794E0,-1.1418352E0,3.5015693E-1,5.0257945E-1,5.20817E-2,2.0684816E-1,3.3950725E-1,3.3950725E-1,-1.9324912E0,-5.2778465E-1,3.6161625E-1,5.6060296E-1,3.560883E-1,3.6161625E-1,1.3908523E-3,5.108548E-1,-2.2836678E0,8.7656844E-1,1.1458042E0,4.098932E-1,1.5831707E0,3.5015693E-1,1.7158276E0,-1.6303151E0,1.0525101E0,6.158769E-1,-1.7619414E0,-1.564502E0,-9.003872E-1,8.4601253E-1,2.8213062E0,6.7429596E-1,-1.367382E-3,1.1584791E-3,2.0367024E-3,6.216692E-4,3.6055336E-4,-7.760264E-5,-1.0203018E-3,-4.772971E-4,8.451072E-4,-1.5546082E-5,2.114111E-3,6.7694805E-4,7.640137E-4,9.7369855E-5,-1.2509818E-3,-6.08363E-4,-1.8848287E-3,-8.222134E-4,-2.12593E-3,-1.3981225E-3,1.9334808E-3,-4.694461E-4,-1.470538E-3,-9.384363E-4,-1.3309596E-3,-2.2078382E-3,-1.4898987E-3,-1.6513768E-3,-2.3406781E-3,-1.257245E-3,1.523127E-3,1.8673172E-3,1.4757656E-3,-1.3479105E-3,1.8090422E-3,2.867643E-4,3.346488E-4,-5.4182444E-4,-1.4754278E-3,-2.3682532E-3,2.3527637E-3,-1.711217E-3,1.9524059E-3,-1.6123162E-3,-3.8053826E-4,1.232829E-3,2.5660666E-3,1.9844463E-3,-5.4559193E-4,1.2066003E-3,1.4524326E-3,-1.2909973E-3,-1.2427941E-4,1.7841675E-3,-1.2254857E-3,1.5010213E-3,2.3006708E-3,2.4458354E-3,1.7296098E-3,2.4441115E-3,-1.5303622E-3,1.1606931E-3],"split_indices":[1,1,2,1,0,1,1,1,1,3,1,2,1,1,1,3,1,1,2,3,3,2,2,2,1,2,1,1,2,3,0,3,1,3,2,1,1,1,1,3,3,1,1,1,1,0,1,3,0,0,0,1,3,1,0,3,1,0,0,0,2,1,2,0,0,0,0,0,0,0,0,0,0,0,0,0,0,0,0,0,0,0,0,0,0,0,0,0,0,0,0,0,0,0,0,0,0,0,0,0,0,0,0,0,0,0,0,0,0,0,0,0,0,0,0,0,0,0,0,0,0,0,0,0,0],"split_type":[0,0,0,0,0,0,0,0,0,0,0,0,0,0,0,0,0,0,0,0,0,0,0,0,0,0,0,0,0,0,0,0,0,0,0,0,0,0,0,0,0,0,0,0,0,0,0,0,0,0,0,0,0,0,0,0,0,0,0,0,0,0,0,0,0,0,0,0,0,0,0,0,0,0,0,0,0,0,0,0,0,0,0,0,0,0,0,0,0,0,0,0,0,0,0,0,0,0,0,0,0,0,0,0,0,0,0,0,0,0,0,0,0,0,0,0,0,0,0,0,0,0,0,0,0],"sum_hessian":[4.26469E5,3.27428E5,9.9041E4,2.92102E5,3.5326E4,5.6695E4,4.2346E4,1.76778E5,1.15324E5,1.1633E4,2.3693E4,3.2499E4,2.4196E4,3.1577E4,1.0769E4,1.9452E4,1.57326E5,8.9209E4,2.6115E4,7.113E3,4.52E3,8.984E3,1.4709E4,7.254E3,2.5245E4,8.821E3,1.5375E4,2.9667E4,1.91E3,8.807E3,1.962E3,8.317E3,1.1135E4,2.6805E4,1.30521E5,3.6014E4,5.3195E4,1.7162E4,8.953E3,2.865E3,4.248E3,2.345E3,2.175E3,1.019E3,7.965E3,6E1,1.4649E4,4.781E3,2.473E3,3.472E3,2.1773E4,7.981E3,8.4E2,3.683E3,1.1692E4,2.731E3,2.6936E4,1.895E3,1.5E1,7.8E1,8.729E3,7.84E2,1.178E3,1.5E2,8.167E3,9.85E3,1.285E3,1.2196E4,1.4609E4,8.1534E4,4.8987E4,1.3138E4,2.2876E4,1.3288E4,3.9907E4,1.0627E4,6.535E3,5.834E3,3.119E3,6.25E2,2.24E3,1.764E3,2.484E3,8.03E2,1.542E3,2.132E3,4.3E1,2.95E2,7.24E2,6.866E3,1.099E3,1.411E4,5.39E2,1.273E3,3.508E3,2.34E3,1.33E2,3.023E3,4.49E2,1.6025E4,5.748E3,3.18E3,4.801E3,5.53E2,2.87E2,1.401E3,2.282E3,2.751E3,8.941E3,1.599E3,1.132E3,3.473E3,2.3463E4,1E0,1.894E3,3E0,1.2E1,3E0,7.5E1,2.676E3,6.053E3,1.9E1,7.65E2,3.49E2,8.29E2],"tree_param":{"num_deleted":"0","num_feature":"5","num_nodes":"125","size_leaf_vector":"1"}},{"base_weights":[6.0278555E-5,-3.8891532E-3,1.3035565E-2,-4.479515E-4,-3.238133E-2,4.8499927E-3,2.4553703E-2,-7.772737E-3,1.0796752E-2,-2.0339558E-2,-3.8136378E-2,1.6665762E-2,-1.4812038E-3,2.0066848E-2,4.591037E-2,3.1268142E-2,-1.21814385E-2,1.4065516E-2,-2.992587E-4,-2.7347878E-2,-9.287705E-3,-2.968106E-2,-4.3367323E-2,1.118002E-2,4.006338E-2,6.543144E-3,-1.0548787E-2,4.3892607E-2,1.8083941E-2,4.668716E-2,3.157713E-2,2.1819387E-2,3.890676E-2,-9.767256E-4,-1.6642408E-2,5.7269037E-3,1.969832E-2,9.98531E-3,-1.5344439E-2,-1.9721167E-2,-3.2434322E-2,7.520698E-3,-2.7750215E-2,-3.549261E-2,-2.8574955E-2,1.3348862E-3,-4.367984E-2,-7.6396414E-3,1.6173016E-2,4.3744847E-2,2.2815283E-2,2.8731968E-2,1.1448269E-3,-2.6161121E-2,5.232445E-3,4.895149E-2,3.6872197E-2,-4.8674466E-3,2.1146666E-2,-7.669285E-3,4.671226E-2,4.8506167E-2,-3.9634235E-2,-1.3055797E-3,1.1387126E-3,2.2226328E-3,1.73951E-3,-5.2781426E-4,1.0496735E-4,-6.883701E-4,-1.2347918E-3,8.063445E-4,-1.2887084E-5,2.012601E-3,6.430095E-4,3.4805498E-4,9.5656386E-4,-2.2336212E-4,-1.0091125E-3,-1.8242818E-3,-7.5724575E-4,-2.0296127E-3,-1.3284031E-3,1.8422123E-3,-4.048175E-4,-1.4670001E-3,-1.3477126E-3,-1.4024473E-3,-2.022424E-3,-1.4082342E-3,-1.5610761E-3,-2.2249566E-3,-1.2069106E-3,1.5176696E-3,-5.6283746E-4,3.663286E-4,2.1357771E-3,-1.7865686E-4,2.3046187E-3,3.0387222E-4,1.8926505E-3,1.562069E-3,3.6662805E-4,1.3422099E-3,-1.9110538E-4,-7.059822E-4,-2.122096E-3,7.6760637E-4,-1.2920768E-3,2.52172E-3,2.1589177E-3,2.3880312E-3,-4.29188E-4,-5.098208E-4,5.401256E-4,1.2650968E-3,-8.579822E-6,-1.3303608E-3,1.2286127E-3,2.5713858E-3,2.331102E-3,-1.3295487E-3,2.4932267E-3,-2.1119402E-3,1.7175198E-3],"categories":[],"categories_nodes":[],"categories_segments":[],"categories_sizes":[],"default_left":[0,0,0,0,0,0,0,0,0,0,0,0,0,0,0,0,0,0,0,0,0,0,0,0,0,0,0,0,0,0,0,0,0,0,0,0,0,0,0,0,0,0,0,0,0,0,0,0,0,0,0,0,0,0,0,0,0,0,0,0,0,0,0,0,0,0,0,0,0,0,0,0,0,0,0,0,0,0,0,0,0,0,0,0,0,0,0,0,0,0,0,0,0,0,0,0,0,0,0,0,0,0,0,0,0,0,0,0,0,0,0,0,0,0,0,0,0,0,0,0,0,0,0,0,0],"id":5,"left_children":[1,3,5,7,9,11,13,15,17,19,21,23,25,27,29,31,33,35,37,39,41,43,45,47,49,51,53,55,57,59,61,63,65,67,69,71,73,75,77,79,81,83,85,87,89,-1,91,93,95,97,99,101,103,105,107,109,111,113,115,117,119,121,123,-1,-1,-1,-1,-1,-1,-1,-1,-1,-1,-1,-1,-1,-1,-1,-1,-1,-1,-1,-1,-1,-1,-1,-1,-1,-1,-1,-1,-1,-1,-1,-1,-1,-1,-1,-1,-1,-1,-1,-1,-1,-1,-1,-1,-1,-1,-1,-1,-1,-1,-1,-1,-1,-1,-1,-1,-1,-1,-1,-1,-1,-1],"loss_changes":[2.1851383E1,3.2052242E1,9.381372E0,2.4024235E1,2.4405556E0,4.3514543E0,3.960167E0,3.040117E1,4.1730404E0,8.822675E-1,1.0529213E0,2.6043544E0,2.7559085E0,1.613163E0,7.842255E-2,1.2926788E0,7.932678E0,4.1742325E0,4.0513783E0,2.6982403E-1,1.3727777E0,5.756569E-2,3.2355118E-1,1.5450273E0,2.4372435E-1,2.4068727E0,4.3812995E0,9.138775E-2,2.2170992E0,9.643555E-3,4.503834E-1,3.6737704E-1,2.2467613E-1,1.3317728E0,2.6278782E0,2.2301962E0,7.4544735E0,4.3002462E-1,5.593326E-1,2.1364522E-1,1.990099E-1,1.0609041E0,1.8767118E-3,5.2466393E-2,7.4391365E-3,0E0,2.3360443E-1,4.7418264E-1,3.0507686E0,3.5284472E-1,1.7092529E-1,2.1091914E-1,2.0632625E0,1.7518463E0,2.7814703E0,1.0852098E-2,5.463332E-1,3.1024674E-1,2.4649181E0,3.0961514E-3,4.97818E-4,3.203076E-2,1.5325166E-2,0E0,0E0,0E0,0E0,0E0,0E0,0E0,0E0,0E0,0E0,0E0,0E0,0E0,0E0,0E0,0E0,0E0,0E0,0E0,0E0,0E0,0E0,0E0,0E0,0E0,0E0,0E0,0E0,0E0,0E0,0E0,0E0,0E0,0E0,0E0,0E0,0E0,0E0,0E0,0E0,0E0,0E0,0E0,0E0,0E0,0E0,0E0,0E0,0E0,0E0,0E0,0E0,0E0,0E0,0E0,0E0,0E0,0E0,0E0,0E0,0E0,0E0],"parents":[2147483647,0,0,1,1,2,2,3,3,4,4,5,5,6,6,7,7,8,8,9,9,10,10,11,11,12,12,13,13,14,14,15,15,16,16,17,17,18,18,19,19,20,20,21,21,22,22,23,23,24,24,25,25,26,26,27,27,28,28,29,29,30,30,31,31,32,32,33,33,34,34,35,35,36,36,37,37,38,38,39,39,40,40,41,41,42,42,43,43,44,44,46,46,47,47,48,48,49,49,50,50,51,51,52,52,53,53,54,54,55,55,56,56,57,57,58,58,59,59,60,60,61,61,62,62],"right_children":[2,4,6,8,10,12,14,16,18,20,22,24,26,28,30,32,34,36,38,40,42,44,46,48,50,52,54,56,58,60,62,64,66,68,70,72,74,76,78,80,82,84,86,88,90,-1,92,94,96,98,100,102,104,106,108,110,112,114,116,118,120,122,124,-1,-1,-1,-1,-1,-1,-1,-1,-1,-1,-1,-1,-1,-1,-1,-1,-1,-1,-1,-1,-1,-1,-1,-1,-1,-1,-1,-1,-1,-1,-1,-1,-1,-1,-1,-1,-1,-1,-1,-1,-1,-1,-1,-1,-1,-1,-1,-1,-1,-1,-1,-1,-1,-1,-1,-1,-1,-1,-1,-1,-1,-1],"split_conditions":[5.937657E-1,3.45033E-1,3.5015693E-1,-1.855951E-1,1.091957E0,-8.04728E-1,1.5152819E0,-1.1418352E0,3.339793E-1,3.5015693E-1,3.671442E-1,-1.0196978E-3,1.389712E0,6.04821E-1,2.0861619E0,3.5015693E-1,-1.0589243E0,1.4052054E-1,1.7456862E-1,-1.230138E0,8.769219E-1,-1.0196978E-3,-2.986021E0,-1.9825792E0,-1.0010365E0,-1.0545496E0,1.6771352E0,5.992936E-1,6.158769E-1,6.1034894E-1,1.2280985E0,-2.1080794E0,-1.28002E0,-5.2778465E-1,-1.0036504E0,5.20817E-2,2.0684816E-1,-3.5219634E-1,5.257453E-1,-1.9324912E0,-5.2778465E-1,3.6161625E-1,3.5056093E-1,3.560883E-1,3.6161625E-1,1.3348862E-3,5.108548E-1,-7.0337296E-1,2.8213062E0,6.158769E-1,1.7456862E-1,1.1405112E0,6.1034894E-1,1.5831707E0,2.052999E0,1.0155876E0,1.0525101E0,1.0525101E0,1.2280985E0,1.6304284E0,1.7876831E0,1.5406832E0,1.7548634E0,-1.3055797E-3,1.1387126E-3,2.2226328E-3,1.73951E-3,-5.2781426E-4,1.0496735E-4,-6.883701E-4,-1.2347918E-3,8.063445E-4,-1.2887084E-5,2.012601E-3,6.430095E-4,3.4805498E-4,9.5656386E-4,-2.2336212E-4,-1.0091125E-3,-1.8242818E-3,-7.5724575E-4,-2.0296127E-3,-1.3284031E-3,1.8422123E-3,-4.048175E-4,-1.4670001E-3,-1.3477126E-3,-1.4024473E-3,-2.022424E-3,-1.4082342E-3,-1.5610761E-3,-2.2249566E-3,-1.2069106E-3,1.5176696E-3,-5.6283746E-4,3.663286E-4,2.1357771E-3,-1.7865686E-4,2.3046187E-3,3.0387222E-4,1.8926505E-3,1.562069E-3,3.6662805E-4,1.3422099E-3,-1.9110538E-4,-7.059822E-4,-2.122096E-3,7.6760637E-4,-1.2920768E-3,2.52172E-3,2.1589177E-3,2.3880312E-3,-4.29188E-4,-5.098208E-4,5.401256E-4,1.2650968E-3,-8.579822E-6,-1.3303608E-3,1.2286127E-3,2.5713858E-3,2.331102E-3,-1.3295487E-3,2.4932267E-3,-2.1119402E-3,1.7175198E-3],"split_indices":[1,1,3,1,0,4,4,1,1,3,1,3,1,1,1,3,1,1,3,3,3,3,3,4,4,3,1,1,1,1,3,3,1,3,1,1,1,3,3,3,3,1,1,1,1,0,1,3,1,1,3,4,1,1,1,4,3,3,3,0,1,0,3,0,0,0,0,0,0,0,0,0,0,0,0,0,0,0,0,0,0,0,0,0,0,0,0,0,0,0,0,0,0,0,0,0,0,0,0,0,0,0,0,0,0,0,0,0,0,0,0,0,0,0,0,0,0,0,0,0,0,0,0,0,0],"split_type":[0,0,0,0,0,0,0,0,0,0,0,0,0,0,0,0,0,0,0,0,0,0,0,0,0,0,0,0,0,0,0,0,0,0,0,0,0,0,0,0,0,0,0,0,0,0,0,0,0,0,0,0,0,0,0,0,0,0,0,0,0,0,0,0,0,0,0,0,0,0,0,0,0,0,0,0,0,0,0,0,0,0,0,0,0,0,0,0,0,0,0,0,0,0,0,0,0,0,0,0,0,0,0,0,0,0,0,0,0,0,0,0,0,0,0,0,0,0,0,0,0,0,0,0,0],"sum_hessian":[4.26408E5,3.26905E5,9.9503E4,2.91678E5,3.5227E4,5.8167E4,4.1336E4,1.76625E5,1.15053E5,1.1393E4,2.3834E4,2.0293E4,3.7874E4,3.4161E4,7.175E3,1.7921E4,1.58704E5,8.8872E4,2.6181E4,6.971E3,4.422E3,9.112E3,1.4722E4,1.644E4,3.853E3,2.0093E4,1.7781E4,2.623E3,3.1538E4,6.804E3,3.71E2,8.013E3,9.908E3,4.5193E4,1.13511E5,3.5831E4,5.3041E4,1.5551E4,1.063E4,2.791E3,4.18E3,2.315E3,2.107E3,1.452E3,7.66E3,6.5E1,1.4657E4,3.447E3,1.2993E4,3.174E3,6.79E2,3.931E3,1.6162E4,8.938E3,8.843E3,1.521E3,1.102E3,3.713E3,2.7825E4,3E0,6.801E3,3E2,7.1E1,1.56E2,7.857E3,4.217E3,5.691E3,1.0984E4,3.4209E4,8.3651E4,2.986E4,1.3087E4,2.2744E4,1.324E4,3.9801E4,1.1688E4,3.863E3,3.273E3,7.357E3,5.97E2,2.194E3,1.746E3,2.434E3,8.04E2,1.511E3,6.91E2,1.416E3,5.83E2,8.69E2,6.642E3,1.018E3,1.4066E4,5.91E2,2.99E2,3.148E3,9.746E3,3.247E3,1.5E2,3.024E3,3.22E2,3.57E2,3.518E3,4.13E2,2.617E3,1.3545E4,5.139E3,3.799E3,6.671E3,2.172E3,1.204E3,3.17E2,8.89E2,2.13E2,2.771E3,9.42E2,2.3286E4,4.539E3,2E0,1E0,1.17E2,6.684E3,5E0,2.95E2,6.9E1,2E0],"tree_param":{"num_deleted":"0","num_feature":"5","num_nodes":"125","size_leaf_vector":"1"}},{"base_weights":[-3.662995E-5,-3.768369E-3,1.2284625E-2,-5.130275E-4,-3.0782545E-2,4.5359624E-3,2.3156248E-2,-7.482818E-3,1.0210557E-2,-1.9595461E-2,-3.6279693E-2,1.5763028E-2,-1.4596467E-3,1.7554134E-2,3.933284E-2,2.7895825E-2,-1.1884081E-2,1.3269027E-2,-2.1722044E-4,-2.6051737E-2,-9.3336925E-3,-2.8215194E-2,-4.1227803E-2,1.0486168E-2,3.842732E-2,6.166458E-3,-1.0116271E-2,2.019694E-2,-2.5083506E-2,4.3614455E-2,1.9528529E-2,1.9758703E-2,3.3901364E-2,-1.4424969E-3,-1.5878413E-2,5.4096137E-3,1.8571585E-2,7.343319E-3,-1.9227536E-2,-1.9106498E-2,-3.0662807E-2,6.448972E-3,-2.6341846E-2,-3.3588726E-2,-2.715278E-2,1.2582989E-3,-4.1526094E-2,-7.447557E-3,1.5277232E-2,4.1822903E-2,2.2515561E-2,2.7316505E-2,1.005191E-3,-2.2202022E-2,8.712089E-3,2.5800467E-2,1.0191441E-2,-2.5437867E-2,2.1636251E-2,7.436633E-3,4.3667622E-2,4.446947E-2,5.0155134E-3,-1.3525783E-3,1.0331384E-3,1.8390947E-3,5.7330576E-4,-5.184332E-4,7.680172E-5,-6.60259E-4,-1.1695753E-3,7.6867687E-4,-1.4099214E-5,1.9034565E-3,6.0676335E-4,4.8433567E-4,-1.9531194E-4,-1.1684557E-3,-6.002592E-4,-1.6761961E-3,-7.500931E-4,-1.1562739E-3,-1.8547329E-3,1.7685688E-3,-4.2059255E-4,-1.32671E-3,-8.1363256E-4,-1.3015986E-3,-1.9250753E-3,-1.3373465E-3,-1.4893584E-3,-2.1148825E-3,-1.0752189E-3,1.4520347E-3,-5.4686936E-4,3.4526753E-4,2.0274958E-3,-7.849374E-5,2.187359E-3,2.8010222E-4,1.8339884E-3,1.4930028E-3,3.181039E-4,1.243714E-3,-1.8148548E-4,-6.967221E-4,-1.4592732E-3,1.189976E-3,-1.2564466E-3,4.835813E-4,1.8193702E-3,2.2979742E-3,3.3369355E-4,8.787821E-4,-1.2784653E-3,3.1671856E-4,2.0491516E-3,1.2093707E-3,-9.4644877E-4,2.0579067E-3,2.219388E-3,1.0863695E-3,2.2573408E-3,-1.01749E-3,1.7477047E-3],"categories":[],"categories_nodes":[],"categories_segments":[],"categories_sizes":[],"default_left":[0,0,0,0,0,0,0,0,0,0,0,0,0,0,0,0,0,0,0,0,0,0,0,0,0,0,0,0,0,0,0,0,0,0,0,0,0,0,0,0,0,0,0,0,0,0,0,0,0,0,0,0,0,0,0,0,0,0,0,0,0,0,0,0,0,0,0,0,0,0,0,0,0,0,0,0,0,0,0,0,0,0,0,0,0,0,0,0,0,0,0,0,0,0,0,0,0,0,0,0,0,0,0,0,0,0,0,0,0,0,0,0,0,0,0,0,0,0,0,0,0,0,0,0,0],"id":6,"left_children":[1,3,5,7,9,11,13,15,17,19,21,23,25,27,29,31,33,35,37,39,41,43,45,47,49,51,53,55,57,59,61,63,65,67,69,71,73,75,77,79,81,83,85,87,89,-1,91,93,95,97,99,101,103,105,107,109,111,113,115,117,119,121,123,-1,-1,-1,-1,-1,-1,-1,-1,-1,-1,-1,-1,-1,-1,-1,-1,-1,-1,-1,-1,-1,-1,-1,-1,-1,-1,-1,-1,-1,-1,-1,-1,-1,-1,-1,-1,-1,-1,-1,-1,-1,-1,-1,-1,-1,-1,-1,-1,-1,-1,-1,-1,-1,-1,-1,-1,-1,-1,-1,-1,-1,-1],"loss_changes":[1.9597336E1,2.876853E1,8.346448E0,2.18212E1,2.16288E0,3.8940856E0,3.7357883E0,2.7553185E1,3.6679583E0,7.678914E-1,9.4013405E-1,2.4081469E0,2.4896698E0,3.4516506E0,8.9839363E-1,9.560642E-1,6.5635185E0,3.7058916E0,3.7490048E0,2.2730398E-1,1.2024857E0,5.0314426E-2,2.9053307E-1,1.4038154E0,2.045331E-1,2.1886513E0,4.019496E0,1.616683E0,3.0151844E-2,1.644516E-2,6.8281084E-1,3.5248828E-1,7.2745323E-1,1.1577411E0,2.285839E0,2.0317767E0,6.663183E0,4.9200833E-1,2.2172618E-1,1.6768181E-1,2.063899E-1,9.991775E-1,3.7440062E-3,5.383098E-2,7.218361E-3,0E0,2.238884E-1,4.3899626E-1,2.7276201E0,2.6167297E-1,1.6054365E-1,2.0943356E-1,1.7832383E0,6.2071896E-1,3.5266225E0,3.1562262E0,1.3025241E0,1.0484457E-2,3.8849884E-3,6.640866E-3,1.3906479E-2,9.709716E-3,9.074367E-1,0E0,0E0,0E0,0E0,0E0,0E0,0E0,0E0,0E0,0E0,0E0,0E0,0E0,0E0,0E0,0E0,0E0,0E0,0E0,0E0,0E0,0E0,0E0,0E0,0E0,0E0,0E0,0E0,0E0,0E0,0E0,0E0,0E0,0E0,0E0,0E0,0E0,0E0,0E0,0E0,0E0,0E0,0E0,0E0,0E0,0E0,0E0,0E0,0E0,0E0,0E0,0E0,0E0,0E0,0E0,0E0,0E0,0E0,0E0,0E0,0E0,0E0],"parents":[2147483647,0,0,1,1,2,2,3,3,4,4,5,5,6,6,7,7,8,8,9,9,10,10,11,11,12,12,13,13,14,14,15,15,16,16,17,17,18,18,19,19,20,20,21,21,22,22,23,23,24,24,25,25,26,26,27,27,28,28,29,29,30,30,31,31,32,32,33,33,34,34,35,35,36,36,37,37,38,38,39,39,40,40,41,41,42,42,43,43,44,44,46,46,47,47,48,48,49,49,50,50,51,51,52,52,53,53,54,54,55,55,56,56,57,57,58,58,59,59,60,60,61,61,62,62],"right_children":[2,4,6,8,10,12,14,16,18,20,22,24,26,28,30,32,34,36,38,40,42,44,46,48,50,52,54,56,58,60,62,64,66,68,70,72,74,76,78,80,82,84,86,88,90,-1,92,94,96,98,100,102,104,106,108,110,112,114,116,118,120,122,124,-1,-1,-1,-1,-1,-1,-1,-1,-1,-1,-1,-1,-1,-1,-1,-1,-1,-1,-1,-1,-1,-1,-1,-1,-1,-1,-1,-1,-1,-1,-1,-1,-1,-1,-1,-1,-1,-1,-1,-1,-1,-1,-1,-1,-1,-1,-1,-1,-1,-1,-1,-1,-1,-1,-1,-1,-1,-1,-1,-1,-1,-1],"split_conditions":[5.937657E-1,3.45033E-1,3.5015693E-1,-1.855951E-1,1.1099061E0,-8.04728E-1,1.7876831E0,-1.1197262E0,3.339793E-1,3.5015693E-1,3.671442E-1,-1.0196978E-3,1.389712E0,1.5831707E0,2.052999E0,3.5015693E-1,-1.0589243E0,1.4052054E-1,5.257453E-1,-1.230138E0,8.769219E-1,-1.0196978E-3,-2.986021E0,-1.9825792E0,-1.0010365E0,-1.0545496E0,1.5406832E0,1.0525101E0,8.769219E-1,-9.5423436E-1,-1.4268926E0,-2.1080794E0,-1.1418352E0,-5.2778465E-1,-1.0036504E0,5.20817E-2,2.0684816E-1,1.7456862E-1,3.3950725E-1,-1.9324912E0,4.1136226E-1,3.6161625E-1,5.6060296E-1,3.560883E-1,3.6161625E-1,1.2582989E-3,5.108548E-1,-7.0337296E-1,2.8213062E0,6.158769E-1,1.7456862E-1,1.1405112E0,6.1034894E-1,1.5831707E0,2.052999E0,6.214026E-1,5.992936E-1,-1.4807397E0,-9.482513E-1,-1.4807397E0,7.013336E-1,2.8213062E0,1.5152819E0,-1.3525783E-3,1.0331384E-3,1.8390947E-3,5.7330576E-4,-5.184332E-4,7.680172E-5,-6.60259E-4,-1.1695753E-3,7.6867687E-4,-1.4099214E-5,1.9034565E-3,6.0676335E-4,4.8433567E-4,-1.9531194E-4,-1.1684557E-3,-6.002592E-4,-1.6761961E-3,-7.500931E-4,-1.1562739E-3,-1.8547329E-3,1.7685688E-3,-4.2059255E-4,-1.32671E-3,-8.1363256E-4,-1.3015986E-3,-1.9250753E-3,-1.3373465E-3,-1.4893584E-3,-2.1148825E-3,-1.0752189E-3,1.4520347E-3,-5.4686936E-4,3.4526753E-4,2.0274958E-3,-7.849374E-5,2.187359E-3,2.8010222E-4,1.8339884E-3,1.4930028E-3,3.181039E-4,1.243714E-3,-1.8148548E-4,-6.967221E-4,-1.4592732E-3,1.189976E-3,-1.2564466E-3,4.835813E-4,1.8193702E-3,2.2979742E-3,3.3369355E-4,8.787821E-4,-1.2784653E-3,3.1671856E-4,2.0491516E-3,1.2093707E-3,-9.4644877E-4,2.0579067E-3,2.219388E-3,1.0863695E-3,2.2573408E-3,-1.01749E-3,1.7477047E-3],"split_indices":[1,1,3,1,0,4,1,1,1,3,1,3,1,1,1,3,1,1,3,3,3,3,3,4,4,3,0,3,3,0,0,3,1,3,1,1,1,3,1,3,1,1,1,1,1,0,1,3,1,1,3,4,1,1,1,1,1,0,0,0,3,1,4,0,0,0,0,0,0,0,0,0,0,0,0,0,0,0,0,0,0,0,0,0,0,0,0,0,0,0,0,0,0,0,0,0,0,0,0,0,0,0,0,0,0,0,0,0,0,0,0,0,0,0,0,0,0,0,0,0,0,0,0,0,0],"split_type":[0,0,0,0,0,0,0,0,0,0,0,0,0,0,0,0,0,0,0,0,0,0,0,0,0,0,0,0,0,0,0,0,0,0,0,0,0,0,0,0,0,0,0,0,0,0,0,0,0,0,0,0,0,0,0,0,0,0,0,0,0,0,0,0,0,0,0,0,0,0,0,0,0,0,0,0,0,0,0,0,0,0,0,0,0,0,0,0,0,0,0,0,0,0,0,0,0,0,0,0,0,0,0,0,0,0,0,0,0,0,0,0,0,0,0,0,0,0,0,0,0,0,0,0,0],"sum_hessian":[4.26215E5,3.27136E5,9.9079E4,2.91955E5,3.5181E4,5.7849E4,4.123E4,1.76948E5,1.15007E5,1.1593E4,2.3588E4,2.0138E4,3.7711E4,3.0626E4,1.0604E4,1.9577E4,1.57371E5,8.8925E4,2.6082E4,7.115E3,4.478E3,8.972E3,1.4616E4,1.6336E4,3.802E3,2.0049E4,1.7662E4,2.8839E4,1.787E3,8.718E3,1.886E3,8.315E3,1.1262E4,4.3544E4,1.13827E5,3.5826E4,5.3099E4,1.8661E4,7.421E3,2.841E3,4.274E3,2.323E3,2.155E3,1.476E3,7.496E3,6.5E1,1.4551E4,3.444E3,1.2892E4,3.132E3,6.7E2,3.932E3,1.6117E4,1.0757E4,6.905E3,1.8485E4,1.0354E4,1.774E3,1.3E1,1.3E1,8.705E3,6.93E2,1.193E3,1.57E2,8.158E3,9.98E3,1.282E3,1.0894E4,3.265E4,8.3957E4,2.987E4,1.3024E4,2.2802E4,1.3177E4,3.9922E4,1.5444E4,3.217E3,4.715E3,2.706E3,6.28E2,2.213E3,1.97E3,2.304E3,7.88E2,1.535E3,2.113E3,4.2E1,5.84E2,8.92E2,6.505E3,9.91E2,1.401E4,5.41E2,3E2,3.144E3,9.685E3,3.207E3,1.33E2,2.999E3,3.06E2,3.64E2,3.506E3,4.26E2,2.62E3,1.3497E4,4.927E3,5.83E3,4.776E3,2.129E3,7.326E3,1.1159E4,9.26E2,9.428E3,5E0,1.769E3,8E0,5E0,8E0,5E0,1.954E3,6.751E3,2.1E1,6.72E2,6.46E2,5.47E2],"tree_param":{"num_deleted":"0","num_feature":"5","num_nodes":"125","size_leaf_vector":"1"}},{"base_weights":[-5.311883E-6,-3.561813E-3,1.1710019E-2,-4.7211914E-4,-2.9112943E-2,3.9466307E-3,2.2030605E-2,-7.06485E-3,9.675494E-3,-1.8293764E-2,-3.445791E-2,1.0609502E-2,-4.9994574E-3,1.6712038E-2,3.761246E-2,2.6609689E-2,-1.1232338E-2,1.2559052E-2,-1.378029E-4,-2.4031965E-2,-9.683162E-3,-2.7495544E-2,-3.965515E-2,2.931808E-2,5.253201E-3,-3.147212E-2,1.0226998E-2,1.932489E-2,-2.381956E-2,4.1331403E-2,2.0908E-2,3.7172377E-2,2.2169897E-2,2.451828E-3,-1.4050089E-2,5.003673E-3,1.7721523E-2,9.130166E-3,-1.7842632E-2,-1.8454919E-2,-2.8758468E-2,1.4770499E-3,-2.5131699E-2,-3.504606E-2,-2.6073432E-2,1.1924458E-3,-3.991133E-2,3.2309037E-2,2.3508845E-2,2.8570665E-2,1.5202821E-3,-3.6293216E-2,1.4197241E-2,-5.317953E-3,1.5079609E-2,2.4506485E-2,9.06772E-3,-2.4292933E-2,2.4995694E-2,-4.425224E-4,4.1406866E-2,4.251367E-2,6.242372E-3,-1.7545217E-3,1.9200707E-3,1.0019995E-3,2.4276453E-3,3.1701344E-4,-7.984926E-5,-8.6784066E-4,-3.3378522E-4,7.083816E-4,-1.2659228E-5,1.8079447E-3,5.81651E-4,6.993955E-4,6.5112334E-5,-1.1027678E-3,-5.013745E-4,-1.8906716E-4,-1.097762E-3,-1.0015317E-3,-1.8784117E-3,1.3928824E-3,-5.4711767E-4,-1.266694E-3,-7.8759313E-4,-1.1692105E-3,-1.8827704E-3,-1.2773921E-3,-1.4141294E-3,-2.0356686E-3,-1.0491776E-3,1.7703113E-3,1.5278942E-3,1.3112413E-3,-1.3966964E-3,1.619595E-3,3.6554957E-5,2.744259E-4,-5.786658E-4,-1.4263563E-3,-2.1966377E-3,-3.0812456E-3,1.0035534E-3,1.8288501E-3,-1.5745318E-3,-3.1434302E-4,1.0818413E-3,2.7061845E-4,1.7423121E-3,1.6772151E-3,1.2564434E-4,1.3625234E-3,-1.2167115E-3,-4.5551482E-4,1.7348988E-3,7.662118E-4,-1.5951142E-3,1.9718509E-3,2.1155511E-3,1.4682632E-3,2.1389383E-3,-9.425369E-4,1.6656251E-3],"categories":[],"categories_nodes":[],"categories_segments":[],"categories_sizes":[],"default_left":[0,0,0,0,0,0,0,0,0,0,0,0,0,0,0,0,0,0,0,0,0,0,0,0,0,0,0,0,0,0,0,0,0,0,0,0,0,0,0,0,0,0,0,0,0,0,0,0,0,0,0,0,0,0,0,0,0,0,0,0,0,0,0,0,0,0,0,0,0,0,0,0,0,0,0,0,0,0,0,0,0,0,0,0,0,0,0,0,0,0,0,0,0,0,0,0,0,0,0,0,0,0,0,0,0,0,0,0,0,0,0,0,0,0,0,0,0,0,0,0,0,0,0,0,0],"id":7,"left_children":[1,3,5,7,9,11,13,15,17,19,21,23,25,27,29,31,33,35,37,39,41,43,45,47,49,51,53,55,57,59,61,63,65,67,69,71,73,75,77,79,81,83,85,87,89,-1,91,93,95,97,99,101,103,105,107,109,111,113,115,117,119,121,123,-1,-1,-1,-1,-1,-1,-1,-1,-1,-1,-1,-1,-1,-1,-1,-1,-1,-1,-1,-1,-1,-1,-1,-1,-1,-1,-1,-1,-1,-1,-1,-1,-1,-1,-1,-1,-1,-1,-1,-1,-1,-1,-1,-1,-1,-1,-1,-1,-1,-1,-1,-1,-1,-1,-1,-1,-1,-1,-1,-1,-1,-1],"loss_changes":[1.7782497E1,2.5846634E1,7.9633913E0,1.9540495E1,2.0418034E0,3.3811798E0,3.5354023E0,2.4847746E1,3.255001E0,5.769186E-1,8.5429E-1,3.2577338E0,9.760617E0,3.3694487E0,6.736059E-1,9.136028E-1,6.0751686E0,3.467599E0,4.286957E0,1.8422604E-1,8.057041E-1,1.0761213E-1,2.211113E-1,1.249671E-1,2.2000349E0,1.9473162E0,1.1597213E0,1.5881739E0,4.5136094E-2,2.8007507E-2,6.268019E-1,5.1371336E-1,7.706189E-1,4.2357513E-1,3.1858673E0,1.7385898E0,5.9284916E0,6.5208995E-1,2.953291E-1,1.6520059E-1,2.9081511E-1,8.894961E-1,3.3180714E-3,4.7776937E-2,9.156704E-3,0E0,2.0376778E-1,2.4810791E-2,3.448571E-1,3.7103486E-1,1.1321869E0,4.7326374E-1,3.775713E-1,4.0121617E0,1.6416013E0,3.919754E0,1.6094487E0,4.726529E-3,6.603325E-3,8.921191E-3,1.4117241E-2,1.532197E-3,8.0217105E-1,0E0,0E0,0E0,0E0,0E0,0E0,0E0,0E0,0E0,0E0,0E0,0E0,0E0,0E0,0E0,0E0,0E0,0E0,0E0,0E0,0E0,0E0,0E0,0E0,0E0,0E0,0E0,0E0,0E0,0E0,0E0,0E0,0E0,0E0,0E0,0E0,0E0,0E0,0E0,0E0,0E0,0E0,0E0,0E0,0E0,0E0,0E0,0E0,0E0,0E0,0E0,0E0,0E0,0E0,0E0,0E0,0E0,0E0,0E0,0E0,0E0,0E0],"parents":[2147483647,0,0,1,1,2,2,3,3,4,4,5,5,6,6,7,7,8,8,9,9,10,10,11,11,12,12,13,13,14,14,15,15,16,16,17,17,18,18,19,19,20,20,21,21,22,22,23,23,24,24,25,25,26,26,27,27,28,28,29,29,30,30,31,31,32,32,33,33,34,34,35,35,36,36,37,37,38,38,39,39,40,40,41,41,42,42,43,43,44,44,46,46,47,47,48,48,49,49,50,50,51,51,52,52,53,53,54,54,55,55,56,56,57,57,58,58,59,59,60,60,61,61,62,62],"right_children":[2,4,6,8,10,12,14,16,18,20,22,24,26,28,30,32,34,36,38,40,42,44,46,48,50,52,54,56,58,60,62,64,66,68,70,72,74,76,78,80,82,84,86,88,90,-1,92,94,96,98,100,102,104,106,108,110,112,114,116,118,120,122,124,-1,-1,-1,-1,-1,-1,-1,-1,-1,-1,-1,-1,-1,-1,-1,-1,-1,-1,-1,-1,-1,-1,-1,-1,-1,-1,-1,-1,-1,-1,-1,-1,-1,-1,-1,-1,-1,-1,-1,-1,-1,-1,-1,-1,-1,-1,-1,-1,-1,-1,-1,-1,-1,-1,-1,-1,-1,-1,-1,-1,-1,-1],"split_conditions":[5.937657E-1,3.45033E-1,3.3086288E-1,-1.855951E-1,1.1099061E0,1.5721148E0,1.7876831E0,-1.1197262E0,3.339793E-1,3.3086288E-1,3.7266994E-1,-1.214586E0,1.6771352E0,1.5831707E0,2.052999E0,-1.28002E0,-1.069978E0,1.4052054E-1,3.3086288E-1,-1.214586E0,1.017729E0,-1.8428673E-1,-3.2751844E0,-1.558019E0,6.1034894E-1,1.5914634E-1,1.9921973E0,1.017729E0,6.7429596E-1,-9.003872E-1,-1.4328756E0,-1.7297356E0,2.0480282E0,5.0257945E-1,6.7429596E-1,5.20817E-2,2.0684816E-1,3.3950725E-1,3.3950725E-1,3.5056093E-1,4.1136226E-1,3.6161625E-1,5.6060296E-1,3.560883E-1,3.6161625E-1,1.1924458E-3,5.108548E-1,6.214026E-1,8.728177E-1,1.1226649E0,6.2297046E-1,-1.0428694E0,1.5776428E0,1.7158276E0,-1.661347E0,6.214026E-1,6.1034894E-1,-1.7619414E0,-1.564502E0,-1.4807397E0,8.4601253E-1,2.8213062E0,1.5152819E0,-1.7545217E-3,1.9200707E-3,1.0019995E-3,2.4276453E-3,3.1701344E-4,-7.984926E-5,-8.6784066E-4,-3.3378522E-4,7.083816E-4,-1.2659228E-5,1.8079447E-3,5.81651E-4,6.993955E-4,6.5112334E-5,-1.1027678E-3,-5.013745E-4,-1.8906716E-4,-1.097762E-3,-1.0015317E-3,-1.8784117E-3,1.3928824E-3,-5.4711767E-4,-1.266694E-3,-7.8759313E-4,-1.1692105E-3,-1.8827704E-3,-1.2773921E-3,-1.4141294E-3,-2.0356686E-3,-1.0491776E-3,1.7703113E-3,1.5278942E-3,1.3112413E-3,-1.3966964E-3,1.619595E-3,3.6554957E-5,2.744259E-4,-5.786658E-4,-1.4263563E-3,-2.1966377E-3,-3.0812456E-3,1.0035534E-3,1.8288501E-3,-1.5745318E-3,-3.1434302E-4,1.0818413E-3,2.7061845E-4,1.7423121E-3,1.6772151E-3,1.2564434E-4,1.3625234E-3,-1.2167115E-3,-4.5551482E-4,1.7348988E-3,7.662118E-4,-1.5951142E-3,1.9718509E-3,2.1155511E-3,1.4682632E-3,2.1389383E-3,-9.425369E-4,1.6656251E-3],"split_indices":[1,1,2,1,0,1,1,1,1,2,1,2,1,1,1,1,1,1,2,2,2,2,2,2,1,2,1,2,2,0,0,2,2,2,2,1,1,1,1,1,1,1,1,1,1,0,1,1,4,4,4,2,1,1,4,1,1,0,0,0,2,1,4,0,0,0,0,0,0,0,0,0,0,0,0,0,0,0,0,0,0,0,0,0,0,0,0,0,0,0,0,0,0,0,0,0,0,0,0,0,0,0,0,0,0,0,0,0,0,0,0,0,0,0,0,0,0,0,0,0,0,0,0,0,0],"split_type":[0,0,0,0,0,0,0,0,0,0,0,0,0,0,0,0,0,0,0,0,0,0,0,0,0,0,0,0,0,0,0,0,0,0,0,0,0,0,0,0,0,0,0,0,0,0,0,0,0,0,0,0,0,0,0,0,0,0,0,0,0,0,0,0,0,0,0,0,0,0,0,0,0,0,0,0,0,0,0,0,0,0,0,0,0,0,0,0,0,0,0,0,0,0,0,0,0,0,0,0,0,0,0,0,0,0,0,0,0,0,0,0,0,0,0,0,0,0,0,0,0,0,0,0,0],"sum_hessian":[4.26789E5,3.27399E5,9.939E4,2.92081E5,3.5318E4,5.6723E4,4.2667E4,1.77053E5,1.15028E5,1.168E4,2.3638E4,3.251E4,2.4213E4,3.1811E4,1.0856E4,1.9498E4,1.57555E5,8.8904E4,2.6124E4,7.008E3,4.672E3,1.0106E4,1.3532E4,7.235E3,2.5275E4,8.841E3,1.5372E4,2.9885E4,1.926E3,8.878E3,1.978E3,5.768E3,1.373E4,2.6903E4,1.30652E5,3.6089E4,5.2815E4,1.7148E4,8.976E3,3.217E3,3.791E3,2.713E3,1.959E3,1.598E3,8.508E3,5.4E1,1.3478E4,4.773E3,2.462E3,3.487E3,2.1788E4,7.997E3,8.44E2,3.657E3,1.1715E4,1.9854E4,1.0031E4,1.908E3,1.8E1,1.6E1,8.862E3,7.99E2,1.179E3,9.6E1,5.672E3,1.2706E4,1.024E3,1.3723E4,1.318E4,9.0203E4,4.0449E4,1.3155E4,2.2934E4,1.311E4,3.9705E4,1.0581E4,6.567E3,5.831E3,3.145E3,6.2E2,2.597E3,1.906E3,1.885E3,8.68E2,1.845E3,1.916E3,4.3E1,2.94E2,1.304E3,6.883E3,1.625E3,1.2929E4,5.49E2,1.717E3,3.056E3,2.339E3,1.23E2,3.066E3,4.21E2,1.6721E4,5.067E3,3.968E3,4.029E3,6E1,7.84E2,1.406E3,2.251E3,2.751E3,8.964E3,6.975E3,1.2879E4,2.118E3,7.913E3,1E0,1.907E3,4E0,1.4E1,1.1E1,5E0,2.802E3,6.06E3,1.8E1,7.81E2,6.12E2,5.67E2],"tree_param":{"num_deleted":"0","num_feature":"5","num_nodes":"125","size_leaf_vector":"1"}},{"base_weights":[3.17088E-5,-3.331369E-3,1.1122067E-2,-3.9535083E-4,-2.7725652E-2,3.8642986E-3,2.0838603E-2,-6.7203213E-3,9.309389E-3,-1.772603E-2,-3.2674488E-2,1.0267008E-2,-4.7027846E-3,1.5807427E-2,3.556481E-2,2.5292186E-2,-1.0677489E-2,1.206866E-2,-8.6652675E-5,-2.3260217E-2,-9.501372E-3,-2.609288E-2,-3.7528083E-2,2.7699983E-2,5.252582E-3,-2.9855037E-2,9.738497E-3,1.8253975E-2,-2.2618966E-2,3.9301336E-2,1.9244159E-2,1.854774E-2,3.141199E-2,2.3532861E-3,-1.3355928E-2,4.8554563E-3,1.6955577E-2,8.621651E-3,-1.6674025E-2,-1.7959477E-2,-2.7680457E-2,8.0523035E-4,-2.3829961E-2,-3.312056E-2,-2.4765437E-2,1.1376044E-3,-3.782096E-2,3.047506E-2,2.2392321E-2,2.7037552E-2,1.6826479E-3,-3.454665E-2,1.4254757E-2,1.8263433E-2,1.832302E-3,2.3331022E-2,8.280902E-3,-2.3011832E-2,2.48828E-2,-3.089361E-3,3.937421E-2,4.0219776E-2,5.2039213E-3,1.6455477E-3,8.277469E-4,1.6859228E-3,6.209187E-4,2.126884E-6,4.612795E-4,-8.568691E-4,-3.5311969E-4,6.9196976E-4,-1.29610435E-5,1.7207509E-3,5.5888336E-4,6.55455E-4,6.1404295E-5,-1.0486929E-3,-4.33903E-4,-9.41098E-5,-1.0860489E-3,-9.872193E-4,-1.7868476E-3,1.2994058E-3,-5.1730464E-4,-1.2825177E-3,-1.1396046E-3,-1.0801374E-3,-1.7822816E-3,-1.212072E-3,-1.350688E-3,-1.9323416E-3,-9.295025E-4,1.6858884E-3,1.4319421E-3,1.2526421E-3,-1.3501126E-3,1.599084E-3,3.1112443E-4,2.8434338E-4,-5.0364825E-4,-1.268087E-3,-2.0309133E-3,-1.7070089E-3,1.1627147E-3,-3.0766413E-4,1.6585101E-3,5.893543E-4,-1.2166277E-3,2.709451E-4,1.6477626E-3,1.55853E-3,1.10539724E-4,1.3284609E-3,-1.1526212E-3,-7.55471E-4,1.4278123E-3,1.256906E-3,-9.1026584E-4,1.8780337E-3,2.009224E-3,2.3175139E-4,2.0240273E-3,-9.46681E-4,1.6061164E-3],"categories":[],"categories_nodes":[],"categories_segments":[],"categories_sizes":[],"default_left":[0,0,0,0,0,0,0,0,0,0,0,0,0,0,0,0,0,0,0,0,0,0,0,0,0,0,0,0,0,0,0,0,0,0,0,0,0,0,0,0,0,0,0,0,0,0,0,0,0,0,0,0,0,0,0,0,0,0,0,0,0,0,0,0,0,0,0,0,0,0,0,0,0,0,0,0,0,0,0,0,0,0,0,0,0,0,0,0,0,0,0,0,0,0,0,0,0,0,0,0,0,0,0,0,0,0,0,0,0,0,0,0,0,0,0,0,0,0,0,0,0,0,0,0,0],"id":8,"left_children":[1,3,5,7,9,11,13,15,17,19,21,23,25,27,29,31,33,35,37,39,41,43,45,47,49,51,53,55,57,59,61,63,65,67,69,71,73,75,77,79,81,83,85,87,89,-1,91,93,95,97,99,101,103,105,107,109,111,113,115,117,119,121,123,-1,-1,-1,-1,-1,-1,-1,-1,-1,-1,-1,-1,-1,-1,-1,-1,-1,-1,-1,-1,-1,-1,-1,-1,-1,-1,-1,-1,-1,-1,-1,-1,-1,-1,-1,-1,-1,-1,-1,-1,-1,-1,-1,-1,-1,-1,-1,-1,-1,-1,-1,-1,-1,-1,-1,-1,-1,-1,-1,-1,-1,-1],"loss_changes":[1.5893611E1,2.3418612E1,6.9922266E0,1.7914455E1,1.7376823E0,3.1134238E0,3.1404877E0,2.238354E1,2.9856138E0,5.2918506E-1,7.495899E-1,2.8394E0,8.818444E0,2.9712853E0,6.5754986E-1,8.0175686E-1,5.4885635E0,3.1377964E0,3.7763002E0,1.623919E-1,6.911572E-1,9.224415E-2,2.3957062E-1,1.06191635E-1,1.9619591E0,1.8330007E0,1.0394738E0,1.5041361E0,3.5880744E-2,2.7254105E-2,5.926245E-1,2.6421857E-1,4.459858E-1,4.2579448E-1,3.1042538E0,1.6520419E0,5.352762E0,5.6875837E-1,3.0924964E-1,1.9130099E-1,2.415514E-1,7.6494855E-1,3.1147003E-3,4.5239687E-2,9.235382E-3,0E0,2.1299362E-1,2.738905E-2,3.285576E-1,3.6534572E-1,1.0204381E0,4.4533062E-1,3.7186718E-1,2.7012575E0,2.084792E0,3.39367E0,1.3926951E0,4.3901205E-3,2.7820151E-3,7.284614E-3,1.1375427E-2,7.3007345E-3,7.8484935E-1,0E0,0E0,0E0,0E0,0E0,0E0,0E0,0E0,0E0,0E0,0E0,0E0,0E0,0E0,0E0,0E0,0E0,0E0,0E0,0E0,0E0,0E0,0E0,0E0,0E0,0E0,0E0,0E0,0E0,0E0,0E0,0E0,0E0,0E0,0E0,0E0,0E0,0E0,0E0,0E0,0E0,0E0,0E0,0E0,0E0,0E0,0E0,0E0,0E0,0E0,0E0,0E0,0E0,0E0,0E0,0E0,0E0,0E0,0E0,0E0,0E0,0E0],"parents":[2147483647,0,0,1,1,2,2,3,3,4,4,5,5,6,6,7,7,8,8,9,9,10,10,11,11,12,12,13,13,14,14,15,15,16,16,17,17,18,18,19,19,20,20,21,21,22,22,23,23,24,24,25,25,26,26,27,27,28,28,29,29,30,30,31,31,32,32,33,33,34,34,35,35,36,36,37,37,38,38,39,39,40,40,41,41,42,42,43,43,44,44,46,46,47,47,48,48,49,49,50,50,51,51,52,52,53,53,54,54,55,55,56,56,57,57,58,58,59,59,60,60,61,61,62,62],"right_children":[2,4,6,8,10,12,14,16,18,20,22,24,26,28,30,32,34,36,38,40,42,44,46,48,50,52,54,56,58,60,62,64,66,68,70,72,74,76,78,80,82,84,86,88,90,-1,92,94,96,98,100,102,104,106,108,110,112,114,116,118,120,122,124,-1,-1,-1,-1,-1,-1,-1,-1,-1,-1,-1,-1,-1,-1,-1,-1,-1,-1,-1,-1,-1,-1,-1,-1,-1,-1,-1,-1,-1,-1,-1,-1,-1,-1,-1,-1,-1,-1,-1,-1,-1,-1,-1,-1,-1,-1,-1,-1,-1,-1,-1,-1,-1,-1,-1,-1,-1,-1,-1,-1,-1,-1],"split_conditions":[5.937657E-1,3.45033E-1,3.3086288E-1,-1.855951E-1,1.1099061E0,1.5721148E0,1.7876831E0,-1.1197262E0,3.339793E-1,3.3086288E-1,3.7266994E-1,-1.214586E0,1.6771352E0,1.5831707E0,2.052999E0,5.0257945E-1,-1.069978E0,1.4052054E-1,3.3086288E-1,-1.214586E0,1.017729E0,-1.8428673E-1,-3.2751844E0,-1.558019E0,6.1034894E-1,1.5914634E-1,1.3725121E0,1.017729E0,6.7429596E-1,-9.003872E-1,-1.4328756E0,-1.285548E0,-1.1418352E0,-1.075506E0,5.0257945E-1,5.20817E-2,2.0684816E-1,3.3950725E-1,3.3950725E-1,3.5056093E-1,4.1136226E-1,3.6161625E-1,3.5056093E-1,3.560883E-1,3.6161625E-1,1.1376044E-3,5.108548E-1,6.214026E-1,8.728177E-1,8.906639E-1,5.515855E-1,1.5831707E0,-2.1075027E0,-1.661347E0,2.052999E0,6.214026E-1,6.1034894E-1,-1.7619414E0,-1.7080944E0,-1.6004001E0,8.4601253E-1,-2.0361178E0,1.5152819E0,1.6455477E-3,8.277469E-4,1.6859228E-3,6.209187E-4,2.126884E-6,4.612795E-4,-8.568691E-4,-3.5311969E-4,6.9196976E-4,-1.29610435E-5,1.7207509E-3,5.5888336E-4,6.55455E-4,6.1404295E-5,-1.0486929E-3,-4.33903E-4,-9.41098E-5,-1.0860489E-3,-9.872193E-4,-1.7868476E-3,1.2994058E-3,-5.1730464E-4,-1.2825177E-3,-1.1396046E-3,-1.0801374E-3,-1.7822816E-3,-1.212072E-3,-1.350688E-3,-1.9323416E-3,-9.295025E-4,1.6858884E-3,1.4319421E-3,1.2526421E-3,-1.3501126E-3,1.599084E-3,3.1112443E-4,2.8434338E-4,-5.0364825E-4,-1.268087E-3,-2.0309133E-3,-1.7070089E-3,1.1627147E-3,-3.0766413E-4,1.6585101E-3,5.893543E-4,-1.2166277E-3,2.709451E-4,1.6477626E-3,1.55853E-3,1.10539724E-4,1.3284609E-3,-1.1526212E-3,-7.55471E-4,1.4278123E-3,1.256906E-3,-9.1026584E-4,1.8780337E-3,2.009224E-3,2.3175139E-4,2.0240273E-3,-9.46681E-4,1.6061164E-3],"split_indices":[1,1,2,1,0,1,1,1,1,2,1,2,1,1,1,2,1,1,2,2,2,2,2,2,1,2,4,2,2,0,0,1,1,1,2,1,1,1,1,1,1,1,1,1,1,0,1,1,4,4,4,1,4,4,1,1,1,0,0,0,2,4,4,0,0,0,0,0,0,0,0,0,0,0,0,0,0,0,0,0,0,0,0,0,0,0,0,0,0,0,0,0,0,0,0,0,0,0,0,0,0,0,0,0,0,0,0,0,0,0,0,0,0,0,0,0,0,0,0,0,0,0,0,0,0],"split_type":[0,0,0,0,0,0,0,0,0,0,0,0,0,0,0,0,0,0,0,0,0,0,0,0,0,0,0,0,0,0,0,0,0,0,0,0,0,0,0,0,0,0,0,0,0,0,0,0,0,0,0,0,0,0,0,0,0,0,0,0,0,0,0,0,0,0,0,0,0,0,0,0,0,0,0,0,0,0,0,0,0,0,0,0,0,0,0,0,0,0,0,0,0,0,0,0,0,0,0,0,0,0,0,0,0,0,0,0,0,0,0,0,0,0,0,0,0,0,0,0,0,0,0,0,0],"sum_hessian":[4.26126E5,3.26974E5,9.9152E4,2.91849E5,3.5125E4,5.6758E4,4.2394E4,1.76692E5,1.15157E5,1.163E4,2.3495E4,3.2482E4,2.4276E4,3.16E4,1.0794E4,1.9438E4,1.57254E5,8.9016E4,2.6141E4,6.951E3,4.679E3,9.975E3,1.352E4,7.255E3,2.5227E4,8.854E3,1.5422E4,2.9709E4,1.891E3,8.782E3,2.012E3,9.249E3,1.0189E4,2.6812E4,1.30442E5,3.5952E4,5.3064E4,1.7142E4,8.999E3,3.163E3,3.788E3,2.722E3,1.957E3,1.581E3,8.394E3,6.5E1,1.3455E4,4.761E3,2.494E3,3.551E3,2.1676E4,8.003E3,8.51E2,7.42E3,8.002E3,1.9686E4,1.0023E4,1.876E3,1.5E1,1.5E1,8.767E3,8.06E2,1.206E3,1.125E3,8.124E3,9.085E3,1.104E3,2.0066E4,6.746E3,8.1482E4,4.896E4,1.3042E4,2.291E4,1.3193E4,3.9871E4,1.0667E4,6.475E3,5.851E3,3.148E3,6E2,2.563E3,1.91E3,1.878E3,8.35E2,1.887E3,7.02E2,1.255E3,2.86E2,1.295E3,6.817E3,1.577E3,1.29E4,5.55E2,1.715E3,3.046E3,2.367E3,1.27E2,2.869E3,6.82E2,1.6169E4,5.507E3,3.187E3,4.816E3,1.33E2,7.18E2,2.813E3,4.607E3,5.797E3,2.205E3,6.881E3,1.2805E4,2.1E3,7.923E3,1E0,1.875E3,1E0,1.4E1,5E0,1E1,2.722E3,6.045E3,6E0,8E2,6.36E2,5.7E2],"tree_param":{"num_deleted":"0","num_feature":"5","num_nodes":"125","size_leaf_vector":"1"}},{"base_weights":[2.9914627E-6,-3.205893E-3,1.0608897E-2,-4.012317E-4,-2.6415104E-2,3.6504765E-3,1.9906845E-2,-6.4177173E-3,8.819301E-3,-1.6914051E-2,-3.1084187E-2,9.691289E-3,-4.4651646E-3,1.5254016E-2,3.3701103E-2,2.4121024E-2,-1.0207479E-2,1.145527E-2,-2.1705877E-4,-2.2936473E-2,-9.0235295E-3,-2.4780517E-2,-3.5742566E-2,2.6392918E-2,4.893564E-3,-2.8467659E-2,9.139909E-3,1.7651113E-2,-2.1479296E-2,3.73127E-2,1.7972512E-2,1.6877161E-2,2.953683E-2,-9.909184E-4,-1.373976E-2,4.6736547E-3,1.6036179E-2,8.056273E-3,-1.6167363E-2,-1.6901089E-2,-2.8740501E-2,1.4346818E-3,-2.2989498E-2,-3.126725E-2,-2.3523793E-2,1.0807229E-3,-3.600682E-2,2.8941786E-2,2.144159E-2,2.5791759E-2,1.5040261E-3,-3.3028368E-2,1.4087707E-2,-5.9016002E-3,1.38633875E-2,3.8531102E-2,1.5537733E-2,-2.1874353E-2,2.4541775E-2,-3.08764E-4,3.737343E-2,3.809908E-2,4.833806E-3,-1.2420537E-3,8.842557E-4,1.5963148E-3,5.13656E-4,-4.460553E-4,1.0971277E-4,-5.596298E-4,-1.0447267E-3,6.417936E-4,-2.1256694E-6,1.634783E-3,5.252071E-4,6.211593E-4,4.8920665E-5,-9.944243E-4,-4.6361578E-4,-1.5602106E-3,-6.6704303E-4,-1.8188352E-3,-1.1416075E-3,1.1661374E-3,-4.916164E-4,-1.5670628E-3,-1.140639E-3,-9.826504E-4,-1.6980156E-3,-1.1519819E-3,-1.2805442E-3,-1.8350633E-3,-8.7388203E-4,1.2405732E-3,1.5207399E-3,1.1872653E-3,-1.0765078E-3,1.5281368E-3,2.7258426E-4,9.228807E-4,-4.6301586E-5,-1.2788865E-3,-2.0123876E-3,1.9475895E-3,-1.8335626E-3,1.6901194E-3,-1.4915931E-3,-2.8261423E-4,9.935674E-4,2.2352634E-3,1.4968308E-3,-5.186245E-4,9.722286E-4,1.2952492E-3,-1.0956315E-3,-1.2930379E-3,1.8594757E-3,1.2045358E-3,-7.4587885E-4,1.1850502E-3,1.8744934E-3,8.8790397E-4,1.931608E-3,-1.3912384E-3,9.24025E-4],"categories":[],"categories_nodes":[],"categories_segments":[],"categories_sizes":[],"default_left":[0,0,0,0,0,0,0,0,0,0,0,0,0,0,0,0,0,0,0,0,0,0,0,0,0,0,0,0,0,0,0,0,0,0,0,0,0,0,0,0,0,0,0,0,0,0,0,0,0,0,0,0,0,0,0,0,0,0,0,0,0,0,0,0,0,0,0,0,0,0,0,0,0,0,0,0,0,0,0,0,0,0,0,0,0,0,0,0,0,0,0,0,0,0,0,0,0,0,0,0,0,0,0,0,0,0,0,0,0,0,0,0,0,0,0,0,0,0,0,0,0,0,0,0,0],"id":9,"left_children":[1,3,5,7,9,11,13,15,17,19,21,23,25,27,29,31,33,35,37,39,41,43,45,47,49,51,53,55,57,59,61,63,65,67,69,71,73,75,77,79,81,83,85,87,89,-1,91,93,95,97,99,101,103,105,107,109,111,113,115,117,119,121,123,-1,-1,-1,-1,-1,-1,-1,-1,-1,-1,-1,-1,-1,-1,-1,-1,-1,-1,-1,-1,-1,-1,-1,-1,-1,-1,-1,-1,-1,-1,-1,-1,-1,-1,-1,-1,-1,-1,-1,-1,-1,-1,-1,-1,-1,-1,-1,-1,-1,-1,-1,-1,-1,-1,-1,-1,-1,-1,-1,-1,-1,-1],"loss_changes":[1.4507369E1,2.1302513E1,6.4060364E0,1.6197483E1,1.5646725E0,2.7764795E0,2.7196617E0,2.0449038E1,2.7461615E0,5.5235624E-1,6.9377136E-1,2.6014457E0,7.8921328E0,2.7911415E0,6.065216E-1,7.647486E-1,5.1171207E0,2.772686E0,3.4360292E0,2.3049903E-1,7.3544025E-1,8.124113E-2,2.0692635E-1,9.081364E-2,1.7866383E0,1.6973295E0,1.0960011E0,1.3123236E0,3.5844207E-2,1.9869804E-2,5.281611E-1,2.817862E-1,5.133667E-1,1.1000754E0,2.0706387E0,1.385221E0,4.9090652E0,5.2991235E-1,2.279861E-1,1.6431761E-1,1.5076399E-1,7.104749E-1,2.4670362E-3,5.0284266E-2,7.926464E-3,0E0,1.7357063E-1,2.8326988E-2,2.4463212E-1,3.4142137E-1,8.941828E-1,4.2374325E-1,1.0704057E0,3.5041258E0,1.376503E0,1.4373827E-1,2.7353559E0,4.0899515E-3,1.1798877E-2,5.706087E-3,1.2927055E-2,7.869363E-3,5.397889E-1,0E0,0E0,0E0,0E0,0E0,0E0,0E0,0E0,0E0,0E0,0E0,0E0,0E0,0E0,0E0,0E0,0E0,0E0,0E0,0E0,0E0,0E0,0E0,0E0,0E0,0E0,0E0,0E0,0E0,0E0,0E0,0E0,0E0,0E0,0E0,0E0,0E0,0E0,0E0,0E0,0E0,0E0,0E0,0E0,0E0,0E0,0E0,0E0,0E0,0E0,0E0,0E0,0E0,0E0,0E0,0E0,0E0,0E0,0E0,0E0,0E0,0E0],"parents":[2147483647,0,0,1,1,2,2,3,3,4,4,5,5,6,6,7,7,8,8,9,9,10,10,11,11,12,12,13,13,14,14,15,15,16,16,17,17,18,18,19,19,20,20,21,21,22,22,23,23,24,24,25,25,26,26,27,27,28,28,29,29,30,30,31,31,32,32,33,33,34,34,35,35,36,36,37,37,38,38,39,39,40,40,41,41,42,42,43,43,44,44,46,46,47,47,48,48,49,49,50,50,51,51,52,52,53,53,54,54,55,55,56,56,57,57,58,58,59,59,60,60,61,61,62,62],"right_children":[2,4,6,8,10,12,14,16,18,20,22,24,26,28,30,32,34,36,38,40,42,44,46,48,50,52,54,56,58,60,62,64,66,68,70,72,74,76,78,80,82,84,86,88,90,-1,92,94,96,98,100,102,104,106,108,110,112,114,116,118,120,122,124,-1,-1,-1,-1,-1,-1,-1,-1,-1,-1,-1,-1,-1,-1,-1,-1,-1,-1,-1,-1,-1,-1,-1,-1,-1,-1,-1,-1,-1,-1,-1,-1,-1,-1,-1,-1,-1,-1,-1,-1,-1,-1,-1,-1,-1,-1,-1,-1,-1,-1,-1,-1,-1,-1,-1,-1,-1,-1,-1,-1,-1,-1],"split_conditions":[5.937657E-1,3.45033E-1,3.3086288E-1,-1.855951E-1,1.1099061E0,1.5721148E0,1.7876831E0,-1.1197262E0,3.339793E-1,1.7456862E-1,3.7266994E-1,-1.214586E0,1.6771352E0,1.5831707E0,2.052999E0,3.5015693E-1,-1.0589243E0,1.4052054E-1,3.3086288E-1,-1.214586E0,8.769219E-1,-1.8428673E-1,-3.2751844E0,-1.558019E0,6.1034894E-1,1.5914634E-1,1.9921973E0,6.04821E-1,6.7429596E-1,-9.003872E-1,-1.4268926E0,-2.1080794E0,-1.1418352E0,-3.5600328E-1,-1.0036504E0,5.20817E-2,2.0684816E-1,3.3950725E-1,3.3950725E-1,-1.9324912E0,-5.2778465E-1,3.6161625E-1,-1.1456908E0,3.560883E-1,3.6161625E-1,1.0807229E-3,5.6060296E-1,-2.2836678E0,8.7656844E-1,9.005005E-1,-1.3850114E0,-1.0428694E0,3.5015693E-1,1.7158276E0,-1.6303151E0,1.0525101E0,6.158769E-1,-1.7619414E0,-1.564502E0,-1.6004001E0,3.5015693E-1,2.8213062E0,6.7429596E-1,-1.2420537E-3,8.842557E-4,1.5963148E-3,5.13656E-4,-4.460553E-4,1.0971277E-4,-5.596298E-4,-1.0447267E-3,6.417936E-4,-2.1256694E-6,1.634783E-3,5.252071E-4,6.211593E-4,4.8920665E-5,-9.944243E-4,-4.6361578E-4,-1.5602106E-3,-6.6704303E-4,-1.8188352E-3,-1.1416075E-3,1.1661374E-3,-4.916164E-4,-1.5670628E-3,-1.140639E-3,-9.826504E-4,-1.6980156E-3,-1.1519819E-3,-1.2805442E-3,-1.8350633E-3,-8.7388203E-4,1.2405732E-3,1.5207399E-3,1.1872653E-3,-1.0765078E-3,1.5281368E-3,2.7258426E-4,9.228807E-4,-4.6301586E-5,-1.2788865E-3,-2.0123876E-3,1.9475895E-3,-1.8335626E-3,1.6901194E-3,-1.4915931E-3,-2.8261423E-4,9.935674E-4,2.2352634E-3,1.4968308E-3,-5.186245E-4,9.722286E-4,1.2952492E-3,-1.0956315E-3,-1.2930379E-3,1.8594757E-3,1.2045358E-3,-7.4587885E-4,1.1850502E-3,1.8744934E-3,8.8790397E-4,1.931608E-3,-1.3912384E-3,9.24025E-4],"split_indices":[1,1,2,1,0,1,1,1,1,3,1,2,1,1,1,3,1,1,2,2,3,2,2,2,1,2,1,1,2,0,0,3,1,2,1,1,1,1,1,3,3,1,0,1,1,0,1,3,0,0,0,2,3,1,0,3,1,0,0,0,3,1,2,0,0,0,0,0,0,0,0,0,0,0,0,0,0,0,0,0,0,0,0,0,0,0,0,0,0,0,0,0,0,0,0,0,0,0,0,0,0,0,0,0,0,0,0,0,0,0,0,0,0,0,0,0,0,0,0,0,0,0,0,0,0],"split_type":[0,0,0,0,0,0,0,0,0,0,0,0,0,0,0,0,0,0,0,0,0,0,0,0,0,0,0,0,0,0,0,0,0,0,0,0,0,0,0,0,0,0,0,0,0,0,0,0,0,0,0,0,0,0,0,0,0,0,0,0,0,0,0,0,0,0,0,0,0,0,0,0,0,0,0,0,0,0,0,0,0,0,0,0,0,0,0,0,0,0,0,0,0,0,0,0,0,0,0,0,0,0,0,0,0,0,0,0,0,0,0,0,0,0,0,0,0,0,0,0,0,0,0,0,0],"sum_hessian":[4.2627E5,3.27257E5,9.9013E4,2.91975E5,3.5282E4,5.6632E4,4.2381E4,1.76686E5,1.15289E5,1.1627E4,2.3655E4,3.2466E4,2.4166E4,3.1693E4,1.0688E4,1.9505E4,1.57181E5,8.9253E4,2.6036E4,6.593E3,5.034E3,1.0055E4,1.36E4,7.244E3,2.5222E4,8.742E3,1.5424E4,2.9752E4,1.941E3,8.691E3,1.997E3,8.346E3,1.1159E4,4.355E4,1.13631E5,3.5984E4,5.3269E4,1.7144E4,8.892E3,3.234E3,3.359E3,2.879E3,2.155E3,1.628E3,8.427E3,6.2E1,1.3538E4,4.779E3,2.465E3,3.519E3,2.1703E4,7.896E3,8.46E2,3.686E3,1.1738E4,2.733E3,2.7019E4,1.925E3,1.6E1,1.4E1,8.677E3,7.88E2,1.209E3,1.58E2,8.188E3,9.927E3,1.232E3,1.2479E4,3.1071E4,8.38E4,2.9831E4,1.3177E4,2.2807E4,1.3278E4,3.9991E4,1.0602E4,6.542E3,5.774E3,3.118E3,6.43E2,2.591E3,1.463E3,1.896E3,9.78E2,1.901E3,4.1E1,2.114E3,3.08E2,1.32E3,6.85E3,1.577E3,1.3048E4,4.9E2,1.261E3,3.518E3,2.34E3,1.25E2,2.85E3,6.69E2,2.72E3,1.8983E4,3.888E3,4.008E3,5.68E2,2.78E2,1.386E3,2.3E3,2.763E3,8.975E3,1.588E3,1.145E3,3.54E3,2.3479E4,1E0,1.924E3,3E0,1.3E1,5E0,9E0,7.5E1,8.602E3,2.1E1,7.67E2,3.56E2,8.53E2],"tree_param":{"num_deleted":"0","num_feature":"5","num_nodes":"125","size_leaf_vector":"1"}},{"base_weights":[1.4810665E-5,-6.0978864E-4,3.3632338E-2,7.7623697E-3,-2.012748E-3,-2.8105741E-2,3.540817E-2,1.4478159E-2,5.8923643E-3,-5.5502965E-3,2.2888642E-3,-4.8646335E-2,2.383104E-3,-1.7102456E-3,3.5532612E-2,1.9778053E-3,3.3496913E-2,3.6770715E-3,1.2345535E-2,-2.6281758E-3,-7.716882E-3,5.3069927E-3,7.626865E-4,-1.866132E-3,-5.2459393E-2,2.164037E-2,3.6049046E-2,5.0929547E-3,-9.817539E-3,3.7036356E-2,2.4824541E-2,7.366978E-3,-1.8913945E-3,6.785247E-3,1.6567916E-2,-2.4563225E-3,-2.9662017E-2,3.32313E-2,-7.966261E-3,4.1065426E-3,2.3978561E-2,-4.746926E-3,2.8100647E-3,-1.9808926E-3,1.2031415E-2,-8.3913404E-4,-5.311163E-2,4.5945577E-2,6.411453E-3,5.8534876E-2,3.5615694E-2,3.2462566E-7,1.5717946E-3,-7.621576E-4,6.5675145E-4,1.1861019E-3,1.9493053E-3,1.2820761E-3,-8.12642E-4,-7.60919E-5,4.8816536E-4,-4.6160823E-4,4.936777E-5,5.039213E-4,-5.679237E-4,9.596377E-4,8.4822444E-5,-1.495646E-4,3.0259875E-4,-1.599042E-3,2.8960926E-3,1.9025542E-3,1.4432175E-3,-3.0092776E-4,-5.748473E-4,2.6449648E-4,-4.4465336E-4,1.8668342E-3,9.78961E-4,-5.550888E-5,-3.328833E-4,3.3800077E-4,6.313941E-7,-3.9724648E-4,1.2290729E-3,1.1807665E-3,-1.2437016E-3,-2.2500537E-3,-2.7749923E-3,-6.4313214E-4,2.3606182E-3,2.2858046E-3,1.6928556E-4,2.0160032E-3,2.9830248E-3,1.8252496E-3,1.6325492E-3],"categories":[],"categories_nodes":[],"categories_segments":[],"categories_sizes":[],"default_left":[0,0,0,0,0,0,0,0,0,0,0,0,0,0,0,0,0,0,0,0,0,0,0,0,0,0,0,0,0,0,0,0,0,0,0,0,0,0,0,0,0,0,0,0,0,0,0,0,0,0,0,0,0,0,0,0,0,0,0,0,0,0,0,0,0,0,0,0,0,0,0,0,0,0,0,0,0,0,0,0,0,0,0,0,0,0,0,0,0,0,0,0,0,0,0,0,0],"id":10,"left_children":[1,3,5,7,9,11,13,15,17,19,21,23,-1,-1,25,27,29,31,33,35,37,39,41,43,45,47,49,51,53,55,57,59,61,63,65,67,69,71,73,75,77,79,81,-1,83,85,87,89,91,93,95,-1,-1,-1,-1,-1,-1,-1,-1,-1,-1,-1,-1,-1,-1,-1,-1,-1,-1,-1,-1,-1,-1,-1,-1,-1,-1,-1,-1,-1,-1,-1,-1,-1,-1,-1,-1,-1,-1,-1,-1,-1,-1,-1,-1,-1,-1],"loss_changes":[8.952383E0,4.9165487E0,8.5363674E-1,7.543831E-1,5.455411E0,3.415954E-1,6.670761E-2,3.1105392E0,6.717508E-1,1.2454381E0,7.4519163E-1,3.0582726E-2,0E0,0E0,5.3364754E-2,2.901827E-1,1.5835905E-1,7.188549E-1,2.818308E-1,3.8905948E-1,1.1538224E0,1.2177373E0,1.212066E0,7.821846E-3,5.308807E-3,1.0075419E-1,6.880474E-2,8.370501E-1,2.0567764E-1,9.4684124E-2,5.099082E-2,4.4822037E-1,2.946771E-1,3.0992085E-1,2.6638293E-1,3.7885904E-1,1.0928777E-1,1.3298392E-2,7.720642E-1,7.854091E-1,1.9214213E-1,2.0228142E-1,8.656251E-1,0E0,2.9530418E-3,2.35069E-3,5.4353476E-4,8.429512E-3,1.9943656E-2,3.8290024E-4,1.7632484E-2,0E0,0E0,0E0,0E0,0E0,0E0,0E0,0E0,0E0,0E0,0E0,0E0,0E0,0E0,0E0,0E0,0E0,0E0,0E0,0E0,0E0,0E0,0E0,0E0,0E0,0E0,0E0,0E0,0E0,0E0,0E0,0E0,0E0,0E0,0E0,0E0,0E0,0E0,0E0,0E0,0E0,0E0,0E0,0E0,0E0,0E0],"parents":[2147483647,0,0,1,1,2,2,3,3,4,4,5,5,6,6,7,7,8,8,9,9,10,10,11,11,14,14,15,15,16,16,17,17,18,18,19,19,20,20,21,21,22,22,23,23,24,24,25,25,26,26,27,27,28,28,29,29,30,30,31,31,32,32,33,33,34,34,35,35,36,36,37,37,38,38,39,39,40,40,41,41,42,42,44,44,45,45,46,46,47,47,48,48,49,49,50,50],"right_children":[2,4,6,8,10,12,14,16,18,20,22,24,-1,-1,26,28,30,32,34,36,38,40,42,44,46,48,50,52,54,56,58,60,62,64,66,68,70,72,74,76,78,80,82,-1,84,86,88,90,92,94,96,-1,-1,-1,-1,-1,-1,-1,-1,-1,-1,-1,-1,-1,-1,-1,-1,-1,-1,-1,-1,-1,-1,-1,-1,-1,-1,-1,-1,-1,-1,-1,-1,-1,-1,-1,-1,-1,-1,-1,-1,-1,-1,-1,-1,-1,-1],"split_conditions":[1.5152819E0,-1.217487E0,-1.7660801E-1,-1.564502E0,3.5015693E-1,-1.8428673E-1,1.5466661E0,-2.0361178E0,-1.357961E0,-8.669708E-2,-1.6447628E-1,-5.277198E-1,2.383104E-3,-1.7102456E-3,1.5914634E-1,1.5914634E-1,-1.582451E0,-1.3610795E0,-1.7660801E-1,5.0257945E-1,-2.5883183E0,-7.3032536E-2,6.7429596E-1,1.5586323E0,-5.2778465E-1,-1.0196978E-3,1.7456862E-1,-1.7660801E-1,1.2280985E0,-1.7327319E0,7.013336E-1,-1.9290404E0,-1.5721159E0,-3.5600328E-1,1.017729E0,-5.5186305E-2,6.7429596E-1,8.014327E-1,-1.7660801E-1,-2.961026E-1,-2.482385E-1,5.175875E-1,1.017729E0,-1.9808926E-3,-1.230138E0,1.5586323E0,-3.5219634E-1,1.5646152E0,1.5885473E0,1.6244454E0,1.5328786E0,3.2462566E-7,1.5717946E-3,-7.621576E-4,6.5675145E-4,1.1861019E-3,1.9493053E-3,1.2820761E-3,-8.12642E-4,-7.60919E-5,4.8816536E-4,-4.6160823E-4,4.936777E-5,5.039213E-4,-5.679237E-4,9.596377E-4,8.4822444E-5,-1.495646E-4,3.0259875E-4,-1.599042E-3,2.8960926E-3,1.9025542E-3,1.4432175E-3,-3.0092776E-4,-5.748473E-4,2.6449648E-4,-4.4465336E-4,1.8668342E-3,9.78961E-4,-5.550888E-5,-3.328833E-4,3.3800077E-4,6.313941E-7,-3.9724648E-4,1.2290729E-3,1.1807665E-3,-1.2437016E-3,-2.2500537E-3,-2.7749923E-3,-6.4313214E-4,2.3606182E-3,2.2858046E-3,1.6928556E-4,2.0160032E-3,2.9830248E-3,1.8252496E-3,1.6325492E-3],"split_indices":[4,0,3,0,3,2,0,4,4,0,0,2,0,0,2,2,0,0,3,2,2,4,2,0,3,3,3,3,3,4,3,4,4,2,2,4,2,4,3,0,0,0,2,0,3,0,3,0,0,0,2,0,0,0,0,0,0,0,0,0,0,0,0,0,0,0,0,0,0,0,0,0,0,0,0,0,0,0,0,0,0,0,0,0,0,0,0,0,0,0,0,0,0,0,0,0,0],"split_type":[0,0,0,0,0,0,0,0,0,0,0,0,0,0,0,0,0,0,0,0,0,0,0,0,0,0,0,0,0,0,0,0,0,0,0,0,0,0,0,0,0,0,0,0,0,0,0,0,0,0,0,0,0,0,0,0,0,0,0,0,0,0,0,0,0,0,0,0,0,0,0,0,0,0,0,0,0,0,0,0,0,0,0,0,0,0,0,0,0,0,0,0,0,0,0,0,0],"sum_hessian":[4.26353E5,4.18577E5,7.776E3,6.0075E4,3.58502E5,2.17E2,7.559E3,1.3083E4,4.6992E4,1.96722E5,1.6178E5,1.71E2,4.6E1,1.3E1,7.546E3,7.895E3,5.188E3,3.4984E4,1.2008E4,8.3758E4,1.12964E5,5.4332E4,1.07448E5,1.3E1,1.58E2,2.72E2,7.274E3,6.246E3,1.649E3,3.682E3,1.506E3,2.1041E4,1.3943E4,5.184E3,6.824E3,8.323E4,5.28E2,6.83E2,1.12281E5,5.1051E4,3.281E3,2.911E4,7.8338E4,3E0,1E1,2E0,1.56E2,1.04E2,1.68E2,1.35E2,7.139E3,5.236E3,1.01E3,1.334E3,3.15E2,4.72E2,3.21E3,1.477E3,2.9E1,4.468E3,1.6573E4,3.927E3,1.0016E4,4.388E3,7.96E2,5.8E3,1.024E3,7.8307E4,4.923E3,5.15E2,1.3E1,3.21E2,3.62E2,7.2364E4,3.9917E4,4.6792E4,4.259E3,8.11E2,2.47E3,1.0027E4,1.9083E4,3.2478E4,4.586E4,4E0,6E0,1E0,1E0,4E1,1.16E2,2E0,1.02E2,1.1E1,1.57E2,1E1,1.25E2,5.483E3,1.656E3],"tree_param":{"num_deleted":"0","num_feature":"5","num_nodes":"97","size_leaf_vector":"1"}},{"base_weights":[-8.775661E-5,-3.0692562E-3,9.756283E-3,-4.160173E-4,-2.4895221E-2,3.3274535E-3,1.8318197E-2,-6.0916315E-3,8.317858E-3,-1.5885428E-2,-2.9289288E-2,9.182494E-3,-4.528164E-3,1.4090549E-2,3.0777609E-2,2.4189264E-2,-9.500649E-3,1.08552305E-2,-3.2760433E-4,-2.0640288E-2,-8.671516E-3,-2.3422958E-2,-3.3602457E-2,2.4863897E-2,4.682708E-3,-2.6980834E-2,8.261829E-3,1.6338052E-2,-2.0611616E-2,3.412087E-2,1.5958391E-2,1.4251321E-2,2.8273964E-2,-5.608013E-4,-1.3055078E-2,4.2276224E-3,1.5348991E-2,7.4514705E-3,-1.5253641E-2,-1.5062276E-2,-2.4180619E-2,8.171975E-4,-2.1685444E-2,-2.9919783E-2,-2.220539E-2,9.963758E-4,-3.3858407E-2,2.7352719E-2,2.00427E-2,2.4488494E-2,1.5185243E-3,-3.1198837E-2,1.2791597E-2,-5.5665933E-3,1.2640498E-2,2.1149518E-2,7.0029567E-3,-2.0987054E-2,2.5635418E-2,7.7611837E-4,3.4189243E-2,3.444031E-2,3.7781831E-3,1.029923E-3,2.9094642E-4,1.3161954E-3,2.1136228E-3,-4.0275944E-4,1.1711469E-4,-5.292638E-4,-9.998973E-4,1.7266729E-4,2.6812777E-3,1.5648293E-3,5.0285377E-4,5.803222E-4,3.4136447E-5,-6.388632E-4,-1.223262E-3,-1.8711951E-4,-8.698394E-4,-8.5986307E-4,-1.5237218E-3,1.2246402E-3,-4.732972E-4,-1.1737806E-3,-1.0335045E-3,-1.0813781E-3,-1.5918192E-3,-1.0703654E-3,-1.1686172E-3,-1.7288504E-3,-8.876172E-4,1.4041959E-3,9.908181E-4,1.1182221E-3,-1.2766853E-3,1.8168197E-3,8.4577635E-4,2.564378E-4,-4.521581E-4,-1.1170126E-3,-1.8472914E-3,-3.0765652E-3,9.133338E-4,1.6129541E-3,-1.4543628E-3,1.5534376E-3,2.9483842E-4,2.0697473E-4,1.5141439E-3,8.234763E-4,-3.685708E-4,1.2819216E-3,-1.0512396E-3,4.2912774E-4,1.8972568E-3,1.7981976E-3,-5.5024505E-4,1.6351746E-3,1.7423943E-3,-1.4456063E-4,1.7341195E-3,-8.771442E-4,1.3513777E-3],"categories":[],"categories_nodes":[],"categories_segments":[],"categories_sizes":[],"default_left":[0,0,0,0,0,0,0,0,0,0,0,0,0,0,0,0,0,0,0,0,0,0,0,0,0,0,0,0,0,0,0,0,0,0,0,0,0,0,0,0,0,0,0,0,0,0,0,0,0,0,0,0,0,0,0,0,0,0,0,0,0,0,0,0,0,0,0,0,0,0,0,0,0,0,0,0,0,0,0,0,0,0,0,0,0,0,0,0,0,0,0,0,0,0,0,0,0,0,0,0,0,0,0,0,0,0,0,0,0,0,0,0,0,0,0,0,0,0,0,0,0,0,0,0,0],"id":11,"left_children":[1,3,5,7,9,11,13,15,17,19,21,23,25,27,29,31,33,35,37,39,41,43,45,47,49,51,53,55,57,59,61,63,65,67,69,71,73,75,77,79,81,83,85,87,89,-1,91,93,95,97,99,101,103,105,107,109,111,113,115,117,119,121,123,-1,-1,-1,-1,-1,-1,-1,-1,-1,-1,-1,-1,-1,-1,-1,-1,-1,-1,-1,-1,-1,-1,-1,-1,-1,-1,-1,-1,-1,-1,-1,-1,-1,-1,-1,-1,-1,-1,-1,-1,-1,-1,-1,-1,-1,-1,-1,-1,-1,-1,-1,-1,-1,-1,-1,-1,-1,-1,-1,-1,-1,-1],"loss_changes":[1.2513901E1,1.8950987E1,5.4555893E0,1.4463766E1,1.40378E0,2.6038623E0,2.2385273E0,1.8256737E1,2.521151E0,3.9874363E-1,6.024494E-1,2.2886639E0,6.942833E0,2.4757624E0,5.3295135E-1,7.2605896E-1,5.0511475E0,2.6461735E0,3.02805E0,1.380496E-1,5.707674E-1,7.926941E-2,1.8888664E-1,8.6229324E-2,1.5795386E0,1.4723268E0,9.3272316E-1,1.3387375E0,3.4065843E-2,2.0002365E-2,4.464953E-1,2.7899504E-1,3.4507942E-1,9.8393196E-1,1.9501305E0,1.3730208E0,4.4682274E0,4.8214895E-1,2.0350742E-1,7.1920395E-2,1.8785381E-1,6.5124285E-1,3.057301E-3,2.4612904E-2,7.429123E-3,0E0,1.5762234E-1,2.5712252E-2,2.6151478E-1,3.1090617E-1,8.287668E-1,4.030447E-1,3.4375373E-1,3.2972207E0,1.4537119E0,3.0557804E0,1.3799318E0,3.9101243E-3,3.0329898E-3,8.272202E-3,7.4396133E-3,7.22152E-3,5.9382874E-1,0E0,0E0,0E0,0E0,0E0,0E0,0E0,0E0,0E0,0E0,0E0,0E0,0E0,0E0,0E0,0E0,0E0,0E0,0E0,0E0,0E0,0E0,0E0,0E0,0E0,0E0,0E0,0E0,0E0,0E0,0E0,0E0,0E0,0E0,0E0,0E0,0E0,0E0,0E0,0E0,0E0,0E0,0E0,0E0,0E0,0E0,0E0,0E0,0E0,0E0,0E0,0E0,0E0,0E0,0E0,0E0,0E0,0E0,0E0,0E0,0E0,0E0],"parents":[2147483647,0,0,1,1,2,2,3,3,4,4,5,5,6,6,7,7,8,8,9,9,10,10,11,11,12,12,13,13,14,14,15,15,16,16,17,17,18,18,19,19,20,20,21,21,22,22,23,23,24,24,25,25,26,26,27,27,28,28,29,29,30,30,31,31,32,32,33,33,34,34,35,35,36,36,37,37,38,38,39,39,40,40,41,41,42,42,43,43,44,44,46,46,47,47,48,48,49,49,50,50,51,51,52,52,53,53,54,54,55,55,56,56,57,57,58,58,59,59,60,60,61,61,62,62],"right_children":[2,4,6,8,10,12,14,16,18,20,22,24,26,28,30,32,34,36,38,40,42,44,46,48,50,52,54,56,58,60,62,64,66,68,70,72,74,76,78,80,82,84,86,88,90,-1,92,94,96,98,100,102,104,106,108,110,112,114,116,118,120,122,124,-1,-1,-1,-1,-1,-1,-1,-1,-1,-1,-1,-1,-1,-1,-1,-1,-1,-1,-1,-1,-1,-1,-1,-1,-1,-1,-1,-1,-1,-1,-1,-1,-1,-1,-1,-1,-1,-1,-1,-1,-1,-1,-1,-1,-1,-1,-1,-1,-1,-1,-1,-1,-1,-1,-1,-1,-1,-1,-1,-1,-1,-1],"split_conditions":[5.937657E-1,3.45033E-1,3.3086288E-1,-1.855951E-1,1.091957E0,1.5721148E0,1.7876831E0,-1.1418352E0,3.339793E-1,3.3086288E-1,3.7266994E-1,-1.214586E0,1.6771352E0,1.5831707E0,2.052999E0,-1.2570195E-2,-1.0589243E0,1.4052054E-1,3.3086288E-1,-1.3863025E0,1.017729E0,-1.8428673E-1,-3.2751844E0,-1.558019E0,6.1034894E-1,1.5914634E-1,1.9921973E0,1.017729E0,6.7429596E-1,-9.003872E-1,-1.4328756E0,-5.277198E-1,-1.2468556E0,-3.5600328E-1,-1.0036504E0,1.2295663E0,2.0684816E-1,3.3950725E-1,1.3611622E0,-8.225742E-1,4.1136226E-1,3.6161625E-1,3.5056093E-1,3.560883E-1,3.560883E-1,9.963758E-4,5.108548E-1,1.4007657E0,8.728177E-1,-7.208967E-1,5.515855E-1,1.5831707E0,1.5776428E0,1.7158276E0,2.052999E0,6.214026E-1,1.1796699E0,-1.7619414E0,1.017729E0,-1.6004001E0,8.4601253E-1,-2.0361178E0,1.5152819E0,1.029923E-3,2.9094642E-4,1.3161954E-3,2.1136228E-3,-4.0275944E-4,1.1711469E-4,-5.292638E-4,-9.998973E-4,1.7266729E-4,2.6812777E-3,1.5648293E-3,5.0285377E-4,5.803222E-4,3.4136447E-5,-6.388632E-4,-1.223262E-3,-1.8711951E-4,-8.698394E-4,-8.5986307E-4,-1.5237218E-3,1.2246402E-3,-4.732972E-4,-1.1737806E-3,-1.0335045E-3,-1.0813781E-3,-1.5918192E-3,-1.0703654E-3,-1.1686172E-3,-1.7288504E-3,-8.876172E-4,1.4041959E-3,9.908181E-4,1.1182221E-3,-1.2766853E-3,1.8168197E-3,8.4577635E-4,2.564378E-4,-4.521581E-4,-1.1170126E-3,-1.8472914E-3,-3.0765652E-3,9.133338E-4,1.6129541E-3,-1.4543628E-3,1.5534376E-3,2.9483842E-4,2.0697473E-4,1.5141439E-3,8.234763E-4,-3.685708E-4,1.2819216E-3,-1.0512396E-3,4.2912774E-4,1.8972568E-3,1.7981976E-3,-5.5024505E-4,1.6351746E-3,1.7423943E-3,-1.4456063E-4,1.7341195E-3,-8.771442E-4,1.3513777E-3],"split_indices":[1,1,2,1,0,1,1,1,1,2,1,2,1,1,1,2,1,1,2,2,2,2,2,2,1,2,1,2,2,0,0,2,1,2,1,0,1,1,2,4,1,1,1,1,1,0,1,1,4,0,4,1,1,1,1,1,1,0,2,0,2,4,4,0,0,0,0,0,0,0,0,0,0,0,0,0,0,0,0,0,0,0,0,0,0,0,0,0,0,0,0,0,0,0,0,0,0,0,0,0,0,0,0,0,0,0,0,0,0,0,0,0,0,0,0,0,0,0,0,0,0,0,0,0,0],"split_type":[0,0,0,0,0,0,0,0,0,0,0,0,0,0,0,0,0,0,0,0,0,0,0,0,0,0,0,0,0,0,0,0,0,0,0,0,0,0,0,0,0,0,0,0,0,0,0,0,0,0,0,0,0,0,0,0,0,0,0,0,0,0,0,0,0,0,0,0,0,0,0,0,0,0,0,0,0,0,0,0,0,0,0,0,0,0,0,0,0,0,0,0,0,0,0,0,0,0,0,0,0,0,0,0,0,0,0,0,0,0,0,0,0,0,0,0,0,0,0,0,0,0,0,0,0],"sum_hessian":[4.26366E5,3.27251E5,9.9115E4,2.91782E5,3.5469E4,5.661E4,4.2505E4,1.76855E5,1.14927E5,1.1629E4,2.384E4,3.2435E4,2.4175E4,3.1738E4,1.0767E4,1.7895E4,1.5896E5,8.885E4,2.6077E4,7.008E3,4.621E3,1.0104E4,1.3736E4,7.231E3,2.5204E4,8.773E3,1.5402E4,2.9808E4,1.93E3,8.784E3,1.983E3,5.214E3,1.2681E4,4.5222E4,1.13738E5,3.5902E4,5.2948E4,1.7143E4,8.934E3,2.723E3,4.285E3,2.673E3,1.948E3,1.591E3,8.513E3,6.5E1,1.3671E4,4.766E3,2.465E3,3.471E3,2.1733E4,7.932E3,8.41E2,3.704E3,1.1698E4,1.9669E4,1.0139E4,1.915E3,1.5E1,1.8E1,8.766E3,7.87E2,1.196E3,2.974E3,2.24E3,1.1133E4,1.548E3,1.2626E4,3.2596E4,8.3896E4,2.9842E4,3.5349E4,5.53E2,1.3191E4,3.9757E4,1.0622E4,6.521E3,7.043E3,1.891E3,4.66E2,2.257E3,2.033E3,2.252E3,8.09E2,1.864E3,6.97E2,1.251E3,3.01E2,1.29E3,5.067E3,3.446E3,1.3086E4,5.85E2,4.342E3,4.24E2,2.346E3,1.19E2,1.352E3,2.119E3,1.6197E4,5.536E3,3.123E3,4.809E3,5.7E1,7.84E2,1.42E3,2.284E3,3.133E3,8.565E3,6.872E3,1.2797E4,6.113E3,4.026E3,1E0,1.914E3,7E0,8E0,4E0,1.4E1,2.708E3,6.058E3,5E0,7.82E2,6.24E2,5.72E2],"tree_param":{"num_deleted":"0","num_feature":"5","num_nodes":"125","size_leaf_vector":"1"}},{"base_weights":[1.0094518E-5,-5.5285555E-4,3.048001E-2,6.8402058E-3,-1.8805075E-3,-2.4955014E-2,3.2029115E-2,1.0969426E-2,4.453779E-3,-5.232468E-3,2.1629976E-3,-4.439881E-2,2.1918041E-3,1.6454706E-2,3.260376E-2,5.309096E-3,2.8812705E-2,1.7028522E-3,1.1264135E-2,-2.8491495E-3,-7.474685E-3,5.024868E-3,6.7344424E-4,4.954133E-3,-4.9367134E-2,3.9178006E-2,1.7569805E-3,5.5442438E-2,3.2169897E-2,1.580943E-4,1.1483639E-2,3.6422055E-2,1.8905036E-2,4.163398E-3,-4.648695E-3,6.2028165E-3,1.5953023E-2,-2.7045398E-3,-2.9185655E-2,3.0779839E-2,-7.708078E-3,3.9233794E-3,2.3669356E-2,-4.201678E-3,2.4825342E-3,-1.1167892E-3,1.2969943E-2,-7.65721E-4,-5.0018735E-2,-1.4555859E-3,4.2141445E-2,3.17656E-2,-8.0425484E-4,3.4983337E-2,2.8231891E-3,-2.6294896E-2,3.227217E-2,1.3120593E-4,-5.1552797E-4,6.226493E-4,-1.1025005E-3,1.8339725E-3,1.1440923E-3,-9.530267E-5,1.0717269E-3,-2.7157801E-5,4.7009237E-4,-5.9304404E-4,-4.082538E-5,4.431755E-4,-5.9709022E-5,9.004992E-4,-1.2218881E-4,-6.5496954E-4,-1.2377692E-4,-1.5648081E-3,2.72787E-3,1.8058053E-3,1.348371E-3,-4.2808877E-4,-9.244674E-6,2.4881447E-4,-4.425211E-4,1.7860435E-3,9.865164E-4,-8.673489E-7,-2.853891E-4,3.1147557E-4,-8.9048945E-6,1.2185213E-3,-2.1961778E-4,1.1438758E-3,-1.2013048E-3,-2.2584486E-3,-2.719131E-3,2.1499014E-3,-2.2925933E-5,-1.4326855E-3,1.9594177E-3,4.2722918E-4,-1.4376958E-4,2.1427681E-3,2.4770797E-4,-1.5671076E-3,4.8834085E-5,1.6534243E-3,1.478026E-3],"categories":[],"categories_nodes":[],"categories_segments":[],"categories_sizes":[],"default_left":[0,0,0,0,0,0,0,0,0,0,0,0,0,0,0,0,0,0,0,0,0,0,0,0,0,0,0,0,0,0,0,0,0,0,0,0,0,0,0,0,0,0,0,0,0,0,0,0,0,0,0,0,0,0,0,0,0,0,0,0,0,0,0,0,0,0,0,0,0,0,0,0,0,0,0,0,0,0,0,0,0,0,0,0,0,0,0,0,0,0,0,0,0,0,0,0,0,0,0,0,0,0,0,0,0,0,0],"id":12,"left_children":[1,3,5,7,9,11,13,15,17,19,21,23,-1,25,27,29,31,33,35,37,39,41,43,45,47,49,51,53,55,57,59,61,63,65,67,69,71,73,75,77,79,81,83,85,87,-1,89,91,93,-1,95,97,99,101,-1,103,105,-1,-1,-1,-1,-1,-1,-1,-1,-1,-1,-1,-1,-1,-1,-1,-1,-1,-1,-1,-1,-1,-1,-1,-1,-1,-1,-1,-1,-1,-1,-1,-1,-1,-1,-1,-1,-1,-1,-1,-1,-1,-1,-1,-1,-1,-1,-1,-1,-1,-1],"loss_changes":[7.3196483E0,4.1125236E0,6.655555E-1,6.285131E-1,4.8142605E0,2.8417146E-1,6.686401E-2,2.3593822E0,7.5735366E-1,1.0378046E0,6.862952E-1,4.070279E-2,0E0,9.010597E-2,7.017422E-2,5.641248E-1,4.2346048E-1,4.5005107E-1,2.7592742E-1,3.5846615E-1,8.93651E-1,1.1316848E0,9.338581E-1,3.7897066E-3,4.7120154E-3,2.2678271E-2,1.2707306E-2,8.2471967E-4,4.3474674E-2,2.4969314E-1,2.6249838E-1,1.02472305E-2,1.2880242E-1,5.117453E-1,2.2223109E-1,1.1012654E-1,2.2849333E-1,2.2284776E-1,9.255192E-2,1.137495E-2,6.387763E-1,6.9992423E-1,1.4522195E-1,1.8060374E-1,7.6990235E-1,0E0,2.6802449E-3,2.199509E-3,6.7582726E-4,0E0,3.7417412E-3,6.9531007E-3,2.9870656E-3,1.9152034E-3,0E0,1.8200185E-3,1.4390945E-2,0E0,0E0,0E0,0E0,0E0,0E0,0E0,0E0,0E0,0E0,0E0,0E0,0E0,0E0,0E0,0E0,0E0,0E0,0E0,0E0,0E0,0E0,0E0,0E0,0E0,0E0,0E0,0E0,0E0,0E0,0E0,0E0,0E0,0E0,0E0,0E0,0E0,0E0,0E0,0E0,0E0,0E0,0E0,0E0,0E0,0E0,0E0,0E0,0E0,0E0],"parents":[2147483647,0,0,1,1,2,2,3,3,4,4,5,5,6,6,7,7,8,8,9,9,10,10,11,11,13,13,14,14,15,15,16,16,17,17,18,18,19,19,20,20,21,21,22,22,23,23,24,24,25,25,26,26,27,27,28,28,29,29,30,30,31,31,32,32,33,33,34,34,35,35,36,36,37,37,38,38,39,39,40,40,41,41,42,42,43,43,44,44,46,46,47,47,48,48,50,50,51,51,52,52,53,53,55,55,56,56],"right_children":[2,4,6,8,10,12,14,16,18,20,22,24,-1,26,28,30,32,34,36,38,40,42,44,46,48,50,52,54,56,58,60,62,64,66,68,70,72,74,76,78,80,82,84,86,88,-1,90,92,94,-1,96,98,100,102,-1,104,106,-1,-1,-1,-1,-1,-1,-1,-1,-1,-1,-1,-1,-1,-1,-1,-1,-1,-1,-1,-1,-1,-1,-1,-1,-1,-1,-1,-1,-1,-1,-1,-1,-1,-1,-1,-1,-1,-1,-1,-1,-1,-1,-1,-1,-1,-1,-1,-1,-1,-1],"split_conditions":[1.5152819E0,-1.199538E0,-1.7660801E-1,-1.4328756E0,3.5015693E-1,-1.8428673E-1,1.5914634E-1,-1.661347E0,-1.3044224E0,9.877641E-2,-1.2259517E-1,-5.277198E-1,2.1918041E-3,-1.0196978E-3,1.7456862E-1,-2.0361178E0,-1.582451E0,-1.2952663E0,-1.0196978E-3,5.0257945E-1,-2.5883183E0,-3.7340075E-2,6.7429596E-1,1.5586323E0,-5.2778465E-1,1.5765812E0,1.5885473E0,1.6244454E0,1.5466661E0,3.5015693E-1,1.3611622E0,-1.6256546E0,-1.5813146E0,-1.5721159E0,-1.4471923E0,-3.5600328E-1,1.2280985E0,-1.2330375E0,6.7429596E-1,7.835865E-1,1.5406832E0,-2.482385E-1,-2.0635739E-1,3.7997815E-1,1.017729E0,-1.1167892E-3,1.6064963E0,1.5586323E0,1.5688206E0,-1.4555859E-3,-1.2570195E-2,1.5406832E0,1.6124793E0,1.6124793E0,2.8231891E-3,1.5406832E0,1.5328786E0,1.3120593E-4,-5.1552797E-4,6.226493E-4,-1.1025005E-3,1.8339725E-3,1.1440923E-3,-9.530267E-5,1.0717269E-3,-2.7157801E-5,4.7009237E-4,-5.9304404E-4,-4.082538E-5,4.431755E-4,-5.9709022E-5,9.004992E-4,-1.2218881E-4,-6.5496954E-4,-1.2377692E-4,-1.5648081E-3,2.72787E-3,1.8058053E-3,1.348371E-3,-4.2808877E-4,-9.244674E-6,2.4881447E-4,-4.425211E-4,1.7860435E-3,9.865164E-4,-8.673489E-7,-2.853891E-4,3.1147557E-4,-8.9048945E-6,1.2185213E-3,-2.1961778E-4,1.1438758E-3,-1.2013048E-3,-2.2584486E-3,-2.719131E-3,2.1499014E-3,-2.2925933E-5,-1.4326855E-3,1.9594177E-3,4.2722918E-4,-1.4376958E-4,2.1427681E-3,2.4770797E-4,-1.5671076E-3,4.8834085E-5,1.6534243E-3,1.478026E-3],"split_indices":[4,0,3,0,3,2,2,4,4,0,0,2,0,3,3,4,0,0,3,2,2,4,2,0,3,0,0,0,0,3,2,4,3,4,4,2,3,4,2,4,0,0,0,0,2,0,0,0,4,0,2,0,0,0,0,0,2,0,0,0,0,0,0,0,0,0,0,0,0,0,0,0,0,0,0,0,0,0,0,0,0,0,0,0,0,0,0,0,0,0,0,0,0,0,0,0,0,0,0,0,0,0,0,0,0,0,0],"split_type":[0,0,0,0,0,0,0,0,0,0,0,0,0,0,0,0,0,0,0,0,0,0,0,0,0,0,0,0,0,0,0,0,0,0,0,0,0,0,0,0,0,0,0,0,0,0,0,0,0,0,0,0,0,0,0,0,0,0,0,0,0,0,0,0,0,0,0,0,0,0,0,0,0,0,0,0,0,0,0,0,0,0,0,0,0,0,0,0,0,0,0,0,0,0,0,0,0,0,0,0,0,0,0,0,0,0,0],"sum_hessian":[4.26724E5,4.18984E5,7.74E3,6.3786E4,3.55198E5,2.1E2,7.53E3,2.3361E4,4.0425E4,1.94206E5,1.60992E5,1.64E2,4.6E1,2.69E2,7.261E3,1.7736E4,5.625E3,2.8795E4,1.163E4,9.4142E4,1.00064E5,5.5109E4,1.05883E5,1.5E1,1.49E2,1.05E2,1.64E2,1.33E2,7.128E3,9.67E3,8.066E3,3.18E3,2.445E3,2.0755E4,8.04E3,5.594E3,6.036E3,9.3629E4,5.13E2,6.06E2,9.9458E4,5.2036E4,3.073E3,2.8657E4,7.7226E4,3E0,1.2E1,2E0,1.47E2,4E0,1.01E2,1.2E1,1.52E2,8E0,1.25E2,1.2E1,7.116E3,7.827E3,1.843E3,7.84E3,2.26E2,3.119E3,6.1E1,2.65E2,2.18E3,1.0933E4,9.822E3,2.789E3,5.251E3,4.114E3,1.48E3,5.429E3,6.07E2,2.017E3,9.1612E4,5.01E2,1.2E1,2.49E2,3.57E2,8.9322E4,1.0136E4,4.8074E4,3.962E3,7.55E2,2.318E3,7.585E3,2.1072E4,3.2066E4,4.516E4,7E0,5E0,1E0,1E0,7.5E1,7.2E1,9.9E1,2E0,1E0,1.1E1,2.7E1,1.25E2,6E0,2E0,1E1,2E0,5.492E3,1.624E3],"tree_param":{"num_deleted":"0","num_feature":"5","num_nodes":"107","size_leaf_vector":"1"}},{"base_weights":[-1.8839395E-5,-5.560851E-4,2.8918633E-2,7.343954E-3,-1.7037747E-3,-2.3455555E-2,3.0446863E-2,2.9389039E-3,1.11729065E-2,-4.7872113E-3,2.0907081E-3,-4.3273192E-2,2.0891973E-3,-3.05596E-2,3.055607E-2,4.442796E-3,-8.4588E-3,3.155543E-2,7.3480555E-3,-1.961898E-3,-6.7896037E-3,4.620525E-3,6.0731085E-4,1.1091104E-3,-4.6955224E-2,-1.4542182E-2,-1.8921184E-3,1.8177047E-2,3.0990282E-2,1.4973251E-2,2.489293E-3,-9.427546E-3,1.7489914E-2,3.4731798E-2,2.2727909E-2,8.586442E-3,-7.49776E-3,-2.4060463E-3,8.959719E-3,3.0480249E-2,-7.0099276E-3,3.679467E-3,2.2948766E-2,-4.1674757E-3,2.3778724E-3,-1.5679976E-3,9.13395E-3,-7.46568E-4,-4.7546647E-2,-1.2759035E-3,1.0084317E-3,3.8189594E-2,5.0594877E-3,5.2872594E-2,3.058531E-2,-1.7399444E-4,9.827779E-4,-2.644275E-4,3.4593462E-4,-6.6334054E-5,-5.933906E-4,1.4380643E-3,-1.0165855E-4,-2.2119542E-3,1.739655E-3,1.1456097E-3,-3.6936367E-4,2.1535464E-4,7.4516394E-4,-1.0114528E-3,6.5795175E-5,-9.6908E-5,-5.5299996E-4,4.7962382E-4,-1.9374788E-3,1.7768912E-3,1.2844614E-3,-2.5993475E-4,-5.147072E-4,2.3340918E-4,-4.5804135E-4,1.8167775E-3,9.869778E-4,-4.684454E-6,-2.8149178E-4,3.0282396E-4,-1.1488438E-5,-8.73784E-4,9.972785E-4,1.1152789E-3,-1.1712715E-3,-2.0481055E-3,-2.5190867E-3,-1.7459333E-3,2.0000474E-3,2.0033391E-3,1.20273806E-4,2.0547577E-3,2.737371E-3,1.5662101E-3,1.406795E-3],"categories":[],"categories_nodes":[],"categories_segments":[],"categories_sizes":[],"default_left":[0,0,0,0,0,0,0,0,0,0,0,0,0,0,0,0,0,0,0,0,0,0,0,0,0,0,0,0,0,0,0,0,0,0,0,0,0,0,0,0,0,0,0,0,0,0,0,0,0,0,0,0,0,0,0,0,0,0,0,0,0,0,0,0,0,0,0,0,0,0,0,0,0,0,0,0,0,0,0,0,0,0,0,0,0,0,0,0,0,0,0,0,0,0,0,0,0,0,0,0,0],"id":13,"left_children":[1,3,5,7,9,11,13,15,17,19,21,23,-1,25,27,29,31,33,35,37,39,41,43,45,47,49,-1,51,53,55,57,59,61,63,65,67,69,71,73,75,77,79,81,83,85,-1,87,89,91,-1,-1,93,95,97,99,-1,-1,-1,-1,-1,-1,-1,-1,-1,-1,-1,-1,-1,-1,-1,-1,-1,-1,-1,-1,-1,-1,-1,-1,-1,-1,-1,-1,-1,-1,-1,-1,-1,-1,-1,-1,-1,-1,-1,-1,-1,-1,-1,-1,-1,-1],"loss_changes":[6.631483E0,3.797022E0,6.23024E-1,8.959615E-1,4.278261E0,2.875374E-1,5.12681E-2,4.234868E-1,2.2153163E0,1.1412625E0,6.151811E-1,2.7832985E-2,0E0,1.0828059E-3,3.997612E-2,4.4893095E-1,7.25615E-2,1.2510777E-1,4.4001412E-1,4.0590864E-1,9.6964645E-1,1.04502E0,8.736349E-1,3.9342665E-3,4.255146E-3,2.8005566E-3,0E0,6.753586E-2,6.294012E-2,2.9513538E-1,6.3431704E-1,5.488074E-2,2.2943873E-2,1.7515182E-2,6.7790747E-3,5.970175E-1,2.0682843E-1,3.2554376E-1,9.9087775E-2,1.5903354E-2,6.980958E-1,7.3174286E-1,1.2640429E-1,1.6653106E-1,7.231309E-1,0E0,3.8008802E-3,2.0909072E-3,8.2975626E-4,0E0,0E0,1.4904097E-2,1.4490455E-2,6.427169E-4,1.2068272E-2,0E0,0E0,0E0,0E0,0E0,0E0,0E0,0E0,0E0,0E0,0E0,0E0,0E0,0E0,0E0,0E0,0E0,0E0,0E0,0E0,0E0,0E0,0E0,0E0,0E0,0E0,0E0,0E0,0E0,0E0,0E0,0E0,0E0,0E0,0E0,0E0,0E0,0E0,0E0,0E0,0E0,0E0,0E0,0E0,0E0,0E0],"parents":[2147483647,0,0,1,1,2,2,3,3,4,4,5,5,6,6,7,7,8,8,9,9,10,10,11,11,13,13,14,14,15,15,16,16,17,17,18,18,19,19,20,20,21,21,22,22,23,23,24,24,25,25,27,27,28,28,29,29,30,30,31,31,32,32,33,33,34,34,35,35,36,36,37,37,38,38,39,39,40,40,41,41,42,42,43,43,44,44,46,46,47,47,48,48,51,51,52,52,53,53,54,54],"right_children":[2,4,6,8,10,12,14,16,18,20,22,24,-1,26,28,30,32,34,36,38,40,42,44,46,48,50,-1,52,54,56,58,60,62,64,66,68,70,72,74,76,78,80,82,84,86,-1,88,90,92,-1,-1,94,96,98,100,-1,-1,-1,-1,-1,-1,-1,-1,-1,-1,-1,-1,-1,-1,-1,-1,-1,-1,-1,-1,-1,-1,-1,-1,-1,-1,-1,-1,-1,-1,-1,-1,-1,-1,-1,-1,-1,-1,-1,-1,-1,-1,-1,-1,-1,-1],"split_conditions":[1.5152819E0,-1.2593682E0,-1.7660801E-1,-1.661347E0,3.5015693E-1,-1.8428673E-1,1.5466661E0,-1.3790284E0,-1.5106548E0,-1.6447628E-1,-8.669708E-2,-5.277198E-1,2.0891973E-3,6.7429596E-1,1.5914634E-1,-1.230138E0,1.4036868E0,-1.5899621E0,1.0525101E0,-9.087876E-2,-2.5883183E0,-1.6476131E-3,6.7429596E-1,1.5586323E0,-5.2778465E-1,1.5406832E0,-1.8921184E-3,-1.0196978E-3,1.7456862E-1,-2.0731688E0,-3.5219634E-1,