{"learner":{"attributes":{"best_iteration":"499","best_score":"0.01993631437136738","scikit_learn":"{\"_estimator_type\": \"regressor\"}"},"feature_names":[],"feature_types":[],"gradient_booster":{"model":{"gbtree_model_param":{"num_parallel_tree":"1","num_trees":"500"},"iteration_indptr":[0,1,2,3,4,5,6,7,8,9,10,11,12,13,14,15,16,17,18,19,20,21,22,23,24,25,26,27,28,29,30,31,32,33,34,35,36,37,38,39,40,41,42,43,44,45,46,47,48,49,50,51,52,53,54,55,56,57,58,59,60,61,62,63,64,65,66,67,68,69,70,71,72,73,74,75,76,77,78,79,80,81,82,83,84,85,86,87,88,89,90,91,92,93,94,95,96,97,98,99,100,101,102,103,104,105,106,107,108,109,110,111,112,113,114,115,116,117,118,119,120,121,122,123,124,125,126,127,128,129,130,131,132,133,134,135,136,137,138,139,140,141,142,143,144,145,146,147,148,149,150,151,152,153,154,155,156,157,158,159,160,161,162,163,164,165,166,167,168,169,170,171,172,173,174,175,176,177,178,179,180,181,182,183,184,185,186,187,188,189,190,191,192,193,194,195,196,197,198,199,200,201,202,203,204,205,206,207,208,209,210,211,212,213,214,215,216,217,218,219,220,221,222,223,224,225,226,227,228,229,230,231,232,233,234,235,236,237,238,239,240,241,242,243,244,245,246,247,248,249,250,251,252,253,254,255,256,257,258,259,260,261,262,263,264,265,266,267,268,269,270,271,272,273,274,275,276,277,278,279,280,281,282,283,284,285,286,287,288,289,290,291,292,293,294,295,296,297,298,299,300,301,302,303,304,305,306,307,308,309,310,311,312,313,314,315,316,317,318,319,320,321,322,323,324,325,326,327,328,329,330,331,332,333,334,335,336,337,338,339,340,341,342,343,344,345,346,347,348,349,350,351,352,353,354,355,356,357,358,359,360,361,362,363,364,365,366,367,368,369,370,371,372,373,374,375,376,377,378,379,380,381,382,383,384,385,386,387,388,389,390,391,392,393,394,395,396,397,398,399,400,401,402,403,404,405,406,407,408,409,410,411,412,413,414,415,416,417,418,419,420,421,422,423,424,425,426,427,428,429,430,431,432,433,434,435,436,437,438,439,440,441,442,443,444,445,446,447,448,449,450,451,452,453,454,455,456,457,458,459,460,461,462,463,464,465,466,467,468,469,470,471,472,473,474,475,476,477,478,479,480,481,482,483,484,485,486,487,488,489,490,491,492,493,494,495,496,497,498,499,500],"tree_info":[0,0,0,0,0,0,0,0,0,0,0,0,0,0,0,0,0,0,0,0,0,0,0,0,0,0,0,0,0,0,0,0,0,0,0,0,0,0,0,0,0,0,0,0,0,0,0,0,0,0,0,0,0,0,0,0,0,0,0,0,0,0,0,0,0,0,0,0,0,0,0,0,0,0,0,0,0,0,0,0,0,0,0,0,0,0,0,0,0,0,0,0,0,0,0,0,0,0,0,0,0,0,0,0,0,0,0,0,0,0,0,0,0,0,0,0,0,0,0,0,0,0,0,0,0,0,0,0,0,0,0,0,0,0,0,0,0,0,0,0,0,0,0,0,0,0,0,0,0,0,0,0,0,0,0,0,0,0,0,0,0,0,0,0,0,0,0,0,0,0,0,0,0,0,0,0,0,0,0,0,0,0,0,0,0,0,0,0,0,0,0,0,0,0,0,0,0,0,0,0,0,0,0,0,0,0,0,0,0,0,0,0,0,0,0,0,0,0,0,0,0,0,0,0,0,0,0,0,0,0,0,0,0,0,0,0,0,0,0,0,0,0,0,0,0,0,0,0,0,0,0,0,0,0,0,0,0,0,0,0,0,0,0,0,0,0,0,0,0,0,0,0,0,0,0,0,0,0,0,0,0,0,0,0,0,0,0,0,0,0,0,0,0,0,0,0,0,0,0,0,0,0,0,0,0,0,0,0,0,0,0,0,0,0,0,0,0,0,0,0,0,0,0,0,0,0,0,0,0,0,0,0,0,0,0,0,0,0,0,0,0,0,0,0,0,0,0,0,0,0,0,0,0,0,0,0,0,0,0,0,0,0,0,0,0,0,0,0,0,0,0,0,0,0,0,0,0,0,0,0,0,0,0,0,0,0,0,0,0,0,0,0,0,0,0,0,0,0,0,0,0,0,0,0,0,0,0,0,0,0,0,0,0,0,0,0,0,0,0,0,0,0,0,0,0,0,0,0,0,0,0,0,0,0,0,0,0,0,0,0,0,0,0,0,0,0,0,0,0,0,0,0,0,0,0,0,0,0,0,0,0,0,0,0,0,0,0,0,0,0,0,0,0,0,0,0,0,0,0,0,0,0,0,0,0,0,0,0,0,0,0,0,0,0,0,0,0,0,0,0],"trees":[{"base_weights":[-2.1111743E-4,-2.0294906E-1,1.5628785E-1,-3.2974216E-1,-1.1786931E-1,7.242245E-2,2.4565005E-1,-4.1139954E-1,-2.8098902E-1,-1.7241317E-1,-7.1013026E-2,2.6765643E-2,1.23008534E-1,2.0246127E-1,2.8789002E-1,-4.7253764E-1,-3.7870255E-1,-3.1353348E-1,-2.5290972E-1,-1.986439E-1,-1.4830375E-1,-9.663046E-2,-4.7622237E-2,1.5742838E-3,5.0536238E-2,1.162086E-1,2.2493477E-1,1.7968436E-1,2.2314145E-1,2.717303E-1,3.408266E-1,-5.1365113E-1,-4.508805E-1,-3.9720455E-1,-3.5824576E-1,-3.380914E-1,-2.940016E-1,-2.7286562E-1,-2.3495495E-1,-2.1455014E-1,-1.8355742E-1,-1.6140497E-1,-1.3576952E-1,-1.111324E-1,-8.573702E-2,-5.9068307E-2,-3.448856E-2,-1.1431198E-2,1.36255855E-2,3.7500083E-2,6.2603794E-2,9.6414044E-2,1.3794218E-1,1.8663065E-1,2.2754322E-1,1.6476212E-1,1.9294003E-1,2.0859487E-1,2.391879E-1,2.6021123E-1,2.9258347E-1,3.5602352E-1,3.0925336E-1,-2.6766602E-2,-2.4589067E-2,-2.3247315E-2,-2.1850713E-2,-2.0814665E-2,-1.8996568E-2,-1.8862704E-2,-1.6910693E-2,-1.7797478E-2,-1.6094325E-2,-1.5491066E-2,-1.3920656E-2,-1.44197345E-2,-1.2838366E-2,-1.2404735E-2,-1.1036205E-2,-1.14417365E-2,-1.0080938E-2,-9.7974045E-3,-8.609741E-3,-8.739496E-3,-7.431452E-3,-7.4460306E-3,-6.2406706E-3,-6.2174527E-3,-4.951843E-3,-4.939539E-3,-3.7118865E-3,-3.5658309E-3,-2.3746064E-3,-2.3512251E-3,-1.1350008E-3,-1.2868278E-3,-7.563062E-7,1.658598E-5,1.203672E-3,1.782931E-3,6.593913E-3,2.5077716E-3,3.7573928E-3,4.0009897E-3,5.3758565E-3,6.1474903E-3,7.567901E-3,9.868046E-3,7.602134E-3,1.1339902E-2,1.22471815E-2,8.149869E-3,1.3612637E-2,9.074568E-3,1.0198819E-2,9.692144E-3,1.0806382E-2,1.1586777E-2,1.3361228E-2,1.4174513E-2,1.2638758E-2,1.6102703E-2,1.417211E-2,1.7138485E-2,1.8486818E-2,1.636673E-2,1.4858717E-2],"categories":[],"categories_nodes":[],"categories_segments":[],"categories_sizes":[],"default_left":[0,0,0,0,0,0,0,0,0,0,0,0,0,0,0,0,0,0,0,0,0,0,0,0,0,0,0,0,0,0,0,0,0,0,0,0,0,0,0,0,0,0,0,0,0,0,0,0,0,0,0,0,0,0,0,0,0,0,0,0,0,0,0,0,0,0,0,0,0,0,0,0,0,0,0,0,0,0,0,0,0,0,0,0,0,0,0,0,0,0,0,0,0,0,0,0,0,0,0,0,0,0,0,0,0,0,0,0,0,0,0,0,0,0,0,0,0,0,0,0,0,0,0,0,0,0,0],"id":0,"left_children":[1,3,5,7,9,11,13,15,17,19,21,23,25,27,29,31,33,35,37,39,41,43,45,47,49,51,53,55,57,59,61,63,65,67,69,71,73,75,77,79,81,83,85,87,89,91,93,95,97,99,101,103,105,107,109,111,113,115,117,119,121,123,125,-1,-1,-1,-1,-1,-1,-1,-1,-1,-1,-1,-1,-1,-1,-1,-1,-1,-1,-1,-1,-1,-1,-1,-1,-1,-1,-1,-1,-1,-1,-1,-1,-1,-1,-1,-1,-1,-1,-1,-1,-1,-1,-1,-1,-1,-1,-1,-1,-1,-1,-1,-1,-1,-1,-1,-1,-1,-1,-1,-1,-1,-1,-1,-1],"loss_changes":[7.9650484E4,1.1797574E4,1.0617734E4,1.748207E3,1.6726465E3,1.687988E3,1.2512266E3,3.2800977E2,2.5120898E2,1.9122949E2,2.1094739E2,2.3003235E2,2.4027734E2,1.5970703E2,2.965371E2,5.070215E1,4.034668E1,6.0992188E1,5.283008E1,3.4717773E1,2.5856445E1,2.6534546E1,2.766214E1,2.9231014E1,3.1090454E1,1.398169E2,2.1240234E0,3.1893066E1,4.1441406E1,6.3740234E1,3.8799805E1,9.091309E0,7.105957E0,1.8360352E1,1.9220215E1,1.6211426E1,1.7410156E1,1.7402832E1,1.4477539E1,1.2976074E1,1.0432861E1,1.3149292E1,1.158667E1,1.1509277E1,1.4396362E1,1.3938416E1,1.2663277E1,1.4648994E1,1.3445053E1,1.650798E1,1.602298E1,3.0955322E1,3.1142578E1,4.851303E-1,2.0751953E-1,1.4359375E1,1.0761719E1,1.0319336E1,1.7595703E1,2.9554688E1,2.5373535E1,9.822266E0,5.6589355E0,0E0,0E0,0E0,0E0,0E0,0E0,0E0,0E0,0E0,0E0,0E0,0E0,0E0,0E0,0E0,0E0,0E0,0E0,0E0,0E0,0E0,0E0,0E0,0E0,0E0,0E0,0E0,0E0,0E0,0E0,0E0,0E0,0E0,0E0,0E0,0E0,0E0,0E0,0E0,0E0,0E0,0E0,0E0,0E0,0E0,0E0,0E0,0E0,0E0,0E0,0E0,0E0,0E0,0E0,0E0,0E0,0E0,0E0,0E0,0E0,0E0,0E0,0E0,0E0],"parents":[2147483647,0,0,1,1,2,2,3,3,4,4,5,5,6,6,7,7,8,8,9,9,10,10,11,11,12,12,13,13,14,14,15,15,16,16,17,17,18,18,19,19,20,20,21,21,22,22,23,23,24,24,25,25,26,26,27,27,28,28,29,29,30,30,31,31,32,32,33,33,34,34,35,35,36,36,37,37,38,38,39,39,40,40,41,41,42,42,43,43,44,44,45,45,46,46,47,47,48,48,49,49,50,50,51,51,52,52,53,53,54,54,55,55,56,56,57,57,58,58,59,59,60,60,61,61,62,62],"right_children":[2,4,6,8,10,12,14,16,18,20,22,24,26,28,30,32,34,36,38,40,42,44,46,48,50,52,54,56,58,60,62,64,66,68,70,72,74,76,78,80,82,84,86,88,90,92,94,96,98,100,102,104,106,108,110,112,114,116,118,120,122,124,126,-1,-1,-1,-1,-1,-1,-1,-1,-1,-1,-1,-1,-1,-1,-1,-1,-1,-1,-1,-1,-1,-1,-1,-1,-1,-1,-1,-1,-1,-1,-1,-1,-1,-1,-1,-1,-1,-1,-1,-1,-1,-1,-1,-1,-1,-1,-1,-1,-1,-1,-1,-1,-1,-1,-1,-1,-1,-1,-1,-1,-1,-1,-1,-1],"split_conditions":[-2.2541174E-1,-1.1432872E0,7.725469E-1,-1.3896967E0,-7.7367294E-1,3.0436876E-1,1.265366E0,-1.5437027E0,-1.2788125E0,-9.892813E-1,-5.026225E-1,3.331827E-2,2.677247E0,1.0374371E0,2.0629358E0,-1.7161894E0,2.7072337E-1,-5.3520757E-1,-5.3520757E-1,-5.3520757E-1,-8.9071745E-1,3.233896E-2,-3.486165E-1,2.0867842E-1,2.0867842E-1,5.4461807E-1,5.0765663E-1,2.0867842E-1,3.850179E-1,1.5364164E0,2.1756537E0,-1.8024328E0,-1.6114653E0,-1.4512992E0,-1.4574593E0,-1.3342546E0,-1.3342546E0,-1.2110499E0,-1.2110499E0,-1.0755246E0,-1.0755246E0,-9.1844666E-1,3.233896E-2,-6.504682E-1,-6.504682E-1,2.0867842E-1,2.0867842E-1,-5.3520757E-1,-1.0836721E-1,2.2320125E0,1.6884351E-1,1.3451061E-2,2.0867842E-1,-3.2033998E-1,6.6782284E-1,2.677247E0,-9.1844666E-1,-1.1815211E-1,5.0179523E-1,3.3835456E-1,3.3835456E-1,1.653461E0,2.1925607E0,-2.6766602E-2,-2.4589067E-2,-2.3247315E-2,-2.1850713E-2,-2.0814665E-2,-1.8996568E-2,-1.8862704E-2,-1.6910693E-2,-1.7797478E-2,-1.6094325E-2,-1.5491066E-2,-1.3920656E-2,-1.44197345E-2,-1.2838366E-2,-1.2404735E-2,-1.1036205E-2,-1.14417365E-2,-1.0080938E-2,-9.7974045E-3,-8.609741E-3,-8.739496E-3,-7.431452E-3,-7.4460306E-3,-6.2406706E-3,-6.2174527E-3,-4.951843E-3,-4.939539E-3,-3.7118865E-3,-3.5658309E-3,-2.3746064E-3,-2.3512251E-3,-1.1350008E-3,-1.2868278E-3,-7.563062E-7,1.658598E-5,1.203672E-3,1.782931E-3,6.593913E-3,2.5077716E-3,3.7573928E-3,4.0009897E-3,5.3758565E-3,6.1474903E-3,7.567901E-3,9.868046E-3,7.602134E-3,1.1339902E-2,1.22471815E-2,8.149869E-3,1.3612637E-2,9.074568E-3,1.0198819E-2,9.692144E-3,1.0806382E-2,1.1586777E-2,1.3361228E-2,1.4174513E-2,1.2638758E-2,1.6102703E-2,1.417211E-2,1.7138485E-2,1.8486818E-2,1.636673E-2,1.4858717E-2],"split_indices":[0,0,0,0,0,0,0,0,0,0,0,0,1,0,1,0,1,1,1,1,0,2,0,2,2,0,0,2,2,0,1,0,0,0,0,0,0,0,0,0,0,1,2,0,0,2,2,1,0,1,0,3,2,2,0,1,1,1,1,1,1,0,1,0,0,0,0,0,0,0,0,0,0,0,0,0,0,0,0,0,0,0,0,0,0,0,0,0,0,0,0,0,0,0,0,0,0,0,0,0,0,0,0,0,0,0,0,0,0,0,0,0,0,0,0,0,0,0,0,0,0,0,0,0,0,0,0],"split_type":[0,0,0,0,0,0,0,0,0,0,0,0,0,0,0,0,0,0,0,0,0,0,0,0,0,0,0,0,0,0,0,0,0,0,0,0,0,0,0,0,0,0,0,0,0,0,0,0,0,0,0,0,0,0,0,0,0,0,0,0,0,0,0,0,0,0,0,0,0,0,0,0,0,0,0,0,0,0,0,0,0,0,0,0,0,0,0,0,0,0,0,0,0,0,0,0,0,0,0,0,0,0,0,0,0,0,0,0,0,0,0,0,0,0,0,0,0,0,0,0,0,0,0,0,0,0,0],"sum_hessian":[2.510392E6,1.093634E6,1.416758E6,4.39159E5,6.54475E5,7.30858E5,6.859E5,1.64174E5,2.74985E5,3.02427E5,3.52048E5,3.84146E5,3.46712E5,3.39144E5,3.46756E5,5.7202E4,1.06972E5,1.27361E5,1.47624E5,1.44838E5,1.57589E5,1.68025E5,1.84023E5,1.865E5,1.97646E5,3.2503E5,2.1682E4,1.61395E5,1.77749E5,2.65664E5,8.1092E4,1.9728E4,3.7474E4,5.616E4,5.0812E4,5.6414E4,7.0947E4,6.9909E4,7.7715E4,7.0497E4,7.4341E4,7.7046E4,8.0543E4,7.2071E4,9.5954E4,9.8327E4,8.5696E4,8.9699E4,9.6801E4,9.5012E4,1.02634E5,1.70106E5,1.54924E5,1.387E3,2.0295E4,7.5931E4,8.5464E4,9.3239E4,8.451E4,1.71141E5,9.4523E4,5.4736E4,2.6356E4,9.895E3,9.833E3,1.8587E4,1.8887E4,2.6667E4,2.9493E4,2.6063E4,2.4749E4,2.6828E4,2.9586E4,3.5203E4,3.5744E4,3.5575E4,3.4334E4,4.0398E4,3.7317E4,3.3488E4,3.7009E4,3.5554E4,3.8787E4,3.762E4,3.9426E4,3.6599E4,4.3944E4,3.4435E4,3.7636E4,4.4936E4,5.1018E4,4.7774E4,5.0553E4,4.153E4,4.4166E4,3.9811E4,4.9888E4,4.2599E4,5.4202E4,9.3195E4,1.817E3,5.1516E4,5.1118E4,6.869E4,1.01416E5,7.3168E4,8.1756E4,1.055E3,3.32E2,1.9475E4,8.2E2,7.4707E4,1.224E3,4.1957E4,4.3507E4,3.1526E4,6.1713E4,6.6771E4,1.7739E4,4.1424E4,1.29717E5,2.237E4,7.2153E4,2.7847E4,2.6889E4,1.0545E4,1.5811E4],"tree_param":{"num_deleted":"0","num_feature":"5","num_nodes":"127","size_leaf_vector":"1"}},{"base_weights":[-4.1366184E-5,-1.9385868E-1,1.475409E-1,-3.1086585E-1,-1.11441426E-1,6.785268E-2,2.3339188E-1,-3.861213E-1,-2.6212874E-1,-1.6018067E-1,-6.665228E-2,2.190979E-2,1.1425071E-1,1.9324024E-1,2.7445534E-1,-4.4896102E-1,-3.5625023E-1,-2.9473218E-1,-2.3837493E-1,-1.8571219E-1,-1.3762331E-1,-8.837477E-2,-4.4621762E-2,-3.42195E-4,4.460075E-2,1.0797728E-1,2.132718E-1,1.721095E-1,2.1427102E-1,2.589173E-1,3.238033E-1,-4.8803174E-1,-4.2852867E-1,-3.8159928E-1,-3.4273186E-1,-3.1776285E-1,-2.7616835E-1,-2.5715977E-1,-2.2141972E-1,-2.0063432E-1,-1.7160295E-1,-1.4993301E-1,-1.2470724E-1,-1.0211824E-1,-7.810805E-2,-6.4056695E-2,-3.7763935E-2,-1.6427742E-2,8.422631E-3,3.2230586E-2,5.6107987E-2,8.669298E-2,1.284999E-1,1.7310244E-1,2.1610102E-1,1.5780711E-1,1.848053E-1,2.0040393E-1,2.2954224E-1,2.4535497E-1,2.746773E-1,3.3822066E-1,2.9381457E-1,-2.5435043E-2,-2.3363927E-2,-2.2644058E-2,-2.1065379E-2,-2.0044247E-2,-1.8231673E-2,-1.8148283E-2,-1.6123112E-2,-1.6579738E-2,-1.5152332E-2,-1.4118976E-2,-1.2220881E-2,-1.3699563E-2,-1.2097796E-2,-1.1772947E-2,-1.0399433E-2,-1.0634038E-2,-9.374748E-3,-9.108501E-3,-7.995608E-3,-8.125744E-3,-6.899421E-3,-6.8303845E-3,-5.673123E-3,-5.752399E-3,-4.5371577E-3,-4.5096567E-3,-3.3754334E-3,-3.8397037E-3,-2.6091372E-3,-2.4689834E-3,-1.4168111E-3,-1.4524282E-3,-2.425354E-4,-2.8001564E-4,8.8873383E-4,8.8586455E-4,2.1933126E-3,2.247732E-3,3.3600058E-3,3.6555827E-3,4.952007E-3,5.720373E-3,7.058225E-3,9.2090815E-3,7.1262154E-3,1.0767462E-2,1.156717E-2,7.8096366E-3,1.2969504E-2,8.731962E-3,9.874443E-3,9.286801E-3,1.0350471E-2,1.1086155E-2,1.2855633E-2,1.34259015E-2,1.19337505E-2,1.4608084E-2,1.3038679E-2,1.6280858E-2,1.7562022E-2,1.5537977E-2,1.4119751E-2],"categories":[],"categories_nodes":[],"categories_segments":[],"categories_sizes":[],"default_left":[0,0,0,0,0,0,0,0,0,0,0,0,0,0,0,0,0,0,0,0,0,0,0,0,0,0,0,0,0,0,0,0,0,0,0,0,0,0,0,0,0,0,0,0,0,0,0,0,0,0,0,0,0,0,0,0,0,0,0,0,0,0,0,0,0,0,0,0,0,0,0,0,0,0,0,0,0,0,0,0,0,0,0,0,0,0,0,0,0,0,0,0,0,0,0,0,0,0,0,0,0,0,0,0,0,0,0,0,0,0,0,0,0,0,0,0,0,0,0,0,0,0,0,0,0,0,0],"id":1,"left_children":[1,3,5,7,9,11,13,15,17,19,21,23,25,27,29,31,33,35,37,39,41,43,45,47,49,51,53,55,57,59,61,63,65,67,69,71,73,75,77,79,81,83,85,87,89,91,93,95,97,99,101,103,105,107,109,111,113,115,117,119,121,123,125,-1,-1,-1,-1,-1,-1,-1,-1,-1,-1,-1,-1,-1,-1,-1,-1,-1,-1,-1,-1,-1,-1,-1,-1,-1,-1,-1,-1,-1,-1,-1,-1,-1,-1,-1,-1,-1,-1,-1,-1,-1,-1,-1,-1,-1,-1,-1,-1,-1,-1,-1,-1,-1,-1,-1,-1,-1,-1,-1,-1,-1,-1,-1,-1],"loss_changes":[7.1778234E4,1.046084E4,9.746176E3,1.644168E3,1.3893799E3,1.5749187E3,1.1306484E3,3.3060547E2,2.106582E2,1.7550977E2,1.587207E2,1.8744312E2,2.283252E2,1.5405566E2,2.5988086E2,4.511133E1,4.079785E1,4.894336E1,5.008008E1,3.006543E1,2.5710205E1,2.3556274E1,2.194519E1,2.6425478E1,2.6162048E1,1.5099023E2,2.451477E0,3.1378418E1,3.6754395E1,5.5046875E1,3.5000977E1,8.121094E0,6.3657227E0,1.3443848E1,3.1835938E1,1.0316406E1,1.2455078E1,1.9042969E1,1.5553711E1,1.0956787E1,9.050049E0,1.2429077E1,1.0552612E1,1.0491882E1,1.223938E1,6.4917145E0,1.3328461E1,9.659012E0,1.5910917E1,1.4958389E1,1.1777313E1,2.8449951E1,3.1394287E1,4.6362686E-1,1.8457031E-1,1.3299316E1,1.1779541E1,8.786621E0,1.777002E1,2.1381836E1,2.891504E1,8.880859E0,5.01416E0,0E0,0E0,0E0,0E0,0E0,0E0,0E0,0E0,0E0,0E0,0E0,0E0,0E0,0E0,0E0,0E0,0E0,0E0,0E0,0E0,0E0,0E0,0E0,0E0,0E0,0E0,0E0,0E0,0E0,0E0,0E0,0E0,0E0,0E0,0E0,0E0,0E0,0E0,0E0,0E0,0E0,0E0,0E0,0E0,0E0,0E0,0E0,0E0,0E0,0E0,0E0,0E0,0E0,0E0,0E0,0E0,0E0,0E0,0E0,0E0,0E0,0E0,0E0,0E0],"parents":[2147483647,0,0,1,1,2,2,3,3,4,4,5,5,6,6,7,7,8,8,9,9,10,10,11,11,12,12,13,13,14,14,15,15,16,16,17,17,18,18,19,19,20,20,21,21,22,22,23,23,24,24,25,25,26,26,27,27,28,28,29,29,30,30,31,31,32,32,33,33,34,34,35,35,36,36,37,37,38,38,39,39,40,40,41,41,42,42,43,43,44,44,45,45,46,46,47,47,48,48,49,49,50,50,51,51,52,52,53,53,54,54,55,55,56,56,57,57,58,58,59,59,60,60,61,61,62,62],"right_children":[2,4,6,8,10,12,14,16,18,20,22,24,26,28,30,32,34,36,38,40,42,44,46,48,50,52,54,56,58,60,62,64,66,68,70,72,74,76,78,80,82,84,86,88,90,92,94,96,98,100,102,104,106,108,110,112,114,116,118,120,122,124,126,-1,-1,-1,-1,-1,-1,-1,-1,-1,-1,-1,-1,-1,-1,-1,-1,-1,-1,-1,-1,-1,-1,-1,-1,-1,-1,-1,-1,-1,-1,-1,-1,-1,-1,-1,-1,-1,-1,-1,-1,-1,-1,-1,-1,-1,-1,-1,-1,-1,-1,-1,-1,-1,-1,-1,-1,-1,-1,-1,-1,-1,-1,-1,-1],"split_conditions":[-2.3773222E-1,-1.1309668E0,7.725469E-1,-1.3835366E0,-7.551922E-1,2.7356756E-1,1.2776864E0,-1.5437027E0,-1.2788125E0,-9.769608E-1,-4.8414174E-1,2.0997794E-2,2.677247E0,1.0559179E0,2.0629358E0,-1.7161894E0,-5.3520757E-1,-5.3520757E-1,-5.3520757E-1,-5.3520757E-1,-8.722367E-1,3.233896E-2,-5.21672E-1,-1.649233E-1,2.0867842E-1,5.1381683E-1,4.9533615E-1,2.0867842E-1,3.850179E-1,1.499455E0,2.1756537E0,-1.8024328E0,-1.6607473E0,-1.4389787E0,-1.4512992E0,-1.3219341E0,1.3528138E0,-1.2110499E0,-1.2110499E0,-1.0570439E0,-1.0570439E0,-9.1844666E-1,-9.1844666E-1,-7.0992005E-1,-6.3198745E-1,-4.11217E-1,-3.7325746E-1,-4.11217E-1,-1.3300817E-1,-7.0992005E-1,1.503628E-1,2.0867842E-1,2.0867842E-1,-3.2033998E-1,6.493421E-1,2.677247E0,9.2655283E-1,-1.1815211E-1,5.0179523E-1,3.3271867E-1,4.3416575E-1,1.653461E0,2.1925607E0,-2.5435043E-2,-2.3363927E-2,-2.2644058E-2,-2.1065379E-2,-2.0044247E-2,-1.8231673E-2,-1.8148283E-2,-1.6123112E-2,-1.6579738E-2,-1.5152332E-2,-1.4118976E-2,-1.2220881E-2,-1.3699563E-2,-1.2097796E-2,-1.1772947E-2,-1.0399433E-2,-1.0634038E-2,-9.374748E-3,-9.108501E-3,-7.995608E-3,-8.125744E-3,-6.899421E-3,-6.8303845E-3,-5.673123E-3,-5.752399E-3,-4.5371577E-3,-4.5096567E-3,-3.3754334E-3,-3.8397037E-3,-2.6091372E-3,-2.4689834E-3,-1.4168111E-3,-1.4524282E-3,-2.425354E-4,-2.8001564E-4,8.8873383E-4,8.8586455E-4,2.1933126E-3,2.247732E-3,3.3600058E-3,3.6555827E-3,4.952007E-3,5.720373E-3,7.058225E-3,9.2090815E-3,7.1262154E-3,1.0767462E-2,1.156717E-2,7.8096366E-3,1.2969504E-2,8.731962E-3,9.874443E-3,9.286801E-3,1.0350471E-2,1.1086155E-2,1.2855633E-2,1.34259015E-2,1.19337505E-2,1.4608084E-2,1.3038679E-2,1.6280858E-2,1.7562022E-2,1.5537977E-2,1.4119751E-2],"split_indices":[0,0,0,0,0,0,0,0,0,0,0,0,1,0,1,0,1,1,1,1,0,2,3,3,2,0,0,2,2,0,1,0,0,0,0,0,1,0,0,0,0,1,1,1,0,1,0,1,0,1,0,2,2,2,0,1,0,1,1,1,1,0,1,0,0,0,0,0,0,0,0,0,0,0,0,0,0,0,0,0,0,0,0,0,0,0,0,0,0,0,0,0,0,0,0,0,0,0,0,0,0,0,0,0,0,0,0,0,0,0,0,0,0,0,0,0,0,0,0,0,0,0,0,0,0,0,0],"split_type":[0,0,0,0,0,0,0,0,0,0,0,0,0,0,0,0,0,0,0,0,0,0,0,0,0,0,0,0,0,0,0,0,0,0,0,0,0,0,0,0,0,0,0,0,0,0,0,0,0,0,0,0,0,0,0,0,0,0,0,0,0,0,0,0,0,0,0,0,0,0,0,0,0,0,0,0,0,0,0,0,0,0,0,0,0,0,0,0,0,0,0,0,0,0,0,0,0,0,0,0,0,0,0,0,0,0,0,0,0,0,0,0,0,0,0,0,0,0,0,0,0,0,0,0,0,0,0],"sum_hessian":[2.509376E6,1.084768E6,1.424608E6,4.48307E5,6.36461E5,7.38823E5,6.85785E5,1.76211E5,2.72096E5,3.04789E5,3.31672E5,3.71233E5,3.6759E5,3.46745E5,3.3904E5,5.677E4,1.19441E5,1.1468E5,1.57416E5,1.42966E5,1.61823E5,1.67002E5,1.6467E5,1.8743E5,1.83803E5,3.45691E5,2.1899E4,1.72966E5,1.73779E5,2.57856E5,8.1184E4,1.9486E4,3.7284E4,4.1533E4,7.7908E4,5.1175E4,6.3505E4,7.4672E4,8.2744E4,6.9475E4,7.3491E4,8.2851E4,7.8972E4,7.1406E4,9.5596E4,4.2948E4,1.21722E5,6.6107E4,1.21323E5,8.8582E4,9.5221E4,1.69699E5,1.75992E5,1.445E3,2.0454E4,8.1343E4,9.1623E4,9.1084E4,8.2695E4,1.386E5,1.19256E5,5.4819E4,2.6365E4,9.751E3,9.735E3,8.513E3,2.8771E4,1.9427E4,2.2106E4,3.898E4,3.8928E4,2.6369E4,2.4806E4,5.3108E4,1.0397E4,3.5431E4,3.9241E4,4.0448E4,4.2296E4,3.6237E4,3.3238E4,3.8593E4,3.4898E4,4.0343E4,4.2508E4,3.8362E4,4.061E4,3.3415E4,3.7991E4,4.4664E4,5.0932E4,2.0718E4,2.223E4,5.4531E4,6.7191E4,3.1627E4,3.448E4,4.854E4,7.2783E4,3.9418E4,4.9164E4,4.7482E4,4.7739E4,8.0814E4,8.8885E4,8.3305E4,9.2687E4,1.057E3,3.88E2,1.9507E4,9.47E2,8.0073E4,1.27E3,5.0867E4,4.0756E4,2.8291E4,6.2793E4,6.4431E4,1.8264E4,3.1015E4,1.07585E5,5.2817E4,6.6439E4,2.7868E4,2.6951E4,1.0604E4,1.5761E4],"tree_param":{"num_deleted":"0","num_feature":"5","num_nodes":"127","size_leaf_vector":"1"}},{"base_weights":[-9.020558E-5,-1.8374473E-1,1.4293087E-1,-3.031241E-1,-1.0712977E-1,6.1935678E-2,2.2378612E-1,-3.8363636E-1,-2.585499E-1,-1.5627883E-1,-6.426774E-2,2.2154938E-2,1.0334871E-1,1.876709E-1,2.6896092E-1,-4.433703E-1,-3.5727638E-1,-2.8975493E-1,-2.3217282E-1,-1.7994426E-1,-1.331365E-1,-8.78756E-2,-4.232111E-2,1.0126384E-3,4.285684E-2,8.267157E-2,1.2249262E-1,1.589015E-1,2.0203686E-1,2.5533983E-1,3.0749822E-1,-4.7480303E-1,-4.2146504E-1,-3.7798032E-1,-3.3823267E-1,-3.0584946E-1,-2.7680123E-1,-2.4694224E-1,-2.1888202E-1,-1.9265668E-1,-1.6808462E-1,-1.4556165E-1,-1.2291369E-1,-1.00375466E-1,-7.758584E-2,-5.3013E-2,-3.0141639E-2,-9.46682E-3,1.1361494E-2,3.266744E-2,5.3083878E-2,7.390652E-2,9.3209065E-2,1.11992E-1,1.3311794E-1,1.7833726E-1,1.5480019E-1,1.919806E-1,2.1556942E-1,2.406931E-1,2.674873E-1,2.9220223E-1,3.3423015E-1,-2.4691176E-2,-2.2786561E-2,-2.1767067E-2,-2.0700345E-2,-1.956441E-2,-1.8430395E-2,-1.7378021E-2,-1.6510272E-2,-1.5702806E-2,-1.4951862E-2,-1.4209109E-2,-1.3411209E-2,-1.2615236E-2,-1.1924467E-2,-1.1301657E-2,-1.0602546E-2,-9.9007925E-3,-9.287112E-3,-8.768792E-3,-8.144714E-3,-6.9104168E-3,-7.4827843E-3,-6.408468E-3,-5.80503E-3,-5.284915E-3,-4.756802E-3,-4.1421554E-3,-3.5368402E-3,-2.0404635E-3,-2.8536387E-3,-8.776773E-4,-1.77244E-3,2.8450842E-4,-7.084202E-4,1.249561E-3,3.143521E-4,2.3683526E-3,1.3738156E-3,3.4493525E-3,2.4305522E-3,4.514754E-3,3.467535E-3,5.6476775E-3,4.4584693E-3,6.540879E-3,5.3892746E-3,7.726056E-3,6.4497567E-3,8.426183E-3,9.4860075E-3,7.36676E-3,8.179373E-3,1.043698E-2,9.315172E-3,1.1940948E-2,1.0064024E-2,1.2948969E-2,1.1062978E-2,1.5000427E-2,1.3073017E-2,1.5174401E-2,1.3143006E-2,1.4948459E-2,1.6799523E-2],"categories":[],"categories_nodes":[],"categories_segments":[],"categories_sizes":[],"default_left":[0,0,0,0,0,0,0,0,0,0,0,0,0,0,0,0,0,0,0,0,0,0,0,0,0,0,0,0,0,0,0,0,0,0,0,0,0,0,0,0,0,0,0,0,0,0,0,0,0,0,0,0,0,0,0,0,0,0,0,0,0,0,0,0,0,0,0,0,0,0,0,0,0,0,0,0,0,0,0,0,0,0,0,0,0,0,0,0,0,0,0,0,0,0,0,0,0,0,0,0,0,0,0,0,0,0,0,0,0,0,0,0,0,0,0,0,0,0,0,0,0,0,0,0,0,0,0],"id":2,"left_children":[1,3,5,7,9,11,13,15,17,19,21,23,25,27,29,31,33,35,37,39,41,43,45,47,49,51,53,55,57,59,61,63,65,67,69,71,73,75,77,79,81,83,85,87,89,91,93,95,97,99,101,103,105,107,109,111,113,115,117,119,121,123,125,-1,-1,-1,-1,-1,-1,-1,-1,-1,-1,-1,-1,-1,-1,-1,-1,-1,-1,-1,-1,-1,-1,-1,-1,-1,-1,-1,-1,-1,-1,-1,-1,-1,-1,-1,-1,-1,-1,-1,-1,-1,-1,-1,-1,-1,-1,-1,-1,-1,-1,-1,-1,-1,-1,-1,-1,-1,-1,-1,-1,-1,-1,-1,-1],"loss_changes":[6.5908E4,1.0047578E4,9.238219E3,1.5410156E3,1.4095854E3,1.1609822E3,1.1516836E3,2.4078906E2,2.2743945E2,1.7068701E2,1.8518225E2,1.5732393E2,1.3666455E2,1.6210938E2,1.6455273E2,3.205664E1,4.173633E1,2.6311523E1,2.9350098E1,2.3201172E1,2E1,2.2139893E1,2.4119446E1,1.9286058E1,1.8923767E1,1.5324585E1,1.9988525E1,1.0387695E1,3.556543E1,4.1164062E1,3.3390137E1,6.751465E0,2.6777344E0,6.2001953E0,4.0273438E0,3.0620117E0,4.3657227E0,3.1552734E0,3.803955E0,2.7192383E0,2.9890137E0,2.1206055E0,3.0812988E0,2.158142E0,3.3950806E0,4.884613E0,5.784477E0,6.2967057E0,6.1881666E0,6.940941E0,6.443939E0,6.7599792E0,6.001709E0,7.126953E0,7.8430176E0,2.51062E0,7.054199E0,1.4243652E1,3.700586E1,3.728076E1,2.4748047E1,1.7172852E1,1.7492676E0,0E0,0E0,0E0,0E0,0E0,0E0,0E0,0E0,0E0,0E0,0E0,0E0,0E0,0E0,0E0,0E0,0E0,0E0,0E0,0E0,0E0,0E0,0E0,0E0,0E0,0E0,0E0,0E0,0E0,0E0,0E0,0E0,0E0,0E0,0E0,0E0,0E0,0E0,0E0,0E0,0E0,0E0,0E0,0E0,0E0,0E0,0E0,0E0,0E0,0E0,0E0,0E0,0E0,0E0,0E0,0E0,0E0,0E0,0E0,0E0,0E0,0E0,0E0,0E0],"parents":[2147483647,0,0,1,1,2,2,3,3,4,4,5,5,6,6,7,7,8,8,9,9,10,10,11,11,12,12,13,13,14,14,15,15,16,16,17,17,18,18,19,19,20,20,21,21,22,22,23,23,24,24,25,25,26,26,27,27,28,28,29,29,30,30,31,31,32,32,33,33,34,34,35,35,36,36,37,37,38,38,39,39,40,40,41,41,42,42,43,43,44,44,45,45,46,46,47,47,48,48,49,49,50,50,51,51,52,52,53,53,54,54,55,55,56,56,57,57,58,58,59,59,60,60,61,61,62,62],"right_children":[2,4,6,8,10,12,14,16,18,20,22,24,26,28,30,32,34,36,38,40,42,44,46,48,50,52,54,56,58,60,62,64,66,68,70,72,74,76,78,80,82,84,86,88,90,92,94,96,98,100,102,104,106,108,110,112,114,116,118,120,122,124,126,-1,-1,-1,-1,-1,-1,-1,-1,-1,-1,-1,-1,-1,-1,-1,-1,-1,-1,-1,-1,-1,-1,-1,-1,-1,-1,-1,-1,-1,-1,-1,-1,-1,-1,-1,-1,-1,-1,-1,-1,-1,-1,-1,-1,-1,-1,-1,-1,-1,-1,-1,-1,-1,-1,-1,-1,-1,-1,-1,-1,-1,-1,-1,-1],"split_conditions":[-9.552348E-2,-1.0628002E0,7.622502E-1,-1.6650668E0,-5.700366E-1,3.4248862E-1,1.2185128E0,-2.0848284E0,-1.3548082E0,-8.072931E-1,-3.3278003E-1,1.2348257E-1,5.432441E-1,9.2650473E-1,2.0629358E0,-2.3038344E0,-1.8475718E0,-1.5190628E0,-1.2088042E0,-9.350466E-1,-6.977901E-1,-4.6053356E-1,-2.0502649E-1,1.3979549E-2,2.3298559E-1,4.5199165E-1,6.5274715E-1,7.479059E-1,1.0907593E0,1.3462663E0,1.5287714E0,-2.431588E0,-2.2125819E0,-1.9753253E0,-1.7563193E0,-1.5920647E0,-1.4278102E0,-1.2635556E0,-1.1358021E0,-9.897981E-1,-8.8029516E-1,-9.769608E-1,-6.247881E-1,-5.152851E-1,-3.8753152E-1,-4.8414174E-1,-3.2397553E-1,-2.2541174E-1,-8.372626E-2,3.331827E-2,1.3804232E-1,2.6740733E-1,3.4133017E-1,4.6453494E-1,5.7541925E-1,8.352522E-1,8.535027E-1,9.2655283E-1,3.5526165E-1,4.3416575E-1,1.4316924E0,2.1925607E0,1.3451061E-2,-2.4691176E-2,-2.2786561E-2,-2.1767067E-2,-2.0700345E-2,-1.956441E-2,-1.8430395E-2,-1.7378021E-2,-1.6510272E-2,-1.5702806E-2,-1.4951862E-2,-1.4209109E-2,-1.3411209E-2,-1.2615236E-2,-1.1924467E-2,-1.1301657E-2,-1.0602546E-2,-9.9007925E-3,-9.287112E-3,-8.768792E-3,-8.144714E-3,-6.9104168E-3,-7.4827843E-3,-6.408468E-3,-5.80503E-3,-5.284915E-3,-4.756802E-3,-4.1421554E-3,-3.5368402E-3,-2.0404635E-3,-2.8536387E-3,-8.776773E-4,-1.77244E-3,2.8450842E-4,-7.084202E-4,1.249561E-3,3.143521E-4,2.3683526E-3,1.3738156E-3,3.4493525E-3,2.4305522E-3,4.514754E-3,3.467535E-3,5.6476775E-3,4.4584693E-3,6.540879E-3,5.3892746E-3,7.726056E-3,6.4497567E-3,8.426183E-3,9.4860075E-3,7.36676E-3,8.179373E-3,1.043698E-2,9.315172E-3,1.1940948E-2,1.0064024E-2,1.2948969E-2,1.1062978E-2,1.5000427E-2,1.3073017E-2,1.5174401E-2,1.3143006E-2,1.4948459E-2,1.6799523E-2],"split_indices":[4,4,4,4,4,4,4,4,4,4,4,4,4,4,1,4,4,4,4,4,4,4,4,4,4,4,4,0,4,4,4,4,4,4,4,4,4,4,4,4,4,0,4,4,4,0,0,0,0,0,0,0,0,0,0,4,4,0,1,1,0,1,3,0,0,0,0,0,0,0,0,0,0,0,0,0,0,0,0,0,0,0,0,0,0,0,0,0,0,0,0,0,0,0,0,0,0,0,0,0,0,0,0,0,0,0,0,0,0,0,0,0,0,0,0,0,0,0,0,0,0,0,0,0,0,0,0],"split_type":[0,0,0,0,0,0,0,0,0,0,0,0,0,0,0,0,0,0,0,0,0,0,0,0,0,0,0,0,0,0,0,0,0,0,0,0,0,0,0,0,0,0,0,0,0,0,0,0,0,0,0,0,0,0,0,0,0,0,0,0,0,0,0,0,0,0,0,0,0,0,0,0,0,0,0,0,0,0,0,0,0,0,0,0,0,0,0,0,0,0,0,0,0,0,0,0,0,0,0,0,0,0,0,0,0,0,0,0,0,0,0,0,0,0,0,0,0,0,0,0,0,0,0,0,0,0,0],"sum_hessian":[2.509205E6,1.098549E6,1.410656E6,4.29426E5,6.69123E5,7.04719E5,7.05937E5,1.53022E5,2.76404E5,3.117E5,3.57423E5,3.59444E5,3.45275E5,3.92309E5,3.13628E5,4.6847E4,1.06175E5,1.2661E5,1.49794E5,1.54105E5,1.57595E5,1.72193E5,1.8523E5,1.77831E5,1.81613E5,1.65993E5,1.79282E5,1.3066E5,2.61649E5,2.3173E5,8.1898E4,1.9231E4,2.7616E4,5.0861E4,5.5314E4,5.645E4,7.016E4,7.0942E4,7.8852E4,7.4371E4,7.9734E4,7.1129E4,8.6466E4,7.7743E4,9.445E4,9.8637E4,8.6593E4,8.8358E4,8.9473E4,9.0976E4,9.0637E4,9.0622E4,7.5371E4,9.0176E4,8.9106E4,2.276E4,1.079E5,1.50113E5,1.11536E5,1.05067E5,1.26663E5,5.2099E4,2.9799E4,9.616E3,9.615E3,9.634E3,1.7982E4,2.1001E4,2.986E4,2.5565E4,2.9749E4,2.5584E4,3.0866E4,3.7692E4,3.2468E4,4.3388E4,2.7554E4,3.8508E4,4.0344E4,4.1882E4,3.2489E4,3.3143E4,4.6591E4,2.5451E4,4.5678E4,4.8802E4,3.7664E4,3.8555E4,3.9188E4,5.3428E4,4.1022E4,2.4625E4,7.4012E4,2.5682E4,6.0911E4,2.0919E4,6.7439E4,2.4273E4,6.52E4,2.3741E4,6.7235E4,1.9893E4,7.0744E4,1.9708E4,7.0914E4,1.2797E4,6.2574E4,1.6464E4,7.3712E4,1.4386E4,7.472E4,1.2231E4,1.0529E4,5.8349E4,4.9551E4,3.7975E4,1.12138E5,4.245E4,6.9086E4,5.4125E4,5.0942E4,1.9796E4,1.06867E5,3.762E4,1.4479E4,1.425E3,2.8374E4],"tree_param":{"num_deleted":"0","num_feature":"5","num_nodes":"127","size_leaf_vector":"1"}},{"base_weights":[1.2959282E-4,-1.7664579E-1,1.3432805E-1,-2.901951E-1,-1.0498419E-1,5.56421E-2,2.1099345E-1,-3.6686087E-1,-2.488487E-1,-1.517147E-1,-6.435582E-2,1.774836E-2,9.492945E-2,1.7672826E-1,2.5548023E-1,-4.213774E-1,-3.4143028E-1,-2.786277E-1,-2.2381637E-1,-1.7423356E-1,-1.2974662E-1,-8.6732976E-2,-4.3553807E-2,-2.3077477E-3,3.7449237E-2,7.524251E-2,1.13143526E-1,1.494171E-1,1.9189954E-1,2.3730043E-1,2.8075737E-1,-4.5122185E-1,-4.0046114E-1,-3.6479983E-1,-3.275931E-1,-2.9221585E-1,-2.6482916E-1,-2.3785353E-1,-2.112406E-1,-1.8631661E-1,-1.6298527E-1,-1.4167447E-1,-1.19951285E-1,-9.867215E-2,-7.694697E-2,-5.5486113E-2,-3.360608E-2,-1.2311227E-2,7.5347624E-3,2.7598942E-2,4.7282465E-2,6.51308E-2,8.36791E-2,1.0309908E-1,1.23252146E-1,1.4116761E-1,1.5770914E-1,1.81066E-1,2.0333761E-1,2.2501256E-1,2.4613838E-1,2.6961973E-1,3.1738523E-1,-2.3457622E-2,-2.1650665E-2,-2.0679746E-2,-1.9668609E-2,-1.8586842E-2,-1.7790122E-2,-1.6922066E-2,-1.592718E-2,-1.5001486E-2,-1.4205349E-2,-1.3590022E-2,-1.2913714E-2,-1.223785E-2,-1.1569693E-2,-1.0905412E-2,-1.023526E-2,-9.5655965E-3,-8.993398E-3,-8.407614E-3,-7.821879E-3,-6.7645484E-3,-7.3074E-3,-6.333448E-3,-5.7505984E-3,-4.457805E-3,-5.064704E-3,-4.1812165E-3,-3.6047813E-3,-2.1901736E-3,-2.9890782E-3,-1.061948E-3,-1.9028707E-3,4.6450874E-5,-8.710025E-4,1.0621013E-3,1.3936729E-4,2.0450668E-3,1.1182012E-3,3.139925E-3,2.1594684E-3,4.0335315E-3,3.0173918E-3,5.0904946E-3,3.990374E-3,6.0734325E-3,4.960616E-3,7.188587E-3,5.9701605E-3,8.120592E-3,6.8554203E-3,8.999213E-3,7.6777907E-3,9.865637E-3,8.750755E-3,1.1447185E-2,9.977282E-3,1.2637006E-2,1.1032675E-2,1.3681963E-2,1.2063149E-2,1.4818253E-2,1.3343276E-2,1.4216887E-2,1.5954938E-2],"categories":[],"categories_nodes":[],"categories_segments":[],"categories_sizes":[],"default_left":[0,0,0,0,0,0,0,0,0,0,0,0,0,0,0,0,0,0,0,0,0,0,0,0,0,0,0,0,0,0,0,0,0,0,0,0,0,0,0,0,0,0,0,0,0,0,0,0,0,0,0,0,0,0,0,0,0,0,0,0,0,0,0,0,0,0,0,0,0,0,0,0,0,0,0,0,0,0,0,0,0,0,0,0,0,0,0,0,0,0,0,0,0,0,0,0,0,0,0,0,0,0,0,0,0,0,0,0,0,0,0,0,0,0,0,0,0,0,0,0,0,0,0,0,0,0,0],"id":3,"left_children":[1,3,5,7,9,11,13,15,17,19,21,23,25,27,29,31,33,35,37,39,41,43,45,47,49,51,53,55,57,59,61,63,65,67,69,71,73,75,77,79,81,83,85,87,89,91,93,95,97,99,101,103,105,107,109,111,113,115,117,119,121,123,125,-1,-1,-1,-1,-1,-1,-1,-1,-1,-1,-1,-1,-1,-1,-1,-1,-1,-1,-1,-1,-1,-1,-1,-1,-1,-1,-1,-1,-1,-1,-1,-1,-1,-1,-1,-1,-1,-1,-1,-1,-1,-1,-1,-1,-1,-1,-1,-1,-1,-1,-1,-1,-1,-1,-1,-1,-1,-1,-1,-1,-1,-1,-1,-1],"loss_changes":[5.955107E4,8.814824E3,8.608234E3,1.3285352E3,1.2609248E3,1.0483901E3,1.1017051E3,2.0344336E2,2.0291797E2,1.5277637E2,1.6537097E2,1.4163782E2,1.2396973E2,1.6914551E2,1.4444531E2,2.8975586E1,3.2262695E1,2.3238281E1,2.6065918E1,2.0699707E1,1.8250977E1,1.9989502E1,2.1852692E1,1.7489624E1,1.7514282E1,1.4169373E1,1.8221924E1,9.952148E0,3.248828E1,1.9810547E1,5.3581055E1,6.078125E0,2.3950195E0,2.1914062E0,6.0683594E0,3.883789E0,2.7495117E0,3.0605469E0,3.4580078E0,2.3342285E0,2.6464844E0,1.9934082E0,2.8342285E0,1.9144287E0,3.0410767E0,4.197998E0,5.526825E0,5.959012E0,5.82648E0,6.290161E0,5.7444305E0,5.612793E0,6.3500977E0,6.419983E0,7.0516357E0,6.2819824E0,6.6992188E0,1.321875E1,1.2351074E1,9.195068E0,1.4197754E1,7.352051E0,1.6464844E0,0E0,0E0,0E0,0E0,0E0,0E0,0E0,0E0,0E0,0E0,0E0,0E0,0E0,0E0,0E0,0E0,0E0,0E0,0E0,0E0,0E0,0E0,0E0,0E0,0E0,0E0,0E0,0E0,0E0,0E0,0E0,0E0,0E0,0E0,0E0,0E0,0E0,0E0,0E0,0E0,0E0,0E0,0E0,0E0,0E0,0E0,0E0,0E0,0E0,0E0,0E0,0E0,0E0,0E0,0E0,0E0,0E0,0E0,0E0,0E0,0E0,0E0,0E0,0E0],"parents":[2147483647,0,0,1,1,2,2,3,3,4,4,5,5,6,6,7,7,8,8,9,9,10,10,11,11,12,12,13,13,14,14,15,15,16,16,17,17,18,18,19,19,20,20,21,21,22,22,23,23,24,24,25,25,26,26,27,27,28,28,29,29,30,30,31,31,32,32,33,33,34,34,35,35,36,36,37,37,38,38,39,39,40,40,41,41,42,42,43,43,44,44,45,45,46,46,47,47,48,48,49,49,50,50,51,51,52,52,53,53,54,54,55,55,56,56,57,57,58,58,59,59,60,60,61,61,62,62],"right_children":[2,4,6,8,10,12,14,16,18,20,22,24,26,28,30,32,34,36,38,40,42,44,46,48,50,52,54,56,58,60,62,64,66,68,70,72,74,76,78,80,82,84,86,88,90,92,94,96,98,100,102,104,106,108,110,112,114,116,118,120,122,124,126,-1,-1,-1,-1,-1,-1,-1,-1,-1,-1,-1,-1,-1,-1,-1,-1,-1,-1,-1,-1,-1,-1,-1,-1,-1,-1,-1,-1,-1,-1,-1,-1,-1,-1,-1,-1,-1,-1,-1,-1,-1,-1,-1,-1,-1,-1,-1,-1,-1,-1,-1,-1,-1,-1,-1,-1,-1,-1,-1,-1,-1,-1,-1,-1],"split_conditions":[-1.1377398E-1,-1.0810506E0,7.439997E-1,-1.6833173E0,-5.8828706E-1,3.2423812E-1,1.2185128E0,-2.0848284E0,-1.3730587E0,-8.2554364E-1,-3.5103053E-1,1.0523207E-1,5.2499366E-1,9.2650473E-1,1.4375188E0,-2.3038344E0,-1.9023234E0,-1.5190628E0,-1.2270547E0,-9.5329714E-1,-7.160406E-1,-4.7878405E-1,-2.415275E-1,-4.2709555E-3,2.1473509E-1,4.1549063E-1,6.344967E-1,8.352522E-1,1.0725088E0,1.3097653E0,1.5287714E0,-2.431588E0,-2.2125819E0,-1.9753253E0,-1.7928203E0,-1.5920647E0,-1.4460608E0,-1.3000567E0,-1.1540527E0,-1.0080487E0,-8.8029516E-1,-9.769608E-1,-6.612891E-1,-8.106344E-1,-4.2403254E-1,-5.026225E-1,-3.7325746E-1,-2.2541174E-1,-1.0836721E-1,2.0997794E-2,1.1340137E-1,2.4276637E-1,3.10529E-1,4.39894E-1,5.4461807E-1,6.6782284E-1,7.725469E-1,9.2655283E-1,1.1051997E0,1.2592057E0,1.3639297E0,1.499455E0,1.3451061E-2,-2.3457622E-2,-2.1650665E-2,-2.0679746E-2,-1.9668609E-2,-1.8586842E-2,-1.7790122E-2,-1.6922066E-2,-1.592718E-2,-1.5001486E-2,-1.4205349E-2,-1.3590022E-2,-1.2913714E-2,-1.223785E-2,-1.1569693E-2,-1.0905412E-2,-1.023526E-2,-9.5655965E-3,-8.993398E-3,-8.407614E-3,-7.821879E-3,-6.7645484E-3,-7.3074E-3,-6.333448E-3,-5.7505984E-3,-4.457805E-3,-5.064704E-3,-4.1812165E-3,-3.6047813E-3,-2.1901736E-3,-2.9890782E-3,-1.061948E-3,-1.9028707E-3,4.6450874E-5,-8.710025E-4,1.0621013E-3,1.3936729E-4,2.0450668E-3,1.1182012E-3,3.139925E-3,2.1594684E-3,4.0335315E-3,3.0173918E-3,5.0904946E-3,3.990374E-3,6.0734325E-3,4.960616E-3,7.188587E-3,5.9701605E-3,8.120592E-3,6.8554203E-3,8.999213E-3,7.6777907E-3,9.865637E-3,8.750755E-3,1.1447185E-2,9.977282E-3,1.2637006E-2,1.1032675E-2,1.3681963E-2,1.2063149E-2,1.4818253E-2,1.3343276E-2,1.4216887E-2,1.5954938E-2],"split_indices":[4,4,4,4,4,4,4,4,4,4,4,4,4,4,4,4,4,4,4,4,4,4,4,4,4,4,4,4,4,4,4,4,4,4,4,4,4,4,4,4,4,0,4,0,4,0,0,0,0,0,0,0,0,0,0,0,0,0,0,0,0,0,3,0,0,0,0,0,0,0,0,0,0,0,0,0,0,0,0,0,0,0,0,0,0,0,0,0,0,0,0,0,0,0,0,0,0,0,0,0,0,0,0,0,0,0,0,0,0,0,0,0,0,0,0,0,0,0,0,0,0,0,0,0,0,0,0],"split_type":[0,0,0,0,0,0,0,0,0,0,0,0,0,0,0,0,0,0,0,0,0,0,0,0,0,0,0,0,0,0,0,0,0,0,0,0,0,0,0,0,0,0,0,0,0,0,0,0,0,0,0,0,0,0,0,0,0,0,0,0,0,0,0,0,0,0,0,0,0,0,0,0,0,0,0,0,0,0,0,0,0,0,0,0,0,0,0,0,0,0,0,0,0,0,0,0,0,0,0,0,0,0,0,0,0,0,0,0,0,0,0,0,0,0,0,0,0,0,0,0,0,0,0,0,0,0,0],"sum_hessian":[2.510267E6,1.083287E6,1.42698E6,4.19143E5,6.64144E5,7.04211E5,7.22769E5,1.46847E5,2.72296E5,3.08875E5,3.55269E5,3.58464E5,3.45747E5,4.08293E5,3.14476E5,4.6706E4,1.00141E5,1.24353E5,1.47943E5,1.52522E5,1.56353E5,1.71153E5,1.84116E5,1.77631E5,1.80833E5,1.66158E5,1.79589E5,1.45813E5,2.6248E5,1.82924E5,1.31552E5,1.9237E4,2.7469E4,3.7233E4,6.2908E4,6.2644E4,6.1709E4,6.9901E4,7.8042E4,7.3525E4,7.8997E4,7.0496E4,8.5857E4,7.7091E4,9.4062E4,8.3706E4,1.0041E5,8.8095E4,8.9536E4,9.034E4,9.0493E4,7.558E4,9.0578E4,9.0086E4,8.9503E4,7.3103E4,7.271E4,1.34811E5,1.27669E5,7.6537E4,1.06387E5,1.00884E5,3.0668E4,9.68E3,9.557E3,9.609E3,1.786E4,2.1001E4,1.6232E4,2.8594E4,3.4314E4,3.1884E4,3.076E4,2.9885E4,3.1824E4,3.3772E4,3.6129E4,3.8038E4,4.0004E4,4.1415E4,3.211E4,4.414E4,3.4857E4,2.906E4,4.1436E4,3.6369E4,4.9488E4,1.666E4,6.0431E4,3.9575E4,5.4487E4,2.2506E4,6.12E4,2.6577E4,7.3833E4,2.4528E4,6.3567E4,2.3032E4,6.6504E4,2.551E4,6.483E4,1.8886E4,7.1607E4,1.7784E4,5.7796E4,1.5934E4,7.4644E4,1.5727E4,7.4359E4,1.4131E4,7.5372E4,1.1721E4,6.1382E4,1.142E4,6.129E4,3.6575E4,9.8236E4,1.646E4,1.11209E5,1.039E4,6.6147E4,1.6012E4,9.0375E4,9.409E3,9.1475E4,1.52E3,2.9148E4],"tree_param":{"num_deleted":"0","num_feature":"5","num_nodes":"127","size_leaf_vector":"1"}},{"base_weights":[7.1832387E-6,-1.6338298E-1,1.286528E-1,-2.6641402E-1,-9.315173E-2,6.1974313E-2,2.018641E-1,-3.3487794E-1,-2.270455E-1,-1.3644359E-1,-5.4238982E-2,2.5270095E-2,1.0405001E-1,1.6877012E-1,2.3673417E-1,-3.846889E-1,-3.082847E-1,-2.5750795E-1,-2.0593385E-1,-1.5705685E-1,-1.14900164E-1,-7.2791845E-2,-3.3984073E-2,5.4597384E-3,4.62162E-2,9.866675E-2,1.8368818E-1,1.514217E-1,1.8685937E-1,2.2311437E-1,2.7797633E-1,-4.1814134E-1,-3.67171E-1,-3.2372007E-1,-2.9123244E-1,-2.775672E-1,-2.4163432E-1,-2.223308E-1,-1.9115591E-1,-1.6965374E-1,-1.4510877E-1,-1.2689497E-1,-1.04763255E-1,-8.360523E-2,-6.2104505E-2,-4.4749107E-2,-2.3885021E-2,-4.9576494E-3,1.6403135E-2,2.757126E-2,5.2455906E-2,8.339641E-2,1.1708516E-1,1.5462749E-1,1.853434E-1,1.3851613E-1,1.6281636E-1,1.7448328E-1,2.0057866E-1,2.4701916E-1,2.155225E-1,2.908411E-1,2.5115067E-1,-2.1793425E-2,-2.0017572E-2,-1.8944345E-2,-1.7775806E-2,-1.7082604E-2,-1.5557537E-2,-1.5336935E-2,-1.3745642E-2,-1.4614542E-2,-1.3315427E-2,-1.23836E-2,-1.082813E-2,-1.1934684E-2,-1.0459154E-2,-1.0327974E-2,-9.038459E-3,-9.056616E-3,-7.854294E-3,-7.7535235E-3,-6.7011626E-3,-6.896735E-3,-5.798177E-3,-5.7560275E-3,-4.765799E-3,-4.8092003E-3,-3.7068464E-3,-3.962023E-3,-2.800346E-3,-2.8294798E-3,-1.7509795E-3,-1.6006308E-3,-6.831048E-4,-7.547896E-4,3.390734E-4,-1.960824E-4,1.0892833E-3,7.787516E-4,1.9341604E-3,2.1485656E-3,3.1368032E-3,3.46328E-3,4.6463194E-3,5.220522E-3,6.4203152E-3,8.134544E-3,6.3837967E-3,9.227603E-3,1.0173305E-2,6.862465E-3,1.1224269E-2,7.6427744E-3,8.640113E-3,8.542397E-3,9.649015E-3,9.649644E-3,1.1306302E-2,1.1555939E-2,1.3078283E-2,1.03588505E-2,1.1605312E-2,1.41231865E-2,1.5221076E-2,1.2321237E-2,1.4275977E-2],"categories":[],"categories_nodes":[],"categories_segments":[],"categories_sizes":[],"default_left":[0,0,0,0,0,0,0,0,0,0,0,0,0,0,0,0,0,0,0,0,0,0,0,0,0,0,0,0,0,0,0,0,0,0,0,0,0,0,0,0,0,0,0,0,0,0,0,0,0,0,0,0,0,0,0,0,0,0,0,0,0,0,0,0,0,0,0,0,0,0,0,0,0,0,0,0,0,0,0,0,0,0,0,0,0,0,0,0,0,0,0,0,0,0,0,0,0,0,0,0,0,0,0,0,0,0,0,0,0,0,0,0,0,0,0,0,0,0,0,0,0,0,0,0,0,0,0],"id":4,"left_children":[1,3,5,7,9,11,13,15,17,19,21,23,25,27,29,31,33,35,37,39,41,43,45,47,49,51,53,55,57,59,61,63,65,67,69,71,73,75,77,79,81,83,85,87,89,91,93,95,97,99,101,103,105,107,109,111,113,115,117,119,121,123,125,-1,-1,-1,-1,-1,-1,-1,-1,-1,-1,-1,-1,-1,-1,-1,-1,-1,-1,-1,-1,-1,-1,-1,-1,-1,-1,-1,-1,-1,-1,-1,-1,-1,-1,-1,-1,-1,-1,-1,-1,-1,-1,-1,-1,-1,-1,-1,-1,-1,-1,-1,-1,-1,-1,-1,-1,-1,-1,-1,-1,-1,-1,-1,-1],"loss_changes":[5.2745203E4,7.9986777E3,6.853541E3,1.2076191E3,1.1073408E3,1.1347268E3,7.722031E2,2.1657031E2,1.8290527E2,1.3816064E2,1.3008618E2,1.6283852E2,1.4674341E2,1.0771973E2,1.829707E2,3.3210938E1,2.797754E1,3.7012207E1,4.0674805E1,2.3907715E1,1.8486694E1,2.0875183E1,1.799144E1,2.2992378E1,2.218985E1,9.017676E1,1.013916E0,2.575122E1,2.8503418E1,4.440332E1,2.7842285E1,5.9938965E0,4.96875E0,1.2509277E1,1.2741211E1,8.44873E0,9.78833E0,1.708545E1,1.4104492E1,1.1136963E1,8.991699E0,8.393433E0,8.05835E0,1.0688843E1,9.490692E0,9.226517E0,7.094681E0,1.2297222E1,1.0760437E1,6.3753395E0,1.3932159E1,2.3602417E1,2.0842407E1,2.3436356E-1,2.5653076E-1,8.92041E0,9.231689E0,5.909668E0,1.5403076E1,1.3594971E1,2.568457E1,6.1328125E0,4.189453E0,0E0,0E0,0E0,0E0,0E0,0E0,0E0,0E0,0E0,0E0,0E0,0E0,0E0,0E0,0E0,0E0,0E0,0E0,0E0,0E0,0E0,0E0,0E0,0E0,0E0,0E0,0E0,0E0,0E0,0E0,0E0,0E0,0E0,0E0,0E0,0E0,0E0,0E0,0E0,0E0,0E0,0E0,0E0,0E0,0E0,0E0,0E0,0E0,0E0,0E0,0E0,0E0,0E0,0E0,0E0,0E0,0E0,0E0,0E0,0E0,0E0,0E0,0E0,0E0],"parents":[2147483647,0,0,1,1,2,2,3,3,4,4,5,5,6,6,7,7,8,8,9,9,10,10,11,11,12,12,13,13,14,14,15,15,16,16,17,17,18,18,19,19,20,20,21,21,22,22,23,23,24,24,25,25,26,26,27,27,28,28,29,29,30,30,31,31,32,32,33,33,34,34,35,35,36,36,37,37,38,38,39,39,40,40,41,41,42,42,43,43,44,44,45,45,46,46,47,47,48,48,49,49,50,50,51,51,52,52,53,53,54,54,55,55,56,56,57,57,58,58,59,59,60,60,61,61,62,62],"right_children":[2,4,6,8,10,12,14,16,18,20,22,24,26,28,30,32,34,36,38,40,42,44,46,48,50,52,54,56,58,60,62,64,66,68,70,72,74,76,78,80,82,84,86,88,90,92,94,96,98,100,102,104,106,108,110,112,114,116,118,120,122,124,126,-1,-1,-1,-1,-1,-1,-1,-1,-1,-1,-1,-1,-1,-1,-1,-1,-1,-1,-1,-1,-1,-1,-1,-1,-1,-1,-1,-1,-1,-1,-1,-1,-1,-1,-1,-1,-1,-1,-1,-1,-1,-1,-1,-1,-1,-1,-1,-1,-1,-1,-1,-1,-1,-1,-1,-1,-1,-1,-1,-1,-1,-1,-1,-1],"split_conditions":[-2.0693102E-1,-1.1309668E0,8.0334806E-1,-1.3896967E0,-7.4903196E-1,3.290097E-1,1.2961671E0,-1.5437027E0,-1.2849727E0,-9.5848006E-1,-4.595008E-1,7.02797E-2,2.677247E0,1.0805588E0,2.0629358E0,-1.7161894E0,2.7072337E-1,-5.3520757E-1,-5.3520757E-1,-5.3520757E-1,3.233896E-2,-6.011863E-1,2.0867842E-1,-6.524554E-2,-5.21672E-1,5.8157945E-1,5.0765663E-1,2.0867842E-1,3.850179E-1,3.3835456E-1,2.1756537E0,-1.8024328E0,-1.6114653E0,-1.4574593E0,-1.4574593E0,-1.3404161E0,7.2159415E-1,-1.21721E0,-1.2295306E0,-1.0447234E0,-1.0447234E0,-7.0992005E-1,-8.5991627E-1,3.233896E-2,-5.21672E-1,-5.3520757E-1,-3.1165507E-1,3.7019977E-1,-7.0004636E-1,-4.11217E-1,2.0580494E-1,1.3451061E-2,2.0867842E-1,-3.2033998E-1,6.863035E-1,2.677247E0,-7.0992005E-1,5.694264E-1,5.074311E-1,1.474814E0,1.5548971E0,1.6719416E0,1.6719416E0,-2.1793425E-2,-2.0017572E-2,-1.8944345E-2,-1.7775806E-2,-1.7082604E-2,-1.5557537E-2,-1.5336935E-2,-1.3745642E-2,-1.4614542E-2,-1.3315427E-2,-1.23836E-2,-1.082813E-2,-1.1934684E-2,-1.0459154E-2,-1.0327974E-2,-9.038459E-3,-9.056616E-3,-7.854294E-3,-7.7535235E-3,-6.7011626E-3,-6.896735E-3,-5.798177E-3,-5.7560275E-3,-4.765799E-3,-4.8092003E-3,-3.7068464E-3,-3.962023E-3,-2.800346E-3,-2.8294798E-3,-1.7509795E-3,-1.6006308E-3,-6.831048E-4,-7.547896E-4,3.390734E-4,-1.960824E-4,1.0892833E-3,7.787516E-4,1.9341604E-3,2.1485656E-3,3.1368032E-3,3.46328E-3,4.6463194E-3,5.220522E-3,6.4203152E-3,8.134544E-3,6.3837967E-3,9.227603E-3,1.0173305E-2,6.862465E-3,1.1224269E-2,7.6427744E-3,8.640113E-3,8.542397E-3,9.649015E-3,9.649644E-3,1.1306302E-2,1.1555939E-2,1.3078283E-2,1.03588505E-2,1.1605312E-2,1.41231865E-2,1.5221076E-2,1.2321237E-2,1.4275977E-2],"split_indices":[0,0,0,0,0,0,0,0,0,0,0,0,1,0,1,0,1,1,1,1,2,0,2,0,3,0,0,2,2,1,1,0,0,0,0,0,1,0,0,0,0,1,0,2,3,1,0,3,3,1,0,3,2,2,0,1,1,1,1,0,0,0,0,0,0,0,0,0,0,0,0,0,0,0,0,0,0,0,0,0,0,0,0,0,0,0,0,0,0,0,0,0,0,0,0,0,0,0,0,0,0,0,0,0,0,0,0,0,0,0,0,0,0,0,0,0,0,0,0,0,0,0,0,0,0,0,0],"split_type":[0,0,0,0,0,0,0,0,0,0,0,0,0,0,0,0,0,0,0,0,0,0,0,0,0,0,0,0,0,0,0,0,0,0,0,0,0,0,0,0,0,0,0,0,0,0,0,0,0,0,0,0,0,0,0,0,0,0,0,0,0,0,0,0,0,0,0,0,0,0,0,0,0,0,0,0,0,0,0,0,0,0,0,0,0,0,0,0,0,0,0,0,0,0,0,0,0,0,0,0,0,0,0,0,0,0,0,0,0,0,0,0,0,0,0,0,0,0,0,0,0,0,0,0,0,0,0],"sum_hessian":[2.509353E6,1.105403E6,1.40395E6,4.4807E5,6.57333E5,7.34758E5,6.69192E5,1.63583E5,2.84487E5,3.11157E5,3.46176E5,3.92429E5,3.42329E5,3.43343E5,3.25849E5,5.6932E4,1.06651E5,1.16449E5,1.68038E5,1.59008E5,1.52149E5,1.80678E5,1.65498E5,2.01683E5,1.90746E5,3.20656E5,2.1673E4,1.75265E5,1.68078E5,2.4496E5,8.0889E4,1.9559E4,3.7373E4,5.597E4,5.0681E4,5.1435E4,6.5014E4,7.9649E4,8.8389E4,7.7396E4,8.1612E4,6.9683E4,8.2466E4,8.9806E4,9.0872E4,8.0106E4,8.5392E4,1.03325E5,9.8358E4,4.783E4,1.42916E5,1.75313E5,1.45343E5,1.173E3,2.05E4,8.219E4,9.3075E4,8.8372E4,7.9706E4,5.9037E4,1.85923E5,5.4664E4,2.6225E4,9.785E3,9.774E3,1.8622E4,1.8751E4,2.3054E4,3.2916E4,2.5979E4,2.4702E4,2.2277E4,2.9158E4,5.2389E4,1.2625E4,3.5478E4,4.4171E4,3.559E4,5.2799E4,4.0444E4,3.6952E4,4.2978E4,3.8634E4,3.4664E4,3.5019E4,3.9333E4,4.3133E4,3.8564E4,5.1242E4,2.3846E4,6.7026E4,3.6131E4,4.3975E4,4.757E4,3.7822E4,5.5443E4,4.7882E4,2.0594E4,7.7764E4,2.3001E4,2.4829E4,7.4337E4,6.8579E4,7.0615E4,1.04698E5,6.8577E4,7.6766E4,8.99E2,2.74E2,1.9653E4,8.47E2,8.0999E4,1.191E3,4.6604E4,4.6471E4,7.3865E4,1.4507E4,6.1464E4,1.8242E4,2.8214E4,3.0823E4,1.23691E5,6.2232E4,3.3822E4,2.0842E4,2.3062E4,3.163E3],"tree_param":{"num_deleted":"0","num_feature":"5","num_nodes":"127","size_leaf_vector":"1"}},{"base_weights":[-4.225929E-5,-1.5581694E-1,1.2415372E-1,-2.5803027E-1,-8.8942386E-2,5.6025557E-2,1.9350383E-1,-3.2932246E-1,-2.2008091E-1,-1.3102151E-1,-5.2195467E-2,2.1879617E-2,9.160329E-2,1.6371216E-1,2.3273875E-1,-3.8092837E-1,-3.0670622E-1,-2.4695611E-1,-1.9612435E-1,-1.5133706E-1,-1.1110002E-1,-7.089633E-2,-3.1811256E-2,3.8437236E-3,3.963418E-2,7.5275466E-2,1.09664835E-1,1.4775397E-1,1.8117595E-1,2.2091538E-1,2.641173E-1,-4.079965E-1,-3.620222E-1,-3.2465765E-1,-2.9023576E-1,-2.595009E-1,-2.3296045E-1,-2.0880023E-1,-1.8467608E-1,-1.6216931E-1,-1.4122745E-1,-1.21626265E-1,-1.0247211E-1,-8.145165E-2,-6.0861E-2,-4.090635E-2,-2.2934752E-2,-5.1333494E-3,1.26991775E-2,3.1017955E-2,4.8309803E-2,6.63607E-2,8.4232606E-2,1.0212136E-1,1.18829705E-1,1.3641334E-1,1.5888147E-1,1.9198783E-1,1.6447325E-1,2.4460669E-1,2.1454568E-1,2.7633238E-1,2.3939827E-1,-2.1217473E-2,-1.9574046E-2,-1.8699305E-2,-1.7778968E-2,-1.6650697E-2,-1.5679395E-2,-1.4915767E-2,-1.4164385E-2,-1.3473113E-2,-1.2695006E-2,-1.1883462E-2,-1.1276535E-2,-1.0740474E-2,-1.01536615E-2,-9.537289E-3,-8.941882E-3,-7.815751E-3,-8.341928E-3,-6.7022084E-3,-7.285422E-3,-5.710339E-3,-6.3047456E-3,-4.727151E-3,-5.2898945E-3,-3.507559E-3,-4.2109564E-3,-2.3479955E-3,-3.2066796E-3,-1.4117381E-3,-2.2881243E-3,-5.9098494E-4,-1.47562E-3,4.1143782E-4,-5.3137797E-4,1.3324149E-3,3.756435E-4,2.28302E-3,1.2974783E-3,3.1872578E-3,2.179832E-3,4.175635E-3,3.1012355E-3,5.1658773E-3,4.0144864E-3,6.051266E-3,4.892012E-3,7.023986E-3,5.7283393E-3,7.838505E-3,6.614545E-3,8.844344E-3,7.5447657E-3,8.931002E-3,1.0181898E-2,7.6257177E-3,9.214666E-3,1.1834912E-2,1.295299E-2,9.959753E-3,1.1329173E-2,1.3275556E-2,1.4412517E-2,1.1662898E-2,1.3824499E-2],"categories":[],"categories_nodes":[],"categories_segments":[],"categories_sizes":[],"default_left":[0,0,0,0,0,0,0,0,0,0,0,0,0,0,0,0,0,0,0,0,0,0,0,0,0,0,0,0,0,0,0,0,0,0,0,0,0,0,0,0,0,0,0,0,0,0,0,0,0,0,0,0,0,0,0,0,0,0,0,0,0,0,0,0,0,0,0,0,0,0,0,0,0,0,0,0,0,0,0,0,0,0,0,0,0,0,0,0,0,0,0,0,0,0,0,0,0,0,0,0,0,0,0,0,0,0,0,0,0,0,0,0,0,0,0,0,0,0,0,0,0,0,0,0,0,0,0],"id":5,"left_children":[1,3,5,7,9,11,13,15,17,19,21,23,25,27,29,31,33,35,37,39,41,43,45,47,49,51,53,55,57,59,61,63,65,67,69,71,73,75,77,79,81,83,85,87,89,91,93,95,97,99,101,103,105,107,109,111,113,115,117,119,121,123,125,-1,-1,-1,-1,-1,-1,-1,-1,-1,-1,-1,-1,-1,-1,-1,-1,-1,-1,-1,-1,-1,-1,-1,-1,-1,-1,-1,-1,-1,-1,-1,-1,-1,-1,-1,-1,-1,-1,-1,-1,-1,-1,-1,-1,-1,-1,-1,-1,-1,-1,-1,-1,-1,-1,-1,-1,-1,-1,-1,-1,-1,-1,-1,-1],"loss_changes":[4.8568664E4,7.6122637E3,6.5994707E3,1.1915605E3,1.0409443E3,8.5598535E2,8.090488E2,1.7846094E2,1.8501855E2,1.2699463E2,1.3699048E2,1.1513214E2,1.0175513E2,1.09625E2,1.1077832E2,2.3709473E1,3.1360352E1,2.3723633E1,2.2016602E1,1.6991943E1,1.4378296E1,1.9848083E1,1.388089E1,1.4178901E1,1.3542236E1,1.4466309E1,1.1314575E1,2.5922363E1,3.3893066E1,3.269336E1,2.4619629E1,5.0092773E0,1.9833984E0,4.604004E0,3.0307617E0,3.916504E0,2.1872559E0,2.4382324E0,2.7963867E0,2.0240479E0,2.567627E0,2.3518066E0,2.286499E0,2.850708E0,4.3680115E0,5.2246704E0,6.361904E0,6.502531E0,6.4954605E0,6.7452774E0,6.564972E0,6.7504883E0,6.7941895E0,7.2616577E0,6.8100586E0,8.524536E0,1.4894287E1,1.7722656E1,1.7470581E1,5.1933594E0,3.1557617E1,6.979492E0,6.095337E0,0E0,0E0,0E0,0E0,0E0,0E0,0E0,0E0,0E0,0E0,0E0,0E0,0E0,0E0,0E0,0E0,0E0,0E0,0E0,0E0,0E0,0E0,0E0,0E0,0E0,0E0,0E0,0E0,0E0,0E0,0E0,0E0,0E0,0E0,0E0,0E0,0E0,0E0,0E0,0E0,0E0,0E0,0E0,0E0,0E0,0E0,0E0,0E0,0E0,0E0,0E0,0E0,0E0,0E0,0E0,0E0,0E0,0E0,0E0,0E0,0E0,0E0,0E0,0E0],"parents":[2147483647,0,0,1,1,2,2,3,3,4,4,5,5,6,6,7,7,8,8,9,9,10,10,11,11,12,12,13,13,14,14,15,15,16,16,17,17,18,18,19,19,20,20,21,21,22,22,23,23,24,24,25,25,26,26,27,27,28,28,29,29,30,30,31,31,32,32,33,33,34,34,35,35,36,36,37,37,38,38,39,39,40,40,41,41,42,42,43,43,44,44,45,45,46,46,47,47,48,48,49,49,50,50,51,51,52,52,53,53,54,54,55,55,56,56,57,57,58,58,59,59,60,60,61,61,62,62],"right_children":[2,4,6,8,10,12,14,16,18,20,22,24,26,28,30,32,34,36,38,40,42,44,46,48,50,52,54,56,58,60,62,64,66,68,70,72,74,76,78,80,82,84,86,88,90,92,94,96,98,100,102,104,106,108,110,112,114,116,118,120,122,124,126,-1,-1,-1,-1,-1,-1,-1,-1,-1,-1,-1,-1,-1,-1,-1,-1,-1,-1,-1,-1,-1,-1,-1,-1,-1,-1,-1,-1,-1,-1,-1,-1,-1,-1,-1,-1,-1,-1,-1,-1,-1,-1,-1,-1,-1,-1,-1,-1,-1,-1,-1,-1,-1,-1,-1,-1,-1,-1,-1,-1,-1,-1,-1,-1],"split_conditions":[-7.727297E-2,-1.0445497E0,7.805007E-1,-1.6650668E0,-5.5178607E-1,3.607391E-1,1.2367632E0,-2.0848284E0,-1.3365577E0,-7.890426E-1,-3.1452942E-1,1.4173308E-1,5.797452E-1,1.0177573E0,2.0629358E0,-2.3038344E0,-1.8475718E0,-1.4825617E0,-1.1905537E0,-9.1679615E-1,-6.7953956E-1,-4.2403254E-1,-1.86776E-1,3.2230053E-2,2.5123608E-1,4.7024214E-1,6.892482E-1,9.082542E-1,4.3416575E-1,3.3271867E-1,2.1756537E0,-2.431588E0,-2.2125819E0,-1.9388243E0,-1.7563193E0,-1.5920647E0,-1.3913093E0,-1.2635556E0,-1.1175517E0,-1.112486E0,-1.0447234E0,-9.5848006E-1,-8.722367E-1,-7.7367294E-1,-6.3198745E-1,-4.4102007E-1,-2.7469364E-1,-1.7612983E-1,-6.524554E-2,5.1798984E-2,1.6884351E-1,2.7356756E-1,3.7213138E-1,5.1381683E-1,6.123807E-1,7.479059E-1,8.8343114E-1,1.1090097E0,6.032423E-1,1.3645169E0,1.3645169E0,1.5287714E0,1.5287714E0,-2.1217473E-2,-1.9574046E-2,-1.8699305E-2,-1.7778968E-2,-1.6650697E-2,-1.5679395E-2,-1.4915767E-2,-1.4164385E-2,-1.3473113E-2,-1.2695006E-2,-1.1883462E-2,-1.1276535E-2,-1.0740474E-2,-1.01536615E-2,-9.537289E-3,-8.941882E-3,-7.815751E-3,-8.341928E-3,-6.7022084E-3,-7.285422E-3,-5.710339E-3,-6.3047456E-3,-4.727151E-3,-5.2898945E-3,-3.507559E-3,-4.2109564E-3,-2.3479955E-3,-3.2066796E-3,-1.4117381E-3,-2.2881243E-3,-5.9098494E-4,-1.47562E-3,4.1143782E-4,-5.3137797E-4,1.3324149E-3,3.756435E-4,2.28302E-3,1.2974783E-3,3.1872578E-3,2.179832E-3,4.175635E-3,3.1012355E-3,5.1658773E-3,4.0144864E-3,6.051266E-3,4.892012E-3,7.023986E-3,5.7283393E-3,7.838505E-3,6.614545E-3,8.844344E-3,7.5447657E-3,8.931002E-3,1.0181898E-2,7.6257177E-3,9.214666E-3,1.1834912E-2,1.295299E-2,9.959753E-3,1.1329173E-2,1.3275556E-2,1.4412517E-2,1.1662898E-2,1.3824499E-2],"split_indices":[4,4,4,4,4,4,4,4,4,4,4,4,4,4,1,4,4,4,4,4,4,4,4,4,4,4,4,4,1,1,1,4,4,4,4,4,4,4,4,0,0,0,0,0,0,0,0,0,0,0,0,0,0,0,0,0,0,4,1,4,4,4,4,0,0,0,0,0,0,0,0,0,0,0,0,0,0,0,0,0,0,0,0,0,0,0,0,0,0,0,0,0,0,0,0,0,0,0,0,0,0,0,0,0,0,0,0,0,0,0,0,0,0,0,0,0,0,0,0,0,0,0,0,0,0,0,0],"split_type":[0,0,0,0,0,0,0,0,0,0,0,0,0,0,0,0,0,0,0,0,0,0,0,0,0,0,0,0,0,0,0,0,0,0,0,0,0,0,0,0,0,0,0,0,0,0,0,0,0,0,0,0,0,0,0,0,0,0,0,0,0,0,0,0,0,0,0,0,0,0,0,0,0,0,0,0,0,0,0,0,0,0,0,0,0,0,0,0,0,0,0,0,0,0,0,0,0,0,0,0,0,0,0,0,0,0,0,0,0,0,0,0,0,0,0,0,0,0,0,0,0,0,0,0,0,0,0],"sum_hessian":[2.510449E6,1.113644E6,1.396805E6,4.40447E5,6.73197E5,7.04611E5,6.92194E5,1.53004E5,2.87443E5,3.13828E5,3.59369E5,3.59541E5,3.4507E5,3.93448E5,2.98746E5,4.6617E4,1.06387E5,1.35465E5,1.51978E5,1.55374E5,1.58454E5,1.87422E5,1.71947E5,1.78358E5,1.81183E5,1.81236E5,1.63834E5,2.05591E5,1.87857E5,2.16992E5,8.1754E4,1.9162E4,2.7455E4,5.0896E4,5.5491E4,7.1426E4,6.4039E4,7.2114E4,7.9864E4,7.4999E4,8.0375E4,7.1369E4,8.7085E4,9.1341E4,9.6081E4,8.4926E4,8.7021E4,8.8571E4,8.9787E4,9.0905E4,9.0278E4,9.0837E4,9.0399E4,8.9873E4,7.3961E4,1.01827E5,1.03764E5,1.14032E5,7.3825E4,4.5971E4,1.71021E5,5.4709E4,2.7045E4,9.616E3,9.546E3,9.59E3,1.7865E4,2.8986E4,2.191E4,2.5637E4,2.9854E4,2.5689E4,4.5737E4,3.9178E4,2.4861E4,3.5172E4,3.6942E4,3.9141E4,4.0723E4,3.3292E4,4.1707E4,3.0889E4,4.9486E4,2.6837E4,4.4532E4,2.5742E4,6.1343E4,1.7974E4,7.3367E4,1.8312E4,7.7769E4,2.3531E4,6.1395E4,3.2353E4,5.4668E4,2.5807E4,6.2764E4,2.4334E4,6.5453E4,2.3373E4,6.7532E4,2.1115E4,6.9163E4,1.8326E4,7.2511E4,1.5474E4,7.4925E4,1.659E4,7.3283E4,1.2162E4,6.1799E4,1.7142E4,8.4685E4,3.1876E4,7.1888E4,5.3109E4,6.0923E4,4.6049E4,2.7776E4,2.9724E4,1.6247E4,7.5175E4,9.5846E4,2.8686E4,2.6023E4,2.321E4,3.835E3],"tree_param":{"num_deleted":"0","num_feature":"5","num_nodes":"127","size_leaf_vector":"1"}},{"base_weights":[-2.9959558E-5,-1.4975476E-1,1.16536364E-1,-2.4712148E-1,-8.7245524E-2,4.9048588E-2,1.8109712E-1,-3.1291234E-1,-2.1068102E-1,-1.2726338E-1,-5.2387312E-2,1.6559372E-2,8.136271E-2,1.5020636E-1,2.1779914E-1,-3.6183017E-1,-2.9138562E-1,-2.3612913E-1,-1.8918373E-1,-1.4657056E-1,-1.0836448E-1,-7.020981E-2,-3.3022296E-2,-6.189526E-4,3.2036696E-2,6.444306E-2,9.701576E-2,1.2822638E-1,1.6322859E-1,2.0221335E-1,2.4127215E-1,-3.8761818E-1,-3.4391326E-1,-3.0843717E-1,-2.758095E-1,-2.4650721E-1,-2.2277735E-1,-2.0119254E-1,-1.782955E-1,-1.56932E-1,-1.3697654E-1,-1.1841338E-1,-1.0014548E-1,-8.033628E-2,-6.055313E-2,-4.1712344E-2,-2.4524475E-2,-9.233187E-3,6.4610913E-3,2.1918388E-2,3.924972E-2,5.5557005E-2,7.1837924E-2,8.841162E-2,1.0569151E-1,1.4598823E-1,1.2461473E-1,1.540967E-1,1.7178227E-1,2.2542273E-1,1.9351304E-1,2.3172127E-1,2.7256107E-1,-2.015674E-2,-1.8595897E-2,-1.7761726E-2,-1.689092E-2,-1.596374E-2,-1.5035184E-2,-1.4173478E-2,-1.3458467E-2,-1.2796733E-2,-1.2061445E-2,-1.14417635E-2,-1.0925204E-2,-1.0428926E-2,-9.85096E-3,-9.206205E-3,-8.6366655E-3,-7.5616487E-3,-8.077689E-3,-6.5370547E-3,-7.086587E-3,-5.558074E-3,-6.1228643E-3,-4.618244E-3,-5.1701395E-3,-4.24353E-3,-3.7227918E-3,-2.3719633E-3,-3.185374E-3,-1.4972974E-3,-2.3220961E-3,-6.1894645E-4,-1.4823949E-3,2.1005441E-4,-7.398539E-4,1.0105206E-3,8.574705E-5,1.7657757E-3,8.0549234E-4,2.7092816E-3,1.7555319E-3,3.5526298E-3,2.5402964E-3,4.475389E-3,3.4031041E-3,5.23827E-3,4.2090635E-3,6.276082E-3,5.0912695E-3,6.843246E-3,7.7653206E-3,5.8269305E-3,6.6047125E-3,8.497683E-3,7.392216E-3,9.476148E-3,7.965349E-3,1.0845399E-2,1.177587E-2,8.9963395E-3,1.0201181E-2,1.2972729E-2,1.1439851E-2,1.2129655E-2,1.3706564E-2],"categories":[],"categories_nodes":[],"categories_segments":[],"categories_sizes":[],"default_left":[0,0,0,0,0,0,0,0,0,0,0,0,0,0,0,0,0,0,0,0,0,0,0,0,0,0,0,0,0,0,0,0,0,0,0,0,0,0,0,0,0,0,0,0,0,0,0,0,0,0,0,0,0,0,0,0,0,0,0,0,0,0,0,0,0,0,0,0,0,0,0,0,0,0,0,0,0,0,0,0,0,0,0,0,0,0,0,0,0,0,0,0,0,0,0,0,0,0,0,0,0,0,0,0,0,0,0,0,0,0,0,0,0,0,0,0,0,0,0,0,0,0,0,0,0,0,0],"id":6,"left_children":[1,3,5,7,9,11,13,15,17,19,21,23,25,27,29,31,33,35,37,39,41,43,45,47,49,51,53,55,57,59,61,63,65,67,69,71,73,75,77,79,81,83,85,87,89,91,93,95,97,99,101,103,105,107,109,111,113,115,117,119,121,123,125,-1,-1,-1,-1,-1,-1,-1,-1,-1,-1,-1,-1,-1,-1,-1,-1,-1,-1,-1,-1,-1,-1,-1,-1,-1,-1,-1,-1,-1,-1,-1,-1,-1,-1,-1,-1,-1,-1,-1,-1,-1,-1,-1,-1,-1,-1,-1,-1,-1,-1,-1,-1,-1,-1,-1,-1,-1,-1,-1,-1,-1,-1,-1,-1],"loss_changes":[4.3811137E4,6.6878633E3,6.149617E3,1.0299492E3,9.335083E2,7.2447156E2,8.177988E2,1.6115723E2,1.5121387E2,1.136626E2,1.2343939E2,9.148796E1,9.162085E1,1.1209082E2,1.2055762E2,2.1487305E1,2.8160156E1,1.7488281E1,1.9562012E1,1.5297852E1,1.2991699E1,1.8208069E1,1.2657455E1,9.946782E0,1.3210144E1,1.0921082E1,1.3405273E1,9.330078E0,1.9185547E1,3.9962402E1,3.9246582E1,4.5214844E0,1.7856445E0,4.158203E0,2.7514648E0,3.4824219E0,1.3837891E0,2.1557617E0,2.5170898E0,1.927002E0,2.354248E0,2.0635986E0,2.185608E0,2.4176636E0,3.940796E0,4.7148438E0,5.392769E0,5.4994845E0,5.8415165E0,5.861992E0,6.531143E0,5.5562286E0,6.0479736E0,6.2335815E0,6.846924E0,2.0717163E0,7.300415E0,1.1769775E1,2.8075928E1,4.591797E0,2.054248E1,8.114746E0,1.3808594E0,0E0,0E0,0E0,0E0,0E0,0E0,0E0,0E0,0E0,0E0,0E0,0E0,0E0,0E0,0E0,0E0,0E0,0E0,0E0,0E0,0E0,0E0,0E0,0E0,0E0,0E0,0E0,0E0,0E0,0E0,0E0,0E0,0E0,0E0,0E0,0E0,0E0,0E0,0E0,0E0,0E0,0E0,0E0,0E0,0E0,0E0,0E0,0E0,0E0,0E0,0E0,0E0,0E0,0E0,0E0,0E0,0E0,0E0,0E0,0E0,0E0,0E0,0E0,0E0],"parents":[2147483647,0,0,1,1,2,2,3,3,4,4,5,5,6,6,7,7,8,8,9,9,10,10,11,11,12,12,13,13,14,14,15,15,16,16,17,17,18,18,19,19,20,20,21,21,22,22,23,23,24,24,25,25,26,26,27,27,28,28,29,29,30,30,31,31,32,32,33,33,34,34,35,35,36,36,37,37,38,38,39,39,40,40,41,41,42,42,43,43,44,44,45,45,46,46,47,47,48,48,49,49,50,50,51,51,52,52,53,53,54,54,55,55,56,56,57,57,58,58,59,59,60,60,61,61,62,62],"right_children":[2,4,6,8,10,12,14,16,18,20,22,24,26,28,30,32,34,36,38,40,42,44,46,48,50,52,54,56,58,60,62,64,66,68,70,72,74,76,78,80,82,84,86,88,90,92,94,96,98,100,102,104,106,108,110,112,114,116,118,120,122,124,126,-1,-1,-1,-1,-1,-1,-1,-1,-1,-1,-1,-1,-1,-1,-1,-1,-1,-1,-1,-1,-1,-1,-1,-1,-1,-1,-1,-1,-1,-1,-1,-1,-1,-1,-1,-1,-1,-1,-1,-1,-1,-1,-1,-1,-1,-1,-1,-1,-1,-1,-1,-1,-1,-1,-1,-1,-1,-1,-1,-1,-1,-1,-1,-1],"split_conditions":[-9.552348E-2,-1.0628002E0,7.439997E-1,-1.6650668E0,-5.700366E-1,3.2423812E-1,1.2002623E0,-2.0848284E0,-1.3548082E0,-8.072931E-1,-3.145295E-1,1.0523207E-1,5.2499366E-1,9.2650473E-1,1.4375188E0,-2.3038344E0,-1.8475718E0,-1.4825617E0,-1.2088042E0,-9.350466E-1,-6.977901E-1,-4.4228303E-1,-2.0502649E-1,-4.2709555E-3,1.9648458E-1,4.1549063E-1,6.344967E-1,7.294252E-1,1.0542582E0,3.3835456E-1,1.5287714E0,-2.431588E0,-2.2125819E0,-1.9753253E0,-1.7563193E0,-1.5920647E0,-1.4278102E0,-1.3000567E0,-1.1358021E0,-1.1248065E0,-1.0447234E0,-9.769608E-1,-8.9071745E-1,-4.9703455E-1,-6.504682E-1,-4.595008E-1,-3.2397553E-1,-2.0693102E-1,-1.0836721E-1,2.0997794E-2,1.01080894E-1,2.4276637E-1,3.10529E-1,4.6453494E-1,5.5077827E-1,8.170017E-1,8.352522E-1,9.080721E-1,3.5526165E-1,1.3097653E0,1.3097653E0,1.5179356E0,1.3451061E-2,-2.015674E-2,-1.8595897E-2,-1.7761726E-2,-1.689092E-2,-1.596374E-2,-1.5035184E-2,-1.4173478E-2,-1.3458467E-2,-1.2796733E-2,-1.2061445E-2,-1.14417635E-2,-1.0925204E-2,-1.0428926E-2,-9.85096E-3,-9.206205E-3,-8.6366655E-3,-7.5616487E-3,-8.077689E-3,-6.5370547E-3,-7.086587E-3,-5.558074E-3,-6.1228643E-3,-4.618244E-3,-5.1701395E-3,-4.24353E-3,-3.7227918E-3,-2.3719633E-3,-3.185374E-3,-1.4972974E-3,-2.3220961E-3,-6.1894645E-4,-1.4823949E-3,2.1005441E-4,-7.398539E-4,1.0105206E-3,8.574705E-5,1.7657757E-3,8.0549234E-4,2.7092816E-3,1.7555319E-3,3.5526298E-3,2.5402964E-3,4.475389E-3,3.4031041E-3,5.23827E-3,4.2090635E-3,6.276082E-3,5.0912695E-3,6.843246E-3,7.7653206E-3,5.8269305E-3,6.6047125E-3,8.497683E-3,7.392216E-3,9.476148E-3,7.965349E-3,1.0845399E-2,1.177587E-2,8.9963395E-3,1.0201181E-2,1.2972729E-2,1.1439851E-2,1.2129655E-2,1.3706564E-2],"split_indices":[4,4,4,4,4,4,4,4,4,4,4,4,4,4,4,4,4,4,4,4,4,4,4,4,4,4,4,0,4,1,4,4,4,4,4,4,4,4,4,0,0,0,0,4,0,0,0,0,0,0,0,0,0,0,0,4,4,0,1,4,4,0,3,0,0,0,0,0,0,0,0,0,0,0,0,0,0,0,0,0,0,0,0,0,0,0,0,0,0,0,0,0,0,0,0,0,0,0,0,0,0,0,0,0,0,0,0,0,0,0,0,0,0,0,0,0,0,0,0,0,0,0,0,0,0,0,0],"split_type":[0,0,0,0,0,0,0,0,0,0,0,0,0,0,0,0,0,0,0,0,0,0,0,0,0,0,0,0,0,0,0,0,0,0,0,0,0,0,0,0,0,0,0,0,0,0,0,0,0,0,0,0,0,0,0,0,0,0,0,0,0,0,0,0,0,0,0,0,0,0,0,0,0,0,0,0,0,0,0,0,0,0,0,0,0,0,0,0,0,0,0,0,0,0,0,0,0,0,0,0,0,0,0,0,0,0,0,0,0,0,0,0,0,0,0,0,0,0,0,0,0,0,0,0,0,0,0],"sum_hessian":[2.510252E6,1.098838E6,1.411414E6,4.29629E5,6.69209E5,6.90065E5,7.21349E5,1.53139E5,2.7649E5,3.11546E5,3.57663E5,3.44101E5,3.45964E5,3.91686E5,3.29663E5,4.6792E4,1.06347E5,1.26606E5,1.49884E5,1.54105E5,1.57441E5,1.86248E5,1.71415E5,1.63089E5,1.81012E5,1.66258E5,1.79706E5,1.45727E5,2.45959E5,1.98122E5,1.31541E5,1.9174E4,2.7618E4,5.076E4,5.5587E4,7.1226E4,5.538E4,7.1266E4,7.8618E4,7.4082E4,8.0023E4,7.0829E4,8.6612E4,9.0909E4,9.5339E4,8.4747E4,8.6668E4,7.3573E4,8.9516E4,7.5336E4,1.05676E5,7.5519E4,9.0739E4,9.0231E4,8.9475E4,2.4618E4,1.21109E5,1.18968E5,1.26991E5,5.4012E4,1.4411E5,1.00785E5,3.0756E4,9.631E3,9.543E3,9.645E3,1.7973E4,2.1121E4,2.9639E4,2.5792E4,2.9795E4,2.5548E4,4.5678E4,2.2885E4,3.2495E4,2.5712E4,4.5554E4,3.8374E4,4.0244E4,3.319E4,4.0892E4,3.4635E4,4.5388E4,2.5367E4,4.5462E4,2.5568E4,6.1044E4,5.1322E4,3.9587E4,1.8489E4,7.685E4,2.43E4,6.0447E4,2.5714E4,6.0954E4,2.1547E4,5.2026E4,2.297E4,6.6546E4,2.2783E4,5.2553E4,2.2928E4,8.2748E4,1.7718E4,5.7801E4,1.5972E4,7.4767E4,1.8539E4,7.1692E4,1.4593E4,7.4882E4,1.2447E4,1.2171E4,5.824E4,6.2869E4,3.3636E4,8.5332E4,5.2425E4,7.4566E4,2.9311E4,2.4701E4,6.2866E4,8.1244E4,9.605E3,9.118E4,1.539E3,2.9217E4],"tree_param":{"num_deleted":"0","num_feature":"5","num_nodes":"127","size_leaf_vector":"1"}},{"base_weights":[7.11957E-5,-1.439455E-1,1.094384E-1,-2.3658134E-1,-8.555716E-2,4.3949656E-2,1.7076781E-1,-2.9922748E-1,-2.0280765E-1,-1.2361114E-1,-5.2483942E-2,1.307337E-2,7.464495E-2,1.4008485E-1,2.0537679E-1,-3.4371227E-1,-2.7848357E-1,-2.2696473E-1,-1.824255E-1,-1.4348568E-1,-1.0693126E-1,-7.074863E-2,-3.549381E-2,-3.3198525E-3,2.7808024E-2,5.856707E-2,8.9491636E-2,1.20472044E-1,1.5373047E-1,1.8934399E-1,2.2718263E-1,-3.6811304E-1,-3.267446E-1,-2.9771757E-1,-2.670419E-1,-2.3811994E-1,-2.1573092E-1,-1.9386208E-1,-1.7214388E-1,-1.5343316E-1,-1.3547716E-1,-1.18110254E-1,-9.891017E-2,-8.03735E-2,-6.2876E-2,-4.5265898E-2,-2.7319025E-2,-1.1636806E-2,3.5309687E-3,1.8183291E-2,3.4653064E-2,5.0217763E-2,6.550109E-2,8.1326686E-2,9.770558E-2,1.12386525E-1,1.2732548E-1,1.4633794E-1,1.6163161E-1,2.117374E-1,1.8043515E-1,2.1880928E-1,2.588715E-1,-1.9151088E-2,-1.7659076E-2,-1.6601553E-2,-1.5733434E-2,-1.51657555E-2,-1.4523633E-2,-1.379806E-2,-1.2979882E-2,-1.2307252E-2,-1.1639061E-2,-1.10714985E-2,-1.0517801E-2,-9.972754E-3,-9.4317105E-3,-8.885303E-3,-8.34336E-3,-7.3864083E-3,-7.93123E-3,-6.4795427E-3,-7.0222276E-3,-5.5780583E-3,-6.150699E-3,-5.1530222E-3,-4.6100267E-3,-3.52032E-3,-4.1559394E-3,-2.520761E-3,-3.28518E-3,-1.7359045E-3,-2.5058337E-3,-7.599216E-4,-1.5837932E-3,-4.986483E-6,-8.967467E-4,8.475696E-4,-5.7968882E-5,1.5612737E-3,6.1840256E-4,2.479316E-3,1.5406677E-3,3.2646407E-3,2.2758755E-3,4.1080844E-3,3.0844512E-3,4.9045156E-3,3.8752665E-3,5.7962653E-3,4.6944455E-3,6.627787E-3,5.4251156E-3,7.352005E-3,6.1727925E-3,8.072285E-3,7.019279E-3,8.65448E-3,7.2130635E-3,1.0171329E-2,1.1052529E-2,8.394888E-3,9.520353E-3,1.2264423E-2,1.0793361E-2,1.1206112E-2,1.2999663E-2],"categories":[],"categories_nodes":[],"categories_segments":[],"categories_sizes":[],"default_left":[0,0,0,0,0,0,0,0,0,0,0,0,0,0,0,0,0,0,0,0,0,0,0,0,0,0,0,0,0,0,0,0,0,0,0,0,0,0,0,0,0,0,0,0,0,0,0,0,0,0,0,0,0,0,0,0,0,0,0,0,0,0,0,0,0,0,0,0,0,0,0,0,0,0,0,0,0,0,0,0,0,0,0,0,0,0,0,0,0,0,0,0,0,0,0,0,0,0,0,0,0,0,0,0,0,0,0,0,0,0,0,0,0,0,0,0,0,0,0,0,0,0,0,0,0,0,0],"id":7,"left_children":[1,3,5,7,9,11,13,15,17,19,21,23,25,27,29,31,33,35,37,39,41,43,45,47,49,51,53,55,57,59,61,63,65,67,69,71,73,75,77,79,81,83,85,87,89,91,93,95,97,99,101,103,105,107,109,111,113,115,117,119,121,123,125,-1,-1,-1,-1,-1,-1,-1,-1,-1,-1,-1,-1,-1,-1,-1,-1,-1,-1,-1,-1,-1,-1,-1,-1,-1,-1,-1,-1,-1,-1,-1,-1,-1,-1,-1,-1,-1,-1,-1,-1,-1,-1,-1,-1,-1,-1,-1,-1,-1,-1,-1,-1,-1,-1,-1,-1,-1,-1,-1,-1,-1,-1,-1,-1],"loss_changes":[3.954198E4,5.8609824E3,5.730955E3,8.863164E2,8.3651416E2,6.5399854E2,7.824336E2,1.3531543E2,1.3398047E2,1.0243848E2,1.1034827E2,8.3095665E1,8.259534E1,1.0451221E2,1.2101465E2,1.9199707E1,2.1944824E1,1.5557617E1,1.732666E1,1.1213623E1,1.505603E1,1.2980347E1,1.471608E1,9.278446E0,1.1935226E1,9.614929E0,1.2057739E1,8.865967E0,1.34296875E1,3.977246E1,3.887256E1,4.123535E0,1.6533203E0,1.4255371E0,4.095703E0,2.6201172E0,1.8547363E0,2.0058594E0,2.2521973E0,1.8392334E0,2.2664795E0,2.2405396E0,2.71521E0,2.1038818E0,3.3182678E0,4.2918396E0,5.2970047E0,5.3443594E0,5.6206326E0,5.7105484E0,6.069153E0,5.338135E0,5.7590027E0,5.7724E0,6.225281E0,5.7459106E0,6.5981445E0,1.0678955E1,2.2131348E1,4.350586E0,1.7817383E1,8.988281E0,1.1369629E0,0E0,0E0,0E0,0E0,0E0,0E0,0E0,0E0,0E0,0E0,0E0,0E0,0E0,0E0,0E0,0E0,0E0,0E0,0E0,0E0,0E0,0E0,0E0,0E0,0E0,0E0,0E0,0E0,0E0,0E0,0E0,0E0,0E0,0E0,0E0,0E0,0E0,0E0,0E0,0E0,0E0,0E0,0E0,0E0,0E0,0E0,0E0,0E0,0E0,0E0,0E0,0E0,0E0,0E0,0E0,0E0,0E0,0E0,0E0,0E0,0E0,0E0,0E0,0E0],"parents":[2147483647,0,0,1,1,2,2,3,3,4,4,5,5,6,6,7,7,8,8,9,9,10,10,11,11,12,12,13,13,14,14,15,15,16,16,17,17,18,18,19,19,20,20,21,21,22,22,23,23,24,24,25,25,26,26,27,27,28,28,29,29,30,30,31,31,32,32,33,33,34,34,35,35,36,36,37,37,38,38,39,39,40,40,41,41,42,42,43,43,44,44,45,45,46,46,47,47,48,48,49,49,50,50,51,51,52,52,53,53,54,54,55,55,56,56,57,57,58,58,59,59,60,60,61,61,62,62],"right_children":[2,4,6,8,10,12,14,16,18,20,22,24,26,28,30,32,34,36,38,40,42,44,46,48,50,52,54,56,58,60,62,64,66,68,70,72,74,76,78,80,82,84,86,88,90,92,94,96,98,100,102,104,106,108,110,112,114,116,118,120,122,124,126,-1,-1,-1,-1,-1,-1,-1,-1,-1,-1,-1,-1,-1,-1,-1,-1,-1,-1,-1,-1,-1,-1,-1,-1,-1,-1,-1,-1,-1,-1,-1,-1,-1,-1,-1,-1,-1,-1,-1,-1,-1,-1,-1,-1,-1,-1,-1,-1,-1,-1,-1,-1,-1,-1,-1,-1,-1,-1,-1,-1,-1,-1,-1,-1],"split_conditions":[-1.1377398E-1,-1.0810506E0,7.257492E-1,-1.6833173E0,-5.8828706E-1,3.059876E-1,1.1820117E0,-2.0848284E0,-1.3730587E0,-8.437941E-1,-3.5103053E-1,8.6981565E-2,5.0674313E-1,9.2650473E-1,1.4192684E0,-2.3038344E0,-1.9023234E0,-1.5190628E0,-1.2270547E0,-9.7154766E-1,-7.342911E-1,-4.7878405E-1,-2.415275E-1,-2.2521459E-2,1.7823409E-1,3.9724013E-1,6.1624616E-1,8.170017E-1,1.0542582E0,3.3835456E-1,1.5287714E0,-2.431588E0,-2.1395798E0,-1.9753253E0,-1.7928203E0,-1.6103153E0,-1.4460608E0,-1.3000567E0,-1.1540527E0,-1.1309668E0,-1.0632042E0,-9.892813E-1,-6.430386E-1,-8.106344E-1,-6.9975007E-1,-4.8414174E-1,-3.7325746E-1,-2.0693102E-1,-1.3300817E-1,2.5170795E-3,7.02797E-2,2.2428566E-1,3.0436876E-1,4.2757353E-1,5.4461807E-1,6.493421E-1,7.725469E-1,9.080721E-1,4.3416575E-1,1.2915148E0,1.2915148E0,1.474814E0,-1.4400052E-1,-1.9151088E-2,-1.7659076E-2,-1.6601553E-2,-1.5733434E-2,-1.51657555E-2,-1.4523633E-2,-1.379806E-2,-1.2979882E-2,-1.2307252E-2,-1.1639061E-2,-1.10714985E-2,-1.0517801E-2,-9.972754E-3,-9.4317105E-3,-8.885303E-3,-8.34336E-3,-7.3864083E-3,-7.93123E-3,-6.4795427E-3,-7.0222276E-3,-5.5780583E-3,-6.150699E-3,-5.1530222E-3,-4.6100267E-3,-3.52032E-3,-4.1559394E-3,-2.520761E-3,-3.28518E-3,-1.7359045E-3,-2.5058337E-3,-7.599216E-4,-1.5837932E-3,-4.986483E-6,-8.967467E-4,8.475696E-4,-5.7968882E-5,1.5612737E-3,6.1840256E-4,2.479316E-3,1.5406677E-3,3.2646407E-3,2.2758755E-3,4.1080844E-3,3.0844512E-3,4.9045156E-3,3.8752665E-3,5.7962653E-3,4.6944455E-3,6.627787E-3,5.4251156E-3,7.352005E-3,6.1727925E-3,8.072285E-3,7.019279E-3,8.65448E-3,7.2130635E-3,1.0171329E-2,1.1052529E-2,8.394888E-3,9.520353E-3,1.2264423E-2,1.0793361E-2,1.1206112E-2,1.2999663E-2],"split_indices":[4,4,4,4,4,4,4,4,4,4,4,4,4,4,4,4,4,4,4,4,4,4,4,4,4,4,4,4,4,1,4,4,4,4,4,4,4,4,4,0,0,0,4,0,0,0,0,0,0,0,0,0,0,0,0,0,0,0,1,4,4,0,2,0,0,0,0,0,0,0,0,0,0,0,0,0,0,0,0,0,0,0,0,0,0,0,0,0,0,0,0,0,0,0,0,0,0,0,0,0,0,0,0,0,0,0,0,0,0,0,0,0,0,0,0,0,0,0,0,0,0,0,0,0,0,0,0],"split_type":[0,0,0,0,0,0,0,0,0,0,0,0,0,0,0,0,0,0,0,0,0,0,0,0,0,0,0,0,0,0,0,0,0,0,0,0,0,0,0,0,0,0,0,0,0,0,0,0,0,0,0,0,0,0,0,0,0,0,0,0,0,0,0,0,0,0,0,0,0,0,0,0,0,0,0,0,0,0,0,0,0,0,0,0,0,0,0,0,0,0,0,0,0,0,0,0,0,0,0,0,0,0,0,0,0,0,0,0,0,0,0,0,0,0,0,0,0,0,0,0,0,0,0,0,0,0,0],"sum_hessian":[2.510488E6,1.083593E6,1.426895E6,4.18933E5,6.6466E5,6.90049E5,7.36846E5,1.4674E5,2.72193E5,3.09057E5,3.55603E5,3.44011E5,3.46038E5,3.90579E5,3.46267E5,4.6661E4,1.00079E5,1.24557E5,1.47636E5,1.4102E5,1.68037E5,1.71372E5,1.84231E5,1.62841E5,1.8117E5,1.66133E5,1.79905E5,1.60255E5,2.30324E5,1.99554E5,1.46713E5,1.913E4,2.7531E4,3.7319E4,6.276E4,6.2487E4,6.207E4,6.9884E4,7.7752E4,6.2888E4,7.8132E4,7.0194E4,9.7843E4,7.7101E4,9.4271E4,8.3915E4,1.00316E5,7.355E4,8.9291E4,7.5298E4,1.05872E5,7.5378E4,9.0755E4,9.0227E4,8.9678E4,7.3527E4,8.6728E4,1.19002E5,1.11322E5,5.6788E4,1.42766E5,1.16055E5,3.0658E4,9.56E3,9.57E3,1.913E4,8.401E3,2.103E4,1.6289E4,2.8535E4,3.4225E4,2.4945E4,3.7542E4,3.0107E4,3.1963E4,3.3745E4,3.6139E4,3.7836E4,3.9916E4,2.9976E4,3.2912E4,3.5771E4,4.2361E4,3.0065E4,4.0129E4,6.0442E4,3.7401E4,1.6656E4,6.0445E4,1.7439E4,7.6832E4,2.6437E4,5.7478E4,2.6526E4,7.379E4,2.5973E4,4.7577E4,2.3124E4,6.6167E4,2.3219E4,5.2079E4,2.1652E4,8.422E4,1.7913E4,5.7465E4,1.6895E4,7.386E4,1.6745E4,7.3482E4,1.5527E4,7.4151E4,1.1868E4,6.1659E4,1.4224E4,7.2504E4,3.3627E4,8.5375E4,6.7071E4,4.4251E4,3.0021E4,2.6767E4,6.3255E4,7.9511E4,1.1597E4,1.04458E5,9.65E2,2.9693E4],"tree_param":{"num_deleted":"0","num_feature":"5","num_nodes":"127","size_leaf_vector":"1"}},{"base_weights":[2.4826675E-5,-1.3840465E-1,1.0273806E-1,-2.2643813E-1,-8.38376E-2,4.055427E-2,1.6222543E-1,-2.842552E-1,-1.9409642E-1,-1.1998341E-1,-5.246855E-2,9.935034E-3,6.967964E-2,1.3431469E-1,1.9660279E-1,-3.2661507E-1,-2.645586E-1,-2.170461E-1,-1.7585285E-1,-1.3881859E-1,-1.04210615E-1,-6.982835E-2,-3.6374595E-2,-5.621023E-3,2.3908693E-2,5.309239E-2,8.381238E-2,1.14465296E-1,1.4723624E-1,1.8652283E-1,2.2709574E-1,-3.498457E-1,-3.103824E-1,-2.82831E-1,-2.53708E-1,-2.2752489E-1,-2.0753351E-1,-1.8678546E-1,-1.6608098E-1,-1.483035E-1,-1.3124198E-1,-1.1339192E-1,-9.542221E-2,-7.88984E-2,-6.2362697E-2,-4.5643955E-2,-2.8622668E-2,-1.3414999E-2,7.9594634E-4,1.6221598E-2,3.15073E-2,4.5236085E-2,5.962127E-2,7.480019E-2,9.16218E-2,1.08003505E-1,1.22317195E-1,1.3994148E-1,1.5602408E-1,2.061326E-1,1.8029767E-1,2.3517047E-1,1.957502E-1,-1.8199606E-2,-1.6780987E-2,-1.6046248E-2,-1.5235518E-2,-1.440564E-2,-1.3799222E-2,-1.310952E-2,-1.23311905E-2,-1.1692673E-2,-1.1115174E-2,-1.0643217E-2,-1.0127517E-2,-9.603645E-3,-9.092135E-3,-8.572716E-3,-8.049327E-3,-7.141006E-3,-7.6689385E-3,-6.2910863E-3,-6.8074535E-3,-5.397522E-3,-5.8942977E-3,-4.42364E-3,-4.954002E-3,-3.4570897E-3,-4.0807924E-3,-2.5078822E-3,-3.2490813E-3,-1.8363878E-3,-2.5481468E-3,-8.21316E-4,-1.6354959E-3,-5.691069E-5,-9.7080506E-4,6.547621E-4,-2.038499E-4,1.4340145E-3,5.585735E-4,2.2292961E-3,1.3570708E-3,2.9137987E-3,2.0054402E-3,3.7160756E-3,2.783044E-3,4.565641E-3,3.5607058E-3,5.4437197E-3,4.4061965E-3,6.3152905E-3,5.2163685E-3,7.084317E-3,5.930538E-3,7.6962234E-3,6.736539E-3,8.772128E-3,7.238777E-3,9.906256E-3,1.100326E-2,8.264627E-3,9.602266E-3,1.1310856E-2,1.2366036E-2,9.576508E-3,1.1810387E-2],"categories":[],"categories_nodes":[],"categories_segments":[],"categories_sizes":[],"default_left":[0,0,0,0,0,0,0,0,0,0,0,0,0,0,0,0,0,0,0,0,0,0,0,0,0,0,0,0,0,0,0,0,0,0,0,0,0,0,0,0,0,0,0,0,0,0,0,0,0,0,0,0,0,0,0,0,0,0,0,0,0,0,0,0,0,0,0,0,0,0,0,0,0,0,0,0,0,0,0,0,0,0,0,0,0,0,0,0,0,0,0,0,0,0,0,0,0,0,0,0,0,0,0,0,0,0,0,0,0,0,0,0,0,0,0,0,0,0,0,0,0,0,0,0,0,0,0],"id":8,"left_children":[1,3,5,7,9,11,13,15,17,19,21,23,25,27,29,31,33,35,37,39,41,43,45,47,49,51,53,55,57,59,61,63,65,67,69,71,73,75,77,79,81,83,85,87,89,91,93,95,97,99,101,103,105,107,109,111,113,115,117,119,121,123,125,-1,-1,-1,-1,-1,-1,-1,-1,-1,-1,-1,-1,-1,-1,-1,-1,-1,-1,-1,-1,-1,-1,-1,-1,-1,-1,-1,-1,-1,-1,-1,-1,-1,-1,-1,-1,-1,-1,-1,-1,-1,-1,-1,-1,-1,-1,-1,-1,-1,-1,-1,-1,-1,-1,-1,-1,-1,-1,-1,-1,-1,-1,-1,-1],"loss_changes":[3.5681297E4,5.1346914E3,5.328949E3,7.6477734E2,7.4820654E2,6.281211E2,7.064121E2,1.22331055E2,1.097832E2,9.107031E1,9.8701294E1,7.463847E1,8.4615845E1,1.04206055E2,1.0136035E2,1.7450684E1,1.9786133E1,1.1531738E1,1.5581543E1,1.0021973E1,1.3453613E1,1.150354E1,1.317189E1,8.126338E0,1.0564964E1,8.515411E0,1.3710571E1,8.116211E0,1.5755859E1,3.0231445E1,2.0697754E1,3.730713E0,1.541748E0,1.2697754E0,3.711914E0,1.7741699E0,1.574707E0,1.767334E0,2.084961E0,1.7045898E0,2.0493164E0,1.9829102E0,2.1585693E0,2.028717E0,2.9767456E0,3.9576874E0,4.976387E0,5.405383E0,5.340992E0,5.6572E0,5.192749E0,5.0372314E0,5.275879E0,5.351959E0,6.291626E0,5.901123E0,5.175537E0,9.778809E0,2.4357422E1,6.6210938E0,3.3145508E1,7.033203E0,2.8220215E0,0E0,0E0,0E0,0E0,0E0,0E0,0E0,0E0,0E0,0E0,0E0,0E0,0E0,0E0,0E0,0E0,0E0,0E0,0E0,0E0,0E0,0E0,0E0,0E0,0E0,0E0,0E0,0E0,0E0,0E0,0E0,0E0,0E0,0E0,0E0,0E0,0E0,0E0,0E0,0E0,0E0,0E0,0E0,0E0,0E0,0E0,0E0,0E0,0E0,0E0,0E0,0E0,0E0,0E0,0E0,0E0,0E0,0E0,0E0,0E0,0E0,0E0,0E0,0E0],"parents":[2147483647,0,0,1,1,2,2,3,3,4,4,5,5,6,6,7,7,8,8,9,9,10,10,11,11,12,12,13,13,14,14,15,15,16,16,17,17,18,18,19,19,20,20,21,21,22,22,23,23,24,24,25,25,26,26,27,27,28,28,29,29,30,30,31,31,32,32,33,33,34,34,35,35,36,36,37,37,38,38,39,39,40,40,41,41,42,42,43,43,44,44,45,45,46,46,47,47,48,48,49,49,50,50,51,51,52,52,53,53,54,54,55,55,56,56,57,57,58,58,59,59,60,60,61,61,62,62],"right_children":[2,4,6,8,10,12,14,16,18,20,22,24,26,28,30,32,34,36,38,40,42,44,46,48,50,52,54,56,58,60,62,64,66,68,70,72,74,76,78,80,82,84,86,88,90,92,94,96,98,100,102,104,106,108,110,112,114,116,118,120,122,124,126,-1,-1,-1,-1,-1,-1,-1,-1,-1,-1,-1,-1,-1,-1,-1,-1,-1,-1,-1,-1,-1,-1,-1,-1,-1,-1,-1,-1,-1,-1,-1,-1,-1,-1,-1,-1,-1,-1,-1,-1,-1,-1,-1,-1,-1,-1,-1,-1,-1,-1,-1,-1,-1,-1,-1,-1,-1,-1,-1,-1,-1,-1,-1,-1],"split_conditions":[-1.3202448E-1,-1.0993012E0,7.257492E-1,-1.6833173E0,-6.065376E-1,2.877371E-1,1.2002623E0,-2.0848284E0,-1.3913093E0,-8.6204463E-1,-3.6928102E-1,6.873106E-2,4.8849264E-1,9.2650473E-1,2.0629358E0,-2.3038344E0,-1.9023234E0,-1.5373132E0,-1.2453052E0,-9.897981E-1,-7.342911E-1,-4.9703455E-1,-2.59778E-1,-4.077196E-2,1.7823409E-1,3.789896E-1,5.9799564E-1,8.352522E-1,1.0725088E0,3.3835456E-1,2.1925607E0,-2.431588E0,-2.2125819E0,-1.9753253E0,-1.7928203E0,-1.6103153E0,-1.4643112E0,-1.3183072E0,-1.1723032E0,-1.1432872E0,-1.0755246E0,-9.892813E-1,-9.0919816E-1,-8.3527535E-1,-7.2439104E-1,-4.8414174E-1,-3.978984E-1,-2.3773222E-1,-1.391684E-1,-1.5963634E-2,8.876041E-2,2.2428566E-1,3.0436876E-1,3.9677233E-1,5.2613735E-1,6.6782284E-1,7.8486735E-1,9.2655283E-1,3.3835456E-1,1.3462663E0,1.3462663E0,1.5287714E0,1.5652723E0,-1.8199606E-2,-1.6780987E-2,-1.6046248E-2,-1.5235518E-2,-1.440564E-2,-1.3799222E-2,-1.310952E-2,-1.23311905E-2,-1.1692673E-2,-1.1115174E-2,-1.0643217E-2,-1.0127517E-2,-9.603645E-3,-9.092135E-3,-8.572716E-3,-8.049327E-3,-7.141006E-3,-7.6689385E-3,-6.2910863E-3,-6.8074535E-3,-5.397522E-3,-5.8942977E-3,-4.42364E-3,-4.954002E-3,-3.4570897E-3,-4.0807924E-3,-2.5078822E-3,-3.2490813E-3,-1.8363878E-3,-2.5481468E-3,-8.21316E-4,-1.6354959E-3,-5.691069E-5,-9.7080506E-4,6.547621E-4,-2.038499E-4,1.4340145E-3,5.585735E-4,2.2292961E-3,1.3570708E-3,2.9137987E-3,2.0054402E-3,3.7160756E-3,2.783044E-3,4.565641E-3,3.5607058E-3,5.4437197E-3,4.4061965E-3,6.3152905E-3,5.2163685E-3,7.084317E-3,5.930538E-3,7.6962234E-3,6.736539E-3,8.772128E-3,7.238777E-3,9.906256E-3,1.100326E-2,8.264627E-3,9.602266E-3,1.1310856E-2,1.2366036E-2,9.576508E-3,1.1810387E-2],"split_indices":[4,4,4,4,4,4,4,4,4,4,4,4,4,4,1,4,4,4,4,4,4,4,4,4,4,4,4,4,4,1,1,4,4,4,4,4,4,4,4,0,0,0,0,0,0,0,0,0,0,0,0,0,0,0,0,0,0,0,1,4,4,4,4,0,0,0,0,0,0,0,0,0,0,0,0,0,0,0,0,0,0,0,0,0,0,0,0,0,0,0,0,0,0,0,0,0,0,0,0,0,0,0,0,0,0,0,0,0,0,0,0,0,0,0,0,0,0,0,0,0,0,0,0,0,0,0,0],"split_type":[0,0,0,0,0,0,0,0,0,0,0,0,0,0,0,0,0,0,0,0,0,0,0,0,0,0,0,0,0,0,0,0,0,0,0,0,0,0,0,0,0,0,0,0,0,0,0,0,0,0,0,0,0,0,0,0,0,0,0,0,0,0,0,0,0,0,0,0,0,0,0,0,0,0,0,0,0,0,0,0,0,0,0,0,0,0,0,0,0,0,0,0,0,0,0,0,0,0,0,0,0,0,0,0,0,0,0,0,0,0,0,0,0,0,0,0,0,0,0,0,0,0,0,0,0,0,0],"sum_hessian":[2.509489E6,1.068901E6,1.440588E6,4.09021E5,6.5988E5,7.04332E5,7.36256E5,1.46721E5,2.623E5,3.06595E5,3.53285E5,3.43361E5,3.60971E5,4.06349E5,3.29907E5,4.6564E4,1.00157E5,1.16162E5,1.46138E5,1.39729E5,1.66866E5,1.69957E5,1.83328E5,1.62481E5,1.8088E5,1.66067E5,1.94904E5,1.60227E5,2.46122E5,2.4795E5,8.1957E4,1.9145E4,2.7419E4,3.7307E4,6.285E4,5.5263E4,6.0899E4,6.8964E4,7.7174E4,6.2042E4,7.7687E4,8.1603E4,8.5263E4,7.6729E4,9.3228E4,8.349E4,9.9838E4,7.3368E4,8.9113E4,8.9918E4,9.0962E4,7.5375E4,9.0692E4,9.0489E4,1.04415E5,8.7902E4,7.2325E4,1.34495E5,1.11627E5,5.9738E4,1.88212E5,6.5164E4,1.6793E4,9.587E3,9.558E3,9.572E3,1.7847E4,2.1037E4,1.627E4,2.8586E4,3.4264E4,2.4963E4,3.03E4,2.9403E4,3.1496E4,3.3302E4,3.5662E4,3.7543E4,3.9631E4,2.9836E4,3.2206E4,3.6926E4,4.0761E4,3.6922E4,4.4681E4,2.9411E4,5.5852E4,1.6721E4,6.0008E4,1.6474E4,7.6754E4,3.1199E4,5.2291E4,2.5061E4,7.4777E4,2.4089E4,4.9279E4,2.5287E4,6.3826E4,2.5934E4,6.3984E4,2.2763E4,6.8199E4,2.127E4,5.4105E4,1.9244E4,7.1448E4,1.6141E4,7.4348E4,1.7596E4,8.6819E4,1.4697E4,7.3205E4,1.1611E4,6.0714E4,3.6505E4,9.799E4,4.0939E4,7.0688E4,3.7945E4,2.1793E4,8.2654E4,1.05558E5,3.7529E4,2.7635E4,1.5212E4,1.581E3],"tree_param":{"num_deleted":"0","num_feature":"5","num_nodes":"127","size_leaf_vector":"1"}},{"base_weights":[2.7966898E-5,-1.2572952E-1,1.0006101E-1,-2.0322217E-1,-6.952312E-2,4.9330834E-2,1.5722871E-1,-2.5402454E-1,-1.7027213E-1,-1.0222901E-1,-4.0280253E-2,2.1623006E-2,8.304968E-2,1.294686E-1,1.8089803E-1,-2.974947E-1,-2.3456754E-1,-1.8916771E-1,-1.51874E-1,-1.1773472E-1,-8.6094186E-2,-5.417135E-2,-2.4822326E-2,6.4200675E-3,3.906574E-2,7.894397E-2,1.4233403E-1,1.176993E-1,1.4185783E-1,1.705145E-1,2.1573305E-1,-3.2340592E-1,-2.8394789E-1,-2.515353E-1,-2.2535183E-1,-2.045168E-1,-1.7660093E-1,-1.6371053E-1,-1.4099531E-1,-1.2803678E-1,-1.0862274E-1,-9.6389264E-2,-7.79481E-2,-6.2160097E-2,-4.4500522E-2,-4.132164E-2,-2.0293094E-2,-1.1223135E-2,1.1090706E-2,3.0796537E-2,4.8795022E-2,6.765329E-2,9.310751E-2,1.4118525E-1,1.6287404E-1,1.0520859E-1,1.2631094E-1,1.2826769E-1,1.5091155E-1,1.9665304E-1,1.6594733E-1,2.2336012E-1,1.844066E-1,-1.6885841E-2,-1.5448751E-2,-1.44015625E-2,-1.3139166E-2,-1.33045195E-2,-1.20160235E-2,-1.1929671E-2,-1.0517079E-2,-1.084379E-2,-9.740256E-3,-9.423969E-3,-8.3265E-3,-9.090531E-3,-7.881369E-3,-7.952858E-3,-6.833269E-3,-6.8957396E-3,-5.917925E-3,-5.871676E-3,-5.0431844E-3,-5.2543227E-3,-4.3856967E-3,-4.282158E-3,-3.5312157E-3,-3.5892378E-3,-2.7026527E-3,-2.6201566E-3,-1.839019E-3,-2.4841034E-3,-1.6363123E-3,-1.4332702E-3,-6.7603163E-4,-1.0641076E-3,-1.5099761E-4,1.3441364E-4,9.916371E-4,1.0195457E-3,1.962523E-3,2.0195863E-3,2.8253684E-3,2.917738E-3,3.908168E-3,4.1683735E-3,5.1988247E-3,6.0296208E-3,7.1124583E-3,8.501269E-3,6.738017E-3,4.8137647E-3,5.7056327E-3,5.907833E-3,6.719933E-3,5.9258714E-3,6.665067E-3,7.292572E-3,8.485458E-3,9.1584865E-3,1.0481574E-2,8.021262E-3,9.100686E-3,1.0755215E-2,1.1684339E-2,8.730478E-3,1.0000444E-2],"categories":[],"categories_nodes":[],"categories_segments":[],"categories_sizes":[],"default_left":[0,0,0,0,0,0,0,0,0,0,0,0,0,0,0,0,0,0,0,0,0,0,0,0,0,0,0,0,0,0,0,0,0,0,0,0,0,0,0,0,0,0,0,0,0,0,0,0,0,0,0,0,0,0,0,0,0,0,0,0,0,0,0,0,0,0,0,0,0,0,0,0,0,0,0,0,0,0,0,0,0,0,0,0,0,0,0,0,0,0,0,0,0,0,0,0,0,0,0,0,0,0,0,0,0,0,0,0,0,0,0,0,0,0,0,0,0,0,0,0,0,0,0,0,0,0,0],"id":9,"left_children":[1,3,5,7,9,11,13,15,17,19,21,23,25,27,29,31,33,35,37,39,41,43,45,47,49,51,53,55,57,59,61,63,65,67,69,71,73,75,77,79,81,83,85,87,89,91,93,95,97,99,101,103,105,107,109,111,113,115,117,119,121,123,125,-1,-1,-1,-1,-1,-1,-1,-1,-1,-1,-1,-1,-1,-1,-1,-1,-1,-1,-1,-1,-1,-1,-1,-1,-1,-1,-1,-1,-1,-1,-1,-1,-1,-1,-1,-1,-1,-1,-1,-1,-1,-1,-1,-1,-1,-1,-1,-1,-1,-1,-1,-1,-1,-1,-1,-1,-1,-1,-1,-1,-1,-1,-1,-1],"loss_changes":[3.1586518E4,4.8451504E3,4.0557285E3,7.827715E2,6.166494E2,6.9225366E2,4.3200684E2,1.5554102E2,9.858594E1,7.613452E1,7.309216E1,1.07857285E2,8.134009E1,4.410742E1,1.2833691E2,1.9875E1,1.9817383E1,2.6956543E1,1.848462E1,1.455542E1,1.2501343E1,1.3848511E1,1.2039238E1,1.7908382E1,1.5237427E1,4.997986E1,4.8776245E-1,1.6680176E1,1.811914E1,3.2606934E1,1.9429688E1,3.927246E0,3.1530762E0,7.2365723E0,1.6322754E1,7.5180664E0,9.173828E0,7.5498047E0,5.8360596E0,6.9471436E0,5.6187744E0,4.96167E0,4.6870117E0,7.6567993E0,4.946396E0,2.4920273E0,7.1675415E0,3.7535038E0,1.26217575E1,9.006447E0,5.637558E0,1.699353E1,1.4669067E1,4.321289E-1,2.0628738E-1,5.0271606E0,6.041992E0,2.8773804E0,8.390381E0,7.0772705E0,2.0620605E1,5.536621E0,2.4050293E0,0E0,0E0,0E0,0E0,0E0,0E0,0E0,0E0,0E0,0E0,0E0,0E0,0E0,0E0,0E0,0E0,0E0,0E0,0E0,0E0,0E0,0E0,0E0,0E0,0E0,0E0,0E0,0E0,0E0,0E0,0E0,0E0,0E0,0E0,0E0,0E0,0E0,0E0,0E0,0E0,0E0,0E0,0E0,0E0,0E0,0E0,0E0,0E0,0E0,0E0,0E0,0E0,0E0,0E0,0E0,0E0,0E0,0E0,0E0,0E0,0E0,0E0,0E0,0E0],"parents":[2147483647,0,0,1,1,2,2,3,3,4,4,5,5,6,6,7,7,8,8,9,9,10,10,11,11,12,12,13,13,14,14,15,15,16,16,17,17,18,18,19,19,20,20,21,21,22,22,23,23,24,24,25,25,26,26,27,27,28,28,29,29,30,30,31,31,32,32,33,33,34,34,35,35,36,36,37,37,38,38,39,39,40,40,41,41,42,42,43,43,44,44,45,45,46,46,47,47,48,48,49,49,50,50,51,51,52,52,53,53,54,54,55,55,56,56,57,57,58,58,59,59,60,60,61,61,62,62],"right_children":[2,4,6,8,10,12,14,16,18,20,22,24,26,28,30,32,34,36,38,40,42,44,46,48,50,52,54,56,58,60,62,64,66,68,70,72,74,76,78,80,82,84,86,88,90,92,94,96,98,100,102,104,106,108,110,112,114,116,118,120,122,124,126,-1,-1,-1,-1,-1,-1,-1,-1,-1,-1,-1,-1,-1,-1,-1,-1,-1,-1,-1,-1,-1,-1,-1,-1,-1,-1,-1,-1,-1,-1,-1,-1,-1,-1,-1,-1,-1,-1,-1,-1,-1,-1,-1,-1,-1,-1,-1,-1,-1,-1,-1,-1,-1,-1,-1,-1,-1,-1,-1,-1,-1,-1,-1,-1],"split_conditions":[-1.9461055E-1,-1.112486E0,8.218288E-1,-1.371216E0,-7.2439104E-1,3.598109E-1,1.2592057E0,-1.5437027E0,-1.2480112E0,-9.399994E-1,-4.4102007E-1,1.01080894E-1,2.677247E0,1.0743985E0,2.0629358E0,-1.7161894E0,-5.3520757E-1,-5.3520757E-1,-5.3520757E-1,1.3451061E-2,1.3451061E-2,3.7019977E-1,-7.0004636E-1,-7.0004636E-1,3.850179E-1,6.123807E-1,6.6782284E-1,3.233896E-2,3.233896E-2,3.0453926E-1,2.1925607E0,-1.8024328E0,1.3528138E0,-1.4389787E0,-1.4389787E0,-1.315774E0,-1.315774E0,-8.493584E-1,-1.0256978E0,-7.0992005E-1,-1.032403E0,-7.0992005E-1,-5.3520757E-1,-5.3520757E-1,-5.8270556E-1,-1.1815211E-1,-9.1844666E-1,-6.524554E-2,-4.0604588E-2,-7.0992005E-1,-9.1844666E-1,3.7019977E-1,3.7019977E-1,5.0765663E-1,-3.2033998E-1,-3.9994636E-1,-7.0992005E-1,2.8380899E-2,5.074311E-1,1.4563333E0,1.5733778E0,1.653461E0,3.233896E-2,-1.6885841E-2,-1.5448751E-2,-1.44015625E-2,-1.3139166E-2,-1.33045195E-2,-1.20160235E-2,-1.1929671E-2,-1.0517079E-2,-1.084379E-2,-9.740256E-3,-9.423969E-3,-8.3265E-3,-9.090531E-3,-7.881369E-3,-7.952858E-3,-6.833269E-3,-6.8957396E-3,-5.917925E-3,-5.871676E-3,-5.0431844E-3,-5.2543227E-3,-4.3856967E-3,-4.282158E-3,-3.5312157E-3,-3.5892378E-3,-2.7026527E-3,-2.6201566E-3,-1.839019E-3,-2.4841034E-3,-1.6363123E-3,-1.4332702E-3,-6.7603163E-4,-1.0641076E-3,-1.5099761E-4,1.3441364E-4,9.916371E-4,1.0195457E-3,1.962523E-3,2.0195863E-3,2.8253684E-3,2.917738E-3,3.908168E-3,4.1683735E-3,5.1988247E-3,6.0296208E-3,7.1124583E-3,8.501269E-3,6.738017E-3,4.8137647E-3,5.7056327E-3,5.907833E-3,6.719933E-3,5.9258714E-3,6.665067E-3,7.292572E-3,8.485458E-3,9.1584865E-3,1.0481574E-2,8.021262E-3,9.100686E-3,1.0755215E-2,1.1684339E-2,8.730478E-3,1.0000444E-2],"split_indices":[0,0,0,0,0,0,0,0,0,0,0,0,1,0,1,0,1,1,1,3,3,3,3,3,2,0,0,2,2,1,1,0,1,0,0,0,0,2,2,1,0,1,1,1,0,1,1,0,0,1,1,3,3,0,2,1,1,1,1,0,0,0,2,0,0,0,0,0,0,0,0,0,0,0,0,0,0,0,0,0,0,0,0,0,0,0,0,0,0,0,0,0,0,0,0,0,0,0,0,0,0,0,0,0,0,0,0,0,0,0,0,0,0,0,0,0,0,0,0,0,0,0,0,0,0,0,0],"split_type":[0,0,0,0,0,0,0,0,0,0,0,0,0,0,0,0,0,0,0,0,0,0,0,0,0,0,0,0,0,0,0,0,0,0,0,0,0,0,0,0,0,0,0,0,0,0,0,0,0,0,0,0,0,0,0,0,0,0,0,0,0,0,0,0,0,0,0,0,0,0,0,0,0,0,0,0,0,0,0,0,0,0,0,0,0,0,0,0,0,0,0,0,0,0,0,0,0,0,0,0,0,0,0,0,0,0,0,0,0,0,0,0,0,0,0,0,0,0,0,0,0,0,0,0,0,0,0],"sum_hessian":[2.510869E6,1.112402E6,1.398467E6,4.67647E5,6.44755E5,7.40953E5,6.57514E5,1.8398E5,2.83667E5,3.04355E5,3.404E5,4.06731E5,3.34222E5,3.0261E5,3.54904E5,5.6882E4,1.27098E5,1.39937E5,1.4373E5,1.552E5,1.49155E5,1.79285E5,1.61115E5,2.17319E5,1.89412E5,3.12577E5,2.1645E4,1.55193E5,1.47417E5,2.73412E5,8.1492E4,1.9521E4,3.7361E4,4.4725E4,8.2373E4,6.2988E4,7.6949E4,6.8828E4,7.4902E4,7.2837E4,8.2363E4,6.5882E4,8.3273E4,9.8178E4,8.1107E4,3.47E4,1.26415E5,4.5488E4,1.71831E5,1.02391E5,8.7021E4,1.73931E5,1.38646E5,2.0506E4,1.139E3,6.3338E4,9.1855E4,5.8948E4,8.8469E4,4.0661E4,2.32751E5,6.5531E4,1.5961E4,9.79E3,9.731E3,3.1308E4,6.053E3,1.9454E4,2.5271E4,4.3757E4,3.8616E4,2.7707E4,3.5281E4,3.5298E4,4.1651E4,1.7306E4,5.1522E4,1.4477E4,6.0425E4,3.604E4,3.6797E4,3.8561E4,4.3802E4,3.2894E4,3.2988E4,4.0602E4,4.2671E4,4.4884E4,5.3294E4,4.0077E4,4.103E4,1.7588E4,1.7112E4,5.6529E4,6.9886E4,2.0432E4,2.5056E4,8.7618E4,8.4213E4,4.5899E4,5.6492E4,4.1648E4,4.5373E4,9.2288E4,8.1643E4,7.3125E4,6.5521E4,1.013E3,1.9493E4,9.04E2,2.35E2,3.1623E4,3.1715E4,4.5747E4,4.6108E4,2.0079E4,3.8869E4,6.9712E4,1.8757E4,1.995E4,2.0711E4,1.73224E5,5.9527E4,3.6429E4,2.9102E4,9.812E3,6.149E3],"tree_param":{"num_deleted":"0","num_feature":"5","num_nodes":"127","size_leaf_vector":"1"}},{"base_weights":[-6.4591964E-5,-1.2065127E-1,9.6148E-2,-1.99936E-1,-6.887255E-2,4.3373775E-2,1.4990853E-1,-2.519726E-1,-1.6855001E-1,-1.0017011E-1,-3.9316367E-2,1.698833E-2,7.090432E-2,1.2765282E-1,1.8199539E-1,-2.898073E-1,-2.3212409E-1,-1.8788001E-1,-1.5086186E-1,-1.159949E-1,-8.363875E-2,-5.3802237E-2,-2.4626069E-2,2.9639523E-3,3.0706044E-2,5.820857E-2,8.492E-2,1.13286756E-1,1.4030498E-1,1.715571E-1,2.0135263E-1,-3.1646034E-1,-2.7632838E-1,-2.4582037E-1,-2.2021954E-1,-1.9748956E-1,-1.7806427E-1,-1.5935E-1,-1.4197597E-1,-1.2443916E-1,-1.0700928E-1,-9.058858E-2,-7.588937E-2,-6.0864426E-2,-4.5886267E-2,-3.0745309E-2,-1.6273536E-2,-4.0488313E-3,9.892621E-3,2.386018E-2,3.7586816E-2,4.9912333E-2,6.414797E-2,9.974893E-2,8.173809E-2,1.304921E-1,1.078888E-1,1.3374305E-1,1.4885263E-1,1.969281E-1,1.6741605E-1,1.9201306E-1,2.2235754E-1,-1.6456895E-2,-1.5176778E-2,-1.4268766E-2,-1.3350777E-2,-1.2613359E-2,-1.1920501E-2,-1.132977E-2,-1.0721905E-2,-1.0325935E-2,-9.745667E-3,-8.693758E-3,-9.170276E-3,-7.7514984E-3,-8.230492E-3,-6.8448335E-3,-7.359236E-3,-5.9623136E-3,-6.44113E-3,-4.992313E-3,-5.56476E-3,-4.158409E-3,-4.73788E-3,-3.3112464E-3,-3.94907E-3,-2.4538117E-3,-3.1860096E-3,-1.6873099E-3,-2.4908788E-3,-9.3558757E-4,-1.7488853E-3,-3.1478223E-4,-1.1882182E-3,3.7113248E-4,-4.6853293E-4,1.048623E-3,1.9948538E-4,1.8336527E-3,9.457467E-4,2.5479754E-3,1.6522218E-3,3.1967403E-3,2.2659947E-3,4.014627E-3,3.026865E-3,4.618355E-3,5.5327103E-3,3.6658004E-3,4.400716E-3,5.9482222E-3,6.8142037E-3,4.942075E-3,5.6903427E-3,7.803959E-3,6.499909E-3,8.797239E-3,7.249811E-3,9.32139E-3,1.0191735E-2,8.040823E-3,9.10397E-3,1.10627925E-2,9.4720265E-3,9.869027E-3,1.1184542E-2],"categories":[],"categories_nodes":[],"categories_segments":[],"categories_sizes":[],"default_left":[0,0,0,0,0,0,0,0,0,0,0,0,0,0,0,0,0,0,0,0,0,0,0,0,0,0,0,0,0,0,0,0,0,0,0,0,0,0,0,0,0,0,0,0,0,0,0,0,0,0,0,0,0,0,0,0,0,0,0,0,0,0,0,0,0,0,0,0,0,0,0,0,0,0,0,0,0,0,0,0,0,0,0,0,0,0,0,0,0,0,0,0,0,0,0,0,0,0,0,0,0,0,0,0,0,0,0,0,0,0,0,0,0,0,0,0,0,0,0,0,0,0,0,0,0,0,0],"id":10,"left_children":[1,3,5,7,9,11,13,15,17,19,21,23,25,27,29,31,33,35,37,39,41,43,45,47,49,51,53,55,57,59,61,63,65,67,69,71,73,75,77,79,81,83,85,87,89,91,93,95,97,99,101,103,105,107,109,111,113,115,117,119,121,123,125,-1,-1,-1,-1,-1,-1,-1,-1,-1,-1,-1,-1,-1,-1,-1,-1,-1,-1,-1,-1,-1,-1,-1,-1,-1,-1,-1,-1,-1,-1,-1,-1,-1,-1,-1,-1,-1,-1,-1,-1,-1,-1,-1,-1,-1,-1,-1,-1,-1,-1,-1,-1,-1,-1,-1,-1,-1,-1,-1,-1,-1,-1,-1,-1],"loss_changes":[2.9125799E4,4.573622E3,3.9616191E3,7.187988E2,6.2342725E2,5.1184607E2,4.9393164E2,1.2428613E2,9.384277E1,8.562256E1,7.3760254E1,6.92189E1,6.135437E1,7.4220215E1,5.72041E1,2.0381348E1,1.7655273E1,1.2338379E1,1.0791016E1,1.267627E1,8.615356E0,9.753845E0,8.795639E0,8.644652E0,8.56691E0,8.912476E0,7.7250977E0,1.7749023E1,1.2160645E1,1.930371E1,1.9425293E1,3.0344238E0,3.1123047E0,2.352295E0,2.0939941E0,1.5014648E0,1.4206543E0,1.6405029E0,1.833252E0,1.9470215E0,2.4764404E0,2.6030273E0,2.256897E0,3.1018372E0,3.9258423E0,5.0581512E0,5.439024E0,5.398043E0,5.853056E0,5.7766E0,5.5084534E0,4.858856E0,6.141754E0,2.3202515E0,7.126648E0,3.033142E0,7.7839355E0,1.0256348E1,9.826904E0,1.8344727E0,1.5282715E1,5.1262207E0,9.729004E-1,0E0,0E0,0E0,0E0,0E0,0E0,0E0,0E0,0E0,0E0,0E0,0E0,0E0,0E0,0E0,0E0,0E0,0E0,0E0,0E0,0E0,0E0,0E0,0E0,0E0,0E0,0E0,0E0,0E0,0E0,0E0,0E0,0E0,0E0,0E0,0E0,0E0,0E0,0E0,0E0,0E0,0E0,0E0,0E0,0E0,0E0,0E0,0E0,0E0,0E0,0E0,0E0,0E0,0E0,0E0,0E0,0E0,0E0,0E0,0E0,0E0,0E0,0E0,0E0],"parents":[2147483647,0,0,1,1,2,2,3,3,4,4,5,5,6,6,7,7,8,8,9,9,10,10,11,11,12,12,13,13,14,14,15,15,16,16,17,17,18,18,19,19,20,20,21,21,22,22,23,23,24,24,25,25,26,26,27,27,28,28,29,29,30,30,31,31,32,32,33,33,34,34,35,35,36,36,37,37,38,38,39,39,40,40,41,41,42,42,43,43,44,44,45,45,46,46,47,47,48,48,49,49,50,50,51,51,52,52,53,53,54,54,55,55,56,56,57,57,58,58,59,59,60,60,61,61,62,62],"right_children":[2,4,6,8,10,12,14,16,18,20,22,24,26,28,30,32,34,36,38,40,42,44,46,48,50,52,54,56,58,60,62,64,66,68,70,72,74,76,78,80,82,84,86,88,90,92,94,96,98,100,102,104,106,108,110,112,114,116,118,120,122,124,126,-1,-1,-1,-1,-1,-1,-1,-1,-1,-1,-1,-1,-1,-1,-1,-1,-1,-1,-1,-1,-1,-1,-1,-1,-1,-1,-1,-1,-1,-1,-1,-1,-1,-1,-1,-1,-1,-1,-1,-1,-1,-1,-1,-1,-1,-1,-1,-1,-1,-1,-1,-1,-1,-1,-1,-1,-1,-1,-1,-1,-1,-1,-1,-1],"split_conditions":[-7.727297E-2,-1.0445497E0,7.805007E-1,-1.6285658E0,-5.3353554E-1,3.607391E-1,1.2550138E0,-2.0300767E0,-1.3183072E0,-7.707921E-1,-3.1452942E-1,1.4173308E-1,5.797452E-1,9.995068E-1,1.4740199E0,-2.3038344E0,-1.8110708E0,-1.4643112E0,-1.1723032E0,-8.985456E-1,-6.430386E-1,-4.0578204E-1,-1.6852549E-1,3.2230053E-2,2.5123608E-1,4.5199165E-1,5.4461807E-1,7.725469E-1,1.1455108E0,1.3331286E0,1.5287714E0,-2.431588E0,-2.1395798E0,-1.9023234E0,-1.7198184E0,-1.0256978E0,-1.2849727E0,-1.2295306E0,-1.1679282E0,-1.1001656E0,-1.032403E0,-9.399994E-1,-8.5991627E-1,-7.551922E-1,-5.8270556E-1,-4.4102007E-1,-2.4389245E-1,-1.6996959E-1,-3.444435E-2,6.4119466E-2,1.7500375E-1,2.9204828E-1,3.7213138E-1,6.709977E-1,6.709977E-1,8.717532E-1,8.717532E-1,1.0251167E0,1.1606419E0,1.3280158E0,1.5856984E0,1.5364164E0,1.3451061E-2,-1.6456895E-2,-1.5176778E-2,-1.4268766E-2,-1.3350777E-2,-1.2613359E-2,-1.1920501E-2,-1.132977E-2,-1.0721905E-2,-1.0325935E-2,-9.745667E-3,-8.693758E-3,-9.170276E-3,-7.7514984E-3,-8.230492E-3,-6.8448335E-3,-7.359236E-3,-5.9623136E-3,-6.44113E-3,-4.992313E-3,-5.56476E-3,-4.158409E-3,-4.73788E-3,-3.3112464E-3,-3.94907E-3,-2.4538117E-3,-3.1860096E-3,-1.6873099E-3,-2.4908788E-3,-9.3558757E-4,-1.7488853E-3,-3.1478223E-4,-1.1882182E-3,3.7113248E-4,-4.6853293E-4,1.048623E-3,1.9948538E-4,1.8336527E-3,9.457467E-4,2.5479754E-3,1.6522218E-3,3.1967403E-3,2.2659947E-3,4.014627E-3,3.026865E-3,4.618355E-3,5.5327103E-3,3.6658004E-3,4.400716E-3,5.9482222E-3,6.8142037E-3,4.942075E-3,5.6903427E-3,7.803959E-3,6.499909E-3,8.797239E-3,7.249811E-3,9.32139E-3,1.0191735E-2,8.040823E-3,9.10397E-3,1.10627925E-2,9.4720265E-3,9.869027E-3,1.1184542E-2],"split_indices":[4,4,4,4,4,4,4,4,4,4,4,4,4,4,4,4,4,4,4,4,4,4,4,4,4,4,0,0,4,0,4,4,4,4,4,2,0,0,0,0,0,0,0,0,0,0,0,0,0,0,0,0,0,4,4,4,4,0,0,4,0,0,3,0,0,0,0,0,0,0,0,0,0,0,0,0,0,0,0,0,0,0,0,0,0,0,0,0,0,0,0,0,0,0,0,0,0,0,0,0,0,0,0,0,0,0,0,0,0,0,0,0,0,0,0,0,0,0,0,0,0,0,0,0,0,0,0],"split_type":[0,0,0,0,0,0,0,0,0,0,0,0,0,0,0,0,0,0,0,0,0,0,0,0,0,0,0,0,0,0,0,0,0,0,0,0,0,0,0,0,0,0,0,0,0,0,0,0,0,0,0,0,0,0,0,0,0,0,0,0,0,0,0,0,0,0,0,0,0,0,0,0,0,0,0,0,0,0,0,0,0,0,0,0,0,0,0,0,0,0,0,0,0,0,0,0,0,0,0,0,0,0,0,0,0,0,0,0,0,0,0,0,0,0,0,0,0,0,0,0,0,0,0,0,0,0,0],"sum_hessian":[2.510419E6,1.11409E6,1.396329E6,4.40138E5,6.73952E5,7.04629E5,6.917E5,1.6559E5,2.74548E5,3.27332E5,3.4662E5,3.59798E5,3.44831E5,4.08421E5,2.83279E5,5.6974E4,1.08616E5,1.31181E5,1.43367E5,1.67237E5,1.60095E5,1.74523E5,1.72097E5,1.77911E5,1.81887E5,1.80938E5,1.63893E5,1.91261E5,2.1716E5,1.84044E5,9.9235E4,1.9128E4,3.7846E4,5.0498E4,5.8118E4,6.6277E4,6.4904E4,7.3316E4,7.0051E4,8.6209E4,8.1028E4,8.4396E4,7.5699E4,9.2232E4,8.2291E4,9.9326E4,7.2771E4,8.8419E4,8.9492E4,9.1177E4,9.071E4,7.5495E4,1.05443E5,2.8949E4,1.34944E5,4.567E4,1.45591E5,1.22859E5,9.4301E4,2.5818E4,1.58226E5,6.8699E4,3.0536E4,9.644E3,9.484E3,1.9182E4,1.8664E4,2.6987E4,2.3511E4,2.762E4,3.0498E4,1.4695E4,5.1582E4,3.6394E4,2.851E4,4.0271E4,3.3045E4,3.548E4,3.4571E4,3.9474E4,4.6735E4,3.0342E4,5.0686E4,3.0367E4,5.4029E4,1.8354E4,5.7345E4,1.799E4,7.4242E4,2.0132E4,6.2159E4,2.5846E4,7.348E4,3.1206E4,4.1565E4,2.802E4,6.0399E4,3.1105E4,5.8387E4,2.5389E4,6.5788E4,2.2997E4,6.7713E4,1.8622E4,5.6873E4,1.9268E4,8.6175E4,1.7269E4,1.168E4,5.7627E4,7.7317E4,1.528E4,3.039E4,5.7581E4,8.801E4,1.7635E4,1.05224E5,1.1745E4,8.2556E4,1.0255E4,1.5563E4,1.09124E5,4.9102E4,5.548E3,6.3151E4,1.555E3,2.8981E4],"tree_param":{"num_deleted":"0","num_feature":"5","num_nodes":"127","size_leaf_vector":"1"}},{"base_weights":[-2.8605713E-5,-1.1876853E-1,8.816634E-2,-1.9438516E-1,-7.187139E-2,3.4800433E-2,1.3919646E-1,-2.4743238E-1,-1.6823801E-1,-1.02826886E-1,-4.5017835E-2,8.472765E-3,5.9805747E-2,1.16181545E-1,1.7017819E-1,-2.859256E-1,-2.3217097E-1,-1.8809056E-1,-1.5088418E-1,-1.1784497E-1,-8.822642E-2,-5.991139E-2,-3.1235794E-2,-4.8238477E-3,2.0400418E-2,4.6578463E-2,7.3096655E-2,9.8245405E-2,1.27185E-1,1.6138633E-1,1.9504957E-1,-3.128247E-1,-2.7685434E-1,-2.4537356E-1,-2.204043E-1,-1.9719464E-1,-1.7808314E-1,-1.6026488E-1,-1.4246361E-1,-1.2606335E-1,-1.10209376E-1,-9.605462E-2,-8.1804305E-2,-6.778703E-2,-5.3445157E-2,-3.9249253E-2,-2.4531031E-2,-1.162345E-2,7.4708223E-4,1.2569988E-2,2.5942817E-2,3.983771E-2,5.325842E-2,6.646875E-2,7.975754E-2,1.13042675E-1,9.5120564E-2,1.2150011E-1,1.3711987E-1,1.8261547E-1,1.564764E-1,2.0494984E-1,1.7505914E-1,-1.5763866E-2,-1.52992895E-2,-1.4423844E-2,-1.3550334E-2,-1.2682619E-2,-1.1982287E-2,-1.1322963E-2,-1.0762693E-2,-1.0185484E-2,-9.589781E-3,-9.3111275E-3,-8.783358E-3,-7.7480003E-3,-8.232466E-3,-6.8666944E-3,-7.352052E-3,-6.04974E-3,-6.5554627E-3,-5.2248416E-3,-5.7506207E-3,-4.4900193E-3,-5.035862E-3,-3.7359614E-3,-4.276603E-3,-3.030094E-3,-3.5727776E-3,-2.0588057E-3,-2.8032851E-3,-1.4617322E-3,-2.198776E-3,-7.1205705E-4,-1.4604697E-3,-2.7056498E-5,-8.920302E-4,6.4344105E-4,-2.02328E-4,1.1010937E-3,2.719117E-4,1.9463347E-3,1.0945841E-3,2.6989216E-3,1.7849423E-3,3.3473358E-3,2.464109E-3,4.0255203E-3,3.1250962E-3,4.8078923E-3,3.816364E-3,5.2523315E-3,6.0441806E-3,4.366103E-3,5.0506005E-3,6.7134365E-3,5.866537E-3,7.520528E-3,6.030612E-3,8.820237E-3,9.817193E-3,7.2634667E-3,8.335134E-3,9.922321E-3,1.0604947E-2,8.512995E-3,1.0228115E-2],"categories":[],"categories_nodes":[],"categories_segments":[],"categories_sizes":[],"default_left":[0,0,0,0,0,0,0,0,0,0,0,0,0,0,0,0,0,0,0,0,0,0,0,0,0,0,0,0,0,0,0,0,0,0,0,0,0,0,0,0,0,0,0,0,0,0,0,0,0,0,0,0,0,0,0,0,0,0,0,0,0,0,0,0,0,0,0,0,0,0,0,0,0,0,0,0,0,0,0,0,0,0,0,0,0,0,0,0,0,0,0,0,0,0,0,0,0,0,0,0,0,0,0,0,0,0,0,0,0,0,0,0,0,0,0,0,0,0,0,0,0,0,0,0,0,0,0],"id":11,"left_children":[1,3,5,7,9,11,13,15,17,19,21,23,25,27,29,31,33,35,37,39,41,43,45,47,49,51,53,55,57,59,61,63,65,67,69,71,73,75,77,79,81,83,85,87,89,91,93,95,97,99,101,103,105,107,109,111,113,115,117,119,121,123,125,-1,-1,-1,-1,-1,-1,-1,-1,-1,-1,-1,-1,-1,-1,-1,-1,-1,-1,-1,-1,-1,-1,-1,-1,-1,-1,-1,-1,-1,-1,-1,-1,-1,-1,-1,-1,-1,-1,-1,-1,-1,-1,-1,-1,-1,-1,-1,-1,-1,-1,-1,-1,-1,-1,-1,-1,-1,-1,-1,-1,-1,-1,-1,-1],"loss_changes":[2.628787E4,3.7939102E3,3.922546E3,5.6798926E2,5.489016E2,4.6351697E2,5.249951E2,7.9365234E1,9.447998E1,6.72478E1,7.257776E1,5.439456E1,6.3480347E1,8.336621E1,6.859277E1,9.279297E0,1.4988281E1,1.162207E1,1.1539551E1,9.474609E0,7.8114014E0,8.650818E0,9.8663025E0,6.143405E0,7.84597E0,8.147491E0,7.946594E0,7.416992E0,1.4771484E1,2.4140625E1,1.618457E1,6.567383E-2,1.873291E0,2.102539E0,1.5480957E0,2.3173828E0,1.1657715E0,1.5847168E0,1.7913818E0,1.8464355E0,2.138733E0,2.03479E0,2.2504272E0,2.0152283E0,2.9982605E0,3.958435E0,4.8132324E0,5.0322065E0,5.180025E0,5.050934E0,5.5674286E0,5.2706757E0,4.9443054E0,5.0241394E0,5.0462646E0,1.7430115E0,6.085083E0,8.850586E0,2.0888184E1,3.678711E0,2.1558594E1,2.5061035E0,3.8098145E0,0E0,0E0,0E0,0E0,0E0,0E0,0E0,0E0,0E0,0E0,0E0,0E0,0E0,0E0,0E0,0E0,0E0,0E0,0E0,0E0,0E0,0E0,0E0,0E0,0E0,0E0,0E0,0E0,0E0,0E0,0E0,0E0,0E0,0E0,0E0,0E0,0E0,0E0,0E0,0E0,0E0,0E0,0E0,0E0,0E0,0E0,0E0,0E0,0E0,0E0,0E0,0E0,0E0,0E0,0E0,0E0,0E0,0E0,0E0,0E0,0E0,0E0,0E0,0E0],"parents":[2147483647,0,0,1,1,2,2,3,3,4,4,5,5,6,6,7,7,8,8,9,9,10,10,11,11,12,12,13,13,14,14,15,15,16,16,17,17,18,18,19,19,20,20,21,21,22,22,23,23,24,24,25,25,26,26,27,27,28,28,29,29,30,30,31,31,32,32,33,33,34,34,35,35,36,36,37,37,38,38,39,39,40,40,41,41,42,42,43,43,44,44,45,45,46,46,47,47,48,48,49,49,50,50,51,51,52,52,53,53,54,54,55,55,56,56,57,57,58,58,59,59,60,60,61,61,62,62],"right_children":[2,4,6,8,10,12,14,16,18,20,22,24,26,28,30,32,34,36,38,40,42,44,46,48,50,52,54,56,58,60,62,64,66,68,70,72,74,76,78,80,82,84,86,88,90,92,94,96,98,100,102,104,106,108,110,112,114,116,118,120,122,124,126,-1,-1,-1,-1,-1,-1,-1,-1,-1,-1,-1,-1,-1,-1,-1,-1,-1,-1,-1,-1,-1,-1,-1,-1,-1,-1,-1,-1,-1,-1,-1,-1,-1,-1,-1,-1,-1,-1,-1,-1,-1,-1,-1,-1,-1,-1,-1,-1,-1,-1,-1,-1,-1,-1,-1,-1,-1,-1,-1,-1,-1,-1,-1,-1],"split_conditions":[-1.3202448E-1,-1.0993012E0,7.257492E-1,-1.7198184E0,-6.065376E-1,2.877371E-1,1.2185128E0,-2.1395798E0,-1.3913093E0,-8.437941E-1,-3.6928102E-1,6.873106E-2,5.0674313E-1,9.2650473E-1,2.0629358E0,-2.431588E0,-1.9023234E0,-1.5373132E0,-1.2453052E0,-9.7154766E-1,-7.342911E-1,-4.9703455E-1,-2.59778E-1,-4.077196E-2,1.5998358E-1,3.9724013E-1,6.1624616E-1,7.1710473E-1,1.1090097E0,3.2144803E-1,2.1756537E0,-1.8024328E0,-2.3038344E0,-2.0300767E0,-1.8110708E0,-1.6285658E0,-1.0256978E0,-1.2788125E0,-1.2110499E0,-1.1309668E0,-1.0632042E0,-9.892813E-1,-9.0919816E-1,-7.859934E-1,-7.2439104E-1,-5.026225E-1,-3.7325746E-1,-2.2541174E-1,-1.391684E-1,2.0997794E-2,7.02797E-2,2.0580494E-1,3.290097E-1,4.583747E-1,5.4461807E-1,7.987512E-1,8.170017E-1,9.4503355E-1,4.3416575E-1,1.3645169E0,1.3645169E0,1.5287714E0,1.5287714E0,-1.5763866E-2,-1.52992895E-2,-1.4423844E-2,-1.3550334E-2,-1.2682619E-2,-1.1982287E-2,-1.1322963E-2,-1.0762693E-2,-1.0185484E-2,-9.589781E-3,-9.3111275E-3,-8.783358E-3,-7.7480003E-3,-8.232466E-3,-6.8666944E-3,-7.352052E-3,-6.04974E-3,-6.5554627E-3,-5.2248416E-3,-5.7506207E-3,-4.4900193E-3,-5.035862E-3,-3.7359614E-3,-4.276603E-3,-3.030094E-3,-3.5727776E-3,-2.0588057E-3,-2.8032851E-3,-1.4617322E-3,-2.198776E-3,-7.1205705E-4,-1.4604697E-3,-2.7056498E-5,-8.920302E-4,6.4344105E-4,-2.02328E-4,1.1010937E-3,2.719117E-4,1.9463347E-3,1.0945841E-3,2.6989216E-3,1.7849423E-3,3.3473358E-3,2.464109E-3,4.0255203E-3,3.1250962E-3,4.8078923E-3,3.816364E-3,5.2523315E-3,6.0441806E-3,4.366103E-3,5.0506005E-3,6.7134365E-3,5.866537E-3,7.520528E-3,6.030612E-3,8.820237E-3,9.817193E-3,7.2634667E-3,8.335134E-3,9.922321E-3,1.0604947E-2,8.512995E-3,1.0228115E-2],"split_indices":[4,4,4,4,4,4,4,4,4,4,4,4,4,4,1,4,4,4,4,4,4,4,4,4,4,4,4,0,4,1,1,0,4,4,4,4,2,0,0,0,0,0,0,0,0,0,0,0,0,0,0,0,0,0,0,4,4,0,1,4,4,4,4,0,0,0,0,0,0,0,0,0,0,0,0,0,0,0,0,0,0,0,0,0,0,0,0,0,0,0,0,0,0,0,0,0,0,0,0,0,0,0,0,0,0,0,0,0,0,0,0,0,0,0,0,0,0,0,0,0,0,0,0,0,0,0,0],"split_type":[0,0,0,0,0,0,0,0,0,0,0,0,0,0,0,0,0,0,0,0,0,0,0,0,0,0,0,0,0,0,0,0,0,0,0,0,0,0,0,0,0,0,0,0,0,0,0,0,0,0,0,0,0,0,0,0,0,0,0,0,0,0,0,0,0,0,0,0,0,0,0,0,0,0,0,0,0,0,0,0,0,0,0,0,0,0,0,0,0,0,0,0,0,0,0,0,0,0,0,0,0,0,0,0,0,0,0,0,0,0,0,0,0,0,0,0,0,0,0,0,0,0,0,0,0,0,0],"sum_hessian":[2.510236E6,1.069854E6,1.440382E6,4.09529E5,6.60325E5,7.04078E5,7.36304E5,1.35209E5,2.7432E5,3.06734E5,3.53591E5,3.42971E5,3.61107E5,4.22473E5,3.13831E5,3.8382E4,9.6827E4,1.27944E5,1.46376E5,1.51201E5,1.55533E5,1.69941E5,1.8365E5,1.62179E5,1.80792E5,1.80989E5,1.80118E5,1.60637E5,2.61836E5,2.31873E5,8.1958E4,9.671E3,2.8711E4,4.562E4,5.1207E4,6.6986E4,6.0958E4,6.9232E4,7.7144E4,7.2814E4,7.8387E4,7.0087E4,8.5446E4,7.6616E4,9.3325E4,8.3658E4,9.9992E4,7.3035E4,8.9144E4,7.4931E4,1.05861E5,9.0088E4,9.0901E4,9.0288E4,8.983E4,2.8002E4,1.32635E5,1.66548E5,9.5288E4,4.3548E4,1.88325E5,5.4806E4,2.7152E4,7.085E3,2.586E3,9.594E3,1.9117E4,1.8638E4,2.6982E4,2.3517E4,2.769E4,3.0339E4,3.6647E4,1.3935E4,4.7023E4,3.1344E4,3.7888E4,3.6392E4,4.0752E4,3.6338E4,3.6476E4,3.5814E4,4.2573E4,2.9943E4,4.0144E4,2.9465E4,5.5981E4,2.5902E4,5.0714E4,1.6428E4,7.6897E4,2.6825E4,5.6833E4,3.1254E4,6.8738E4,2.6248E4,4.6787E4,2.5262E4,6.3882E4,3.2223E4,4.2708E4,2.5173E4,8.0688E4,2.0395E4,6.9693E4,2.0458E4,7.0443E4,1.9884E4,7.0404E4,1.5534E4,7.4296E4,1.3871E4,1.4131E4,5.7086E4,7.5549E4,4.0989E4,1.25559E5,5.2783E4,4.2505E4,2.9993E4,1.3555E4,8.9861E4,9.8464E4,2.8714E4,2.6092E4,2.3359E4,3.793E3],"tree_param":{"num_deleted":"0","num_feature":"5","num_nodes":"127","size_leaf_vector":"1"}},{"base_weights":[4.2730804E-5,-1.0885351E-1,8.678574E-2,-1.7908718E-1,-6.1165582E-2,3.8096882E-2,1.3428596E-1,-2.2746901E-1,-1.5098739E-1,-8.941522E-2,-3.5433102E-2,1.4250288E-2,6.186541E-2,1.1329789E-1,1.6301374E-1,-2.61585E-1,-2.094905E-1,-1.6963087E-1,-1.3512431E-1,-1.03587896E-1,-7.554091E-2,-4.8528217E-2,-2.218871E-2,2.709669E-3,2.6656698E-2,5.034352E-2,7.463291E-2,1.01037495E-1,1.2579909E-1,1.5239874E-1,1.7979065E-1,-2.857006E-1,-2.4929811E-1,-2.2187635E-1,-1.9876911E-1,-1.7836273E-1,-1.6073036E-1,-1.4384253E-1,-1.2720644E-1,-1.1114493E-1,-9.652987E-2,-8.286152E-2,-6.9531694E-2,-5.4943763E-2,-4.1359376E-2,-2.8752873E-2,-1.5760072E-2,-3.654826E-3,8.991386E-3,2.0343311E-2,3.193605E-2,4.2696934E-2,5.5814795E-2,8.818267E-2,7.1664646E-2,1.1579096E-1,9.619011E-2,1.4481819E-1,1.2293547E-1,1.765406E-1,1.4853942E-1,1.7224312E-1,2.0079046E-1,-1.48615865E-2,-1.3698535E-2,-1.2875721E-2,-1.2046859E-2,-1.15045E-2,-1.0853585E-2,-1.0225754E-2,-9.676563E-3,-9.299047E-3,-8.783785E-3,-8.282E-3,-7.831828E-3,-7.588365E-3,-7.055028E-3,-6.894292E-3,-6.263245E-3,-5.2818498E-3,-5.769187E-3,-4.498524E-3,-5.0225733E-3,-3.7960527E-3,-4.3633385E-3,-3.0467275E-3,-3.6164087E-3,-2.2035425E-3,-2.8784322E-3,-1.6647095E-3,-2.326354E-3,-8.8050106E-4,-1.6513905E-3,-3.3296712E-4,-1.094158E-3,3.1495845E-4,-4.4170042E-4,9.975616E-4,1.9430667E-4,1.637686E-3,7.820502E-4,2.2473515E-3,1.3962254E-3,2.690442E-3,1.8732239E-3,3.4995594E-3,2.6186276E-3,4.095216E-3,4.88009E-3,3.2627487E-3,3.9280574E-3,5.1926686E-3,6.1175725E-3,4.3938104E-3,5.1265834E-3,6.767881E-3,7.768556E-3,5.8648214E-3,6.5499954E-3,8.276644E-3,9.12731E-3,7.205757E-3,8.180295E-3,1.0000917E-2,8.478801E-3,8.875531E-3,1.0101635E-2],"categories":[],"categories_nodes":[],"categories_segments":[],"categories_sizes":[],"default_left":[0,0,0,0,0,0,0,0,0,0,0,0,0,0,0,0,0,0,0,0,0,0,0,0,0,0,0,0,0,0,0,0,0,0,0,0,0,0,0,0,0,0,0,0,0,0,0,0,0,0,0,0,0,0,0,0,0,0,0,0,0,0,0,0,0,0,0,0,0,0,0,0,0,0,0,0,0,0,0,0,0,0,0,0,0,0,0,0,0,0,0,0,0,0,0,0,0,0,0,0,0,0,0,0,0,0,0,0,0,0,0,0,0,0,0,0,0,0,0,0,0,0,0,0,0,0,0],"id":12,"left_children":[1,3,5,7,9,11,13,15,17,19,21,23,25,27,29,31,33,35,37,39,41,43,45,47,49,51,53,55,57,59,61,63,65,67,69,71,73,75,77,79,81,83,85,87,89,91,93,95,97,99,101,103,105,107,109,111,113,115,117,119,121,123,125,-1,-1,-1,-1,-1,-1,-1,-1,-1,-1,-1,-1,-1,-1,-1,-1,-1,-1,-1,-1,-1,-1,-1,-1,-1,-1,-1,-1,-1,-1,-1,-1,-1,-1,-1,-1,-1,-1,-1,-1,-1,-1,-1,-1,-1,-1,-1,-1,-1,-1,-1,-1,-1,-1,-1,-1,-1,-1,-1,-1,-1,-1,-1,-1],"loss_changes":[2.3719424E4,3.72896E3,3.232497E3,6.12083E2,4.8203662E2,3.9121185E2,4.2655273E2,1.014082E2,8.42124E1,6.2148193E1,6.0184753E1,4.933078E1,5.08468E1,6.2645996E1,5.3162598E1,1.6843506E1,1.4342773E1,1.0147461E1,1.0604736E1,8.329346E0,7.021118E0,8.02298E0,7.279999E0,7.1364946E0,5.533661E0,7.599457E0,6.588501E0,1.4749756E1,1.1006348E1,1.7018066E1,1.8309082E1,2.5238037E0,2.536621E0,1.9333496E0,1.7084961E0,1.3200684E0,1.2774658E0,1.5700684E0,1.6551514E0,1.7506714E0,2.0709229E0,2.1948853E0,2.1047668E0,2.6254272E0,3.433258E0,4.065689E0,4.8571415E0,4.5711546E0,5.0264397E0,4.412426E0,4.718399E0,4.404602E0,5.1648254E0,1.7342224E0,5.940857E0,3.984497E0,8.182251E0,2.6229858E0,7.9853516E0,1.6362915E0,1.04904785E1,6.2734375E0,8.48999E-1,0E0,0E0,0E0,0E0,0E0,0E0,0E0,0E0,0E0,0E0,0E0,0E0,0E0,0E0,0E0,0E0,0E0,0E0,0E0,0E0,0E0,0E0,0E0,0E0,0E0,0E0,0E0,0E0,0E0,0E0,0E0,0E0,0E0,0E0,0E0,0E0,0E0,0E0,0E0,0E0,0E0,0E0,0E0,0E0,0E0,0E0,0E0,0E0,0E0,0E0,0E0,0E0,0E0,0E0,0E0,0E0,0E0,0E0,0E0,0E0,0E0,0E0,0E0,0E0],"parents":[2147483647,0,0,1,1,2,2,3,3,4,4,5,5,6,6,7,7,8,8,9,9,10,10,11,11,12,12,13,13,14,14,15,15,16,16,17,17,18,18,19,19,20,20,21,21,22,22,23,23,24,24,25,25,26,26,27,27,28,28,29,29,30,30,31,31,32,32,33,33,34,34,35,35,36,36,37,37,38,38,39,39,40,40,41,41,42,42,43,43,44,44,45,45,46,46,47,47,48,48,49,49,50,50,51,51,52,52,53,53,54,54,55,55,56,56,57,57,58,58,59,59,60,60,61,61,62,62],